{"learner":{"attributes":{"scikit_learn":"{\"_estimator_type\": \"regressor\"}"},"feature_names":["building_type_enc"],"feature_types":["int"],"gradient_booster":{"model":{"gbtree_model_param":{"num_parallel_tree":"1","num_trees":"300"},"iteration_indptr":[0,1,2,3,4,5,6,7,8,9,10,11,12,13,14,15,16,17,18,19,20,21,22,23,24,25,26,27,28,29,30,31,32,33,34,35,36,37,38,39,40,41,42,43,44,45,46,47,48,49,50,51,52,53,54,55,56,57,58,59,60,61,62,63,64,65,66,67,68,69,70,71,72,73,74,75,76,77,78,79,80,81,82,83,84,85,86,87,88,89,90,91,92,93,94,95,96,97,98,99,100,101,102,103,104,105,106,107,108,109,110,111,112,113,114,115,116,117,118,119,120,121,122,123,124,125,126,127,128,129,130,131,132,133,134,135,136,137,138,139,140,141,142,143,144,145,146,147,148,149,150,151,152,153,154,155,156,157,158,159,160,161,162,163,164,165,166,167,168,169,170,171,172,173,174,175,176,177,178,179,180,181,182,183,184,185,186,187,188,189,190,191,192,193,194,195,196,197,198,199,200,201,202,203,204,205,206,207,208,209,210,211,212,213,214,215,216,217,218,219,220,221,222,223,224,225,226,227,228,229,230,231,232,233,234,235,236,237,238,239,240,241,242,243,244,245,246,247,248,249,250,251,252,253,254,255,256,257,258,259,260,261,262,263,264,265,266,267,268,269,270,271,272,273,274,275,276,277,278,279,280,281,282,283,284,285,286,287,288,289,290,291,292,293,294,295,296,297,298,299,300],"tree_info":[0,0,0,0,0,0,0,0,0,0,0,0,0,0,0,0,0,0,0,0,0,0,0,0,0,0,0,0,0,0,0,0,0,0,0,0,0,0,0,0,0,0,0,0,0,0,0,0,0,0,0,0,0,0,0,0,0,0,0,0,0,0,0,0,0,0,0,0,0,0,0,0,0,0,0,0,0,0,0,0,0,0,0,0,0,0,0,0,0,0,0,0,0,0,0,0,0,0,0,0,0,0,0,0,0,0,0,0,0,0,0,0,0,0,0,0,0,0,0,0,0,0,0,0,0,0,0,0,0,0,0,0,0,0,0,0,0,0,0,0,0,0,0,0,0,0,0,0,0,0,0,0,0,0,0,0,0,0,0,0,0,0,0,0,0,0,0,0,0,0,0,0,0,0,0,0,0,0,0,0,0,0,0,0,0,0,0,0,0,0,0,0,0,0,0,0,0,0,0,0,0,0,0,0,0,0,0,0,0,0,0,0,0,0,0,0,0,0,0,0,0,0,0,0,0,0,0,0,0,0,0,0,0,0,0,0,0,0,0,0,0,0,0,0,0,0,0,0,0,0,0,0,0,0,0,0,0,0,0,0,0,0,0,0,0,0,0,0,0,0,0,0,0,0,0,0,0,0,0,0,0,0,0,0,0,0,0,0,0,0,0,0,0,0,0,0,0,0,0,0],"trees":[{"base_weights":[3.8172097E-8,-2.4338534E-1,1.2699668E0,-3.4506267E-1,4.7295976E-2,1.6616923E-1,5.2317655E-1,6.834138E-2,-4.0674147E-1,1.186748E-2,-2.61122E-1,3.2855895E-1,3.2869515E0,-4.8603398E-1,5.773626E-1,-3.8594064E-1,-3.473117E-2,-2.0485824E-2,2.632551E-1,2.5702897E-1,5.731848E-2,4.2199864E0,-7.675075E-2,1.8323316E-1,-2.934112E-2,2.1798895E-1,4.3346313E-1,-2.3628648E-2,-3.758148E-1,-1.7792497E-2,2.2321146E-2,4.9122185E-2,2.3532872E-1,2.5274062E-1,3.4026928E0,1.3610798E-2,-2.9626286E-2,-4.305885E-3,1.00431135E-2,1.5274388E-2,4.8693642E-2,8.577966E-3,-1.9311015E-2,3.902519E-2,-1.6187232E-2,-1.7528696E-2,1.4719806E-2,-8.681164E-3,2.5983194E-1],"categories":[],"categories_nodes":[],"categories_segments":[],"categories_sizes":[],"default_left":[0,0,0,0,0,0,0,0,0,0,0,0,0,0,0,0,0,0,0,0,0,0,0,0,0,0,0,0,0,0,0,0,0,0,0,0,0,0,0,0,0,0,0,0,0,0,0,0,0],"id":0,"left_children":[1,3,5,7,9,-1,11,13,15,-1,17,19,21,23,25,27,-1,-1,29,31,-1,33,35,37,-1,-1,39,-1,41,43,-1,-1,45,-1,47,-1,-1,-1,-1,-1,-1,-1,-1,-1,-1,-1,-1,-1,-1],"loss_changes":[4.2243516E3,3.3899072E2,3.3688333E3,2.1668646E2,1.7432721E2,0E0,8.665191E2,3.118171E2,4.4008545E1,0E0,8.846863E1,8.792032E1,3.3299976E2,3.5790863E1,3.1161993E2,5.873535E0,0E0,0E0,1.292914E1,2.161824E1,0E0,3.9430786E1,4.4810147E0,3.4968686E-1,0E0,0E0,3.8154976E1,0E0,3.52713E1,2.467673E1,0E0,0E0,4.678904E1,0E0,2.8960944E2,0E0,0E0,0E0,0E0,0E0,0E0,0E0,0E0,0E0,0E0,0E0,0E0,0E0,0E0],"parents":[2147483647,0,0,1,1,2,2,3,3,4,4,6,6,7,7,8,8,10,10,11,11,12,12,13,13,14,14,15,15,18,18,19,19,21,21,22,22,23,23,26,26,28,28,29,29,32,32,34,34],"right_children":[2,4,6,8,10,-1,12,14,16,-1,18,20,22,24,26,28,-1,-1,30,32,-1,34,36,38,-1,-1,40,-1,42,44,-1,-1,46,-1,48,-1,-1,-1,-1,-1,-1,-1,-1,-1,-1,-1,-1,-1,-1],"split_conditions":[3.4E1,2.8E1,3.5E1,2E1,2.9E1,1.6616923E-1,5.3E1,6E0,2.6E1,1.186748E-2,3.1E1,5.2E1,5.8E1,5E0,7E0,2.1E1,-3.473117E-2,-2.0485824E-2,3.3E1,3.6E1,5.731848E-2,5.4E1,5.9E1,1E0,-2.934112E-2,2.1798895E-1,1.4E1,-2.3628648E-2,2.4E1,3.2E1,2.2321146E-2,4.9122185E-2,4E1,2.5274062E-1,5.7E1,1.3610798E-2,-2.9626286E-2,-4.305885E-3,1.00431135E-2,1.5274388E-2,4.8693642E-2,8.577966E-3,-1.9311015E-2,3.902519E-2,-1.6187232E-2,-1.7528696E-2,1.4719806E-2,-8.681164E-3,2.5983194E-1],"split_indices":[0,0,0,0,0,0,0,0,0,0,0,0,0,0,0,0,0,0,0,0,0,0,0,0,0,0,0,0,0,0,0,0,0,0,0,0,0,0,0,0,0,0,0,0,0,0,0,0,0],"split_type":[0,0,0,0,0,0,0,0,0,0,0,0,0,0,0,0,0,0,0,0,0,0,0,0,0,0,0,0,0,0,0,0,0,0,0,0,0,0,0,0,0,0,0,0,0,0,0,0,0],"sum_hessian":[1.3665E4,1.1468E4,2.197E3,8.496E3,2.972E3,5.85E2,1.612E3,1.103E3,7.393E3,1.839E3,1.133E3,1.507E3,1.05E2,5.28E2,5.75E2,6.897E3,4.96E2,8.83E2,2.5E2,1.387E3,1.2E2,8.2E1,2.3E1,6.9E1,4.59E2,2E1,5.55E2,7.17E2,6.18E3,9.9E1,1.51E2,3.9E1,1.348E3,3.8E1,4.4E1,1.4E1,9E0,4E0,6.5E1,4.5E2,1.05E2,1.15E2,6.065E3,2.7E1,7.2E1,1.23E2,1.225E3,1.5E1,2.9E1],"tree_param":{"num_deleted":"0","num_feature":"1","num_nodes":"49","size_leaf_vector":"1"}},{"base_weights":[7.19674E-5,-2.3119642E-1,1.2068131E0,-3.2778728E-1,4.4943452E-2,1.5787496E-1,4.9738428E-1,6.515831E-2,-3.8641375E-1,1.1274426E-2,-2.480441E-1,3.1219956E-1,3.1272066E0,-4.6177682E-1,5.489839E-1,-3.6664864E-1,-3.2998096E-2,-1.9462688E-2,2.5027218E-1,2.4421072E-1,5.447623E-2,4.015058E0,-7.358051E-2,1.7415343E-1,-2.7877247E-2,2.076085E-1,4.119049E-1,-2.2448858E-2,-3.5702586E-1,-1.6674552E-2,2.1212427E-2,4.672747E-2,2.2356005E-1,2.4042764E-1,3.2381394E0,1.2975626E-2,-2.8293101E-2,-4.1336515E-3,9.548564E-3,1.4512355E-2,4.628193E-2,8.152772E-3,-1.8345624E-2,3.7143614E-2,-1.5388958E-2,-1.6659338E-2,1.3984407E-2,-8.274228E-3,2.4727337E-1],"categories":[],"categories_nodes":[],"categories_segments":[],"categories_sizes":[],"default_left":[0,0,0,0,0,0,0,0,0,0,0,0,0,0,0,0,0,0,0,0,0,0,0,0,0,0,0,0,0,0,0,0,0,0,0,0,0,0,0,0,0,0,0,0,0,0,0,0,0],"id":1,"left_children":[1,3,5,7,9,-1,11,13,15,-1,17,19,21,23,25,27,-1,-1,29,31,-1,33,35,37,-1,-1,39,-1,41,43,-1,-1,45,-1,47,-1,-1,-1,-1,-1,-1,-1,-1,-1,-1,-1,-1,-1,-1],"loss_changes":[3.8142012E3,3.0592267E2,3.0401816E3,1.9577069E2,1.5732008E2,0E0,7.8455945E2,2.8171246E2,3.973523E1,0E0,7.98937E1,7.943088E1,3.015287E2,3.231418E1,2.8278824E2,5.3044434E0,0E0,0E0,1.1664119E1,1.9578346E1,0E0,3.5597168E1,4.082261E0,3.181374E-1,0E0,0E0,3.448117E1,0E0,3.1841736E1,2.23394E1,0E0,0E0,4.2248276E1,0E0,2.6231805E2,0E0,0E0,0E0,0E0,0E0,0E0,0E0,0E0,0E0,0E0,0E0,0E0,0E0,0E0],"parents":[2147483647,0,0,1,1,2,2,3,3,4,4,6,6,7,7,8,8,10,10,11,11,12,12,13,13,14,14,15,15,18,18,19,19,21,21,22,22,23,23,26,26,28,28,29,29,32,32,34,34],"right_children":[2,4,6,8,10,-1,12,14,16,-1,18,20,22,24,26,28,-1,-1,30,32,-1,34,36,38,-1,-1,40,-1,42,44,-1,-1,46,-1,48,-1,-1,-1,-1,-1,-1,-1,-1,-1,-1,-1,-1,-1,-1],"split_conditions":[3.4E1,2.8E1,3.5E1,2E1,2.9E1,1.5787496E-1,5.3E1,6E0,2.6E1,1.1274426E-2,3.1E1,5.2E1,5.8E1,5E0,7E0,2.1E1,-3.2998096E-2,-1.9462688E-2,3.3E1,3.6E1,5.447623E-2,5.4E1,5.9E1,1E0,-2.7877247E-2,2.076085E-1,1.4E1,-2.2448858E-2,2.4E1,3.2E1,2.1212427E-2,4.672747E-2,4E1,2.4042764E-1,5.7E1,1.2975626E-2,-2.8293101E-2,-4.1336515E-3,9.548564E-3,1.4512355E-2,4.628193E-2,8.152772E-3,-1.8345624E-2,3.7143614E-2,-1.5388958E-2,-1.6659338E-2,1.3984407E-2,-8.274228E-3,2.4727337E-1],"split_indices":[0,0,0,0,0,0,0,0,0,0,0,0,0,0,0,0,0,0,0,0,0,0,0,0,0,0,0,0,0,0,0,0,0,0,0,0,0,0,0,0,0,0,0,0,0,0,0,0,0],"split_type":[0,0,0,0,0,0,0,0,0,0,0,0,0,0,0,0,0,0,0,0,0,0,0,0,0,0,0,0,0,0,0,0,0,0,0,0,0,0,0,0,0,0,0,0,0,0,0,0,0],"sum_hessian":[1.3665E4,1.1468E4,2.197E3,8.496E3,2.972E3,5.85E2,1.612E3,1.103E3,7.393E3,1.839E3,1.133E3,1.507E3,1.05E2,5.28E2,5.75E2,6.897E3,4.96E2,8.83E2,2.5E2,1.387E3,1.2E2,8.2E1,2.3E1,6.9E1,4.59E2,2E1,5.55E2,7.17E2,6.18E3,9.9E1,1.51E2,3.9E1,1.348E3,3.8E1,4.4E1,1.4E1,9E0,4E0,6.5E1,4.5E2,1.05E2,1.15E2,6.065E3,2.7E1,7.2E1,1.23E2,1.225E3,1.5E1,2.9E1],"tree_param":{"num_deleted":"0","num_feature":"1","num_nodes":"49","size_leaf_vector":"1"}},{"base_weights":[1.3694154E-4,-2.1961772E-1,1.1468004E0,-3.1137654E-1,4.270799E-2,1.4999467E-1,4.7286403E-1,6.2123127E-2,-3.671018E-1,1.0711016E-2,-2.3562127E-1,2.966551E-1,2.9752247E0,-4.3873036E-1,5.2200055E-1,-3.4832075E-1,-3.1351507E-2,-1.8490661E-2,2.3792967E-1,2.3203209E-1,5.1774926E-2,3.8200815E0,-7.053974E-2,1.6552302E-1,-2.6486412E-2,1.9772239E-1,3.9141887E-1,-2.132797E-2,-3.39176E-1,-1.5623298E-2,2.0158775E-2,4.4449497E-2,2.1238025E-1,2.2871451E-1,3.0815434E0,1.2370094E-2,-2.7019909E-2,-3.9683036E-3,9.078366E-3,1.3788337E-2,4.398967E-2,7.7486383E-3,-1.7428486E-2,3.535276E-2,-1.4630051E-2,-1.5833093E-2,1.3285766E-2,-7.886381E-3,2.3532183E-1],"categories":[],"categories_nodes":[],"categories_segments":[],"categories_sizes":[],"default_left":[0,0,0,0,0,0,0,0,0,0,0,0,0,0,0,0,0,0,0,0,0,0,0,0,0,0,0,0,0,0,0,0,0,0,0,0,0,0,0,0,0,0,0,0,0,0,0,0,0],"id":2,"left_children":[1,3,5,7,9,-1,11,13,15,-1,17,19,21,23,25,27,-1,-1,29,31,-1,33,35,37,-1,-1,39,-1,41,43,-1,-1,45,-1,47,-1,-1,-1,-1,-1,-1,-1,-1,-1,-1,-1,-1,-1,-1],"loss_changes":[3.4438738E3,2.760802E2,2.7435906E3,1.7687378E2,1.4197229E2,0E0,7.103509E2,2.5451468E2,3.5877075E1,0E0,7.214996E1,7.176112E1,2.730324E2,2.917514E1,2.5662375E2,4.7906494E0,0E0,0E0,1.05228405E1,1.773088E1,0E0,3.213611E1,3.7189968E0,2.8944504E-1,0E0,0E0,3.1161125E1,0E0,2.8745483E1,2.0223467E1,0E0,0E0,3.8148224E1,0E0,2.3759845E2,0E0,0E0,0E0,0E0,0E0,0E0,0E0,0E0,0E0,0E0,0E0,0E0,0E0,0E0],"parents":[2147483647,0,0,1,1,2,2,3,3,4,4,6,6,7,7,8,8,10,10,11,11,12,12,13,13,14,14,15,15,18,18,19,19,21,21,22,22,23,23,26,26,28,28,29,29,32,32,34,34],"right_children":[2,4,6,8,10,-1,12,14,16,-1,18,20,22,24,26,28,-1,-1,30,32,-1,34,36,38,-1,-1,40,-1,42,44,-1,-1,46,-1,48,-1,-1,-1,-1,-1,-1,-1,-1,-1,-1,-1,-1,-1,-1],"split_conditions":[3.4E1,2.8E1,3.5E1,2E1,2.9E1,1.4999467E-1,5.3E1,6E0,2.6E1,1.0711016E-2,3.1E1,5.2E1,5.8E1,5E0,7E0,2.1E1,-3.1351507E-2,-1.8490661E-2,3.3E1,3.6E1,5.1774926E-2,5.4E1,5.9E1,1E0,-2.6486412E-2,1.9772239E-1,1.4E1,-2.132797E-2,2.4E1,3.2E1,2.0158775E-2,4.4449497E-2,4E1,2.2871451E-1,5.7E1,1.2370094E-2,-2.7019909E-2,-3.9683036E-3,9.078366E-3,1.3788337E-2,4.398967E-2,7.7486383E-3,-1.7428486E-2,3.535276E-2,-1.4630051E-2,-1.5833093E-2,1.3285766E-2,-7.886381E-3,2.3532183E-1],"split_indices":[0,0,0,0,0,0,0,0,0,0,0,0,0,0,0,0,0,0,0,0,0,0,0,0,0,0,0,0,0,0,0,0,0,0,0,0,0,0,0,0,0,0,0,0,0,0,0,0,0],"split_type":[0,0,0,0,0,0,0,0,0,0,0,0,0,0,0,0,0,0,0,0,0,0,0,0,0,0,0,0,0,0,0,0,0,0,0,0,0,0,0,0,0,0,0,0,0,0,0,0,0],"sum_hessian":[1.3665E4,1.1468E4,2.197E3,8.496E3,2.972E3,5.85E2,1.612E3,1.103E3,7.393E3,1.839E3,1.133E3,1.507E3,1.05E2,5.28E2,5.75E2,6.897E3,4.96E2,8.83E2,2.5E2,1.387E3,1.2E2,8.2E1,2.3E1,6.9E1,4.59E2,2E1,5.55E2,7.17E2,6.18E3,9.9E1,1.51E2,3.9E1,1.348E3,3.8E1,4.4E1,1.4E1,9E0,4E0,6.5E1,4.5E2,1.05E2,1.15E2,6.065E3,2.7E1,7.2E1,1.23E2,1.225E3,1.5E1,2.9E1],"tree_param":{"num_deleted":"0","num_feature":"1","num_nodes":"49","size_leaf_vector":"1"}},{"base_weights":[1.9517481E-4,-2.0861904E-1,1.0897721E0,-2.9578757E-1,4.058365E-2,1.4250772E-1,4.495527E-1,5.9229072E-2,-3.4875518E-1,1.0175748E-2,-2.2382037E-1,2.8188455E-1,2.8306284E0,-4.168343E-1,4.9634415E-1,-3.3090928E-1,-2.9787084E-2,-1.7567167E-2,2.26196E-1,2.2046077E-1,4.9207576E-2,3.6345732E0,-6.7623146E-2,1.5731974E-1,-2.5164971E-2,1.8830703E-1,3.7195194E-1,-2.0263057E-2,-3.2221887E-1,-1.4635043E-2,1.9157467E-2,1.5260352E-1,1.9906059E-2,2.17572E-1,2.9325204E0,1.1792823E-2,-2.5804011E-2,-3.8095736E-3,8.631318E-3,1.3100455E-2,4.1810937E-2,7.3645483E-3,-1.6557207E-2,3.3648252E-2,-1.3908579E-2,1.3220205E-2,-1.4684692E-2,-7.5167054E-3,2.2394793E-1],"categories":[],"categories_nodes":[],"categories_segments":[],"categories_sizes":[],"default_left":[0,0,0,0,0,0,0,0,0,0,0,0,0,0,0,0,0,0,0,0,0,0,0,0,0,0,0,0,0,0,0,0,0,0,0,0,0,0,0,0,0,0,0,0,0,0,0,0,0],"id":3,"left_children":[1,3,5,7,9,-1,11,13,15,-1,17,19,21,23,25,27,-1,-1,29,31,-1,33,35,37,-1,-1,39,-1,41,43,-1,45,-1,-1,47,-1,-1,-1,-1,-1,-1,-1,-1,-1,-1,-1,-1,-1,-1],"loss_changes":[3.109504E3,2.4914886E2,2.4759326E3,1.5980145E2,1.2812148E2,0E0,6.4316113E2,2.2994319E2,3.2393433E1,0E0,6.5156815E1,6.483193E1,2.4722937E2,2.6341019E1,2.3287984E2,4.326538E0,0E0,0E0,9.493216E0,1.667234E1,0E0,2.9011353E1,3.3880625E0,2.6335132E-1,0E0,0E0,2.8160706E1,0E0,2.595044E1,1.8307974E1,0E0,5.0273335E1,0E0,0E0,2.1520834E2,0E0,0E0,0E0,0E0,0E0,0E0,0E0,0E0,0E0,0E0,0E0,0E0,0E0,0E0],"parents":[2147483647,0,0,1,1,2,2,3,3,4,4,6,6,7,7,8,8,10,10,11,11,12,12,13,13,14,14,15,15,18,18,19,19,21,21,22,22,23,23,26,26,28,28,29,29,31,31,34,34],"right_children":[2,4,6,8,10,-1,12,14,16,-1,18,20,22,24,26,28,-1,-1,30,32,-1,34,36,38,-1,-1,40,-1,42,44,-1,46,-1,-1,48,-1,-1,-1,-1,-1,-1,-1,-1,-1,-1,-1,-1,-1,-1],"split_conditions":[3.4E1,2.8E1,3.5E1,2E1,2.9E1,1.4250772E-1,5.3E1,6E0,2.6E1,1.0175748E-2,3.1E1,5.2E1,5.8E1,5E0,7E0,2.1E1,-2.9787084E-2,-1.7567167E-2,3.3E1,5E1,4.9207576E-2,5.4E1,5.9E1,1E0,-2.5164971E-2,1.8830703E-1,1.4E1,-2.0263057E-2,2.4E1,3.2E1,1.9157467E-2,4.7E1,1.9906059E-2,2.17572E-1,5.7E1,1.1792823E-2,-2.5804011E-2,-3.8095736E-3,8.631318E-3,1.3100455E-2,4.1810937E-2,7.3645483E-3,-1.6557207E-2,3.3648252E-2,-1.3908579E-2,1.3220205E-2,-1.4684692E-2,-7.5167054E-3,2.2394793E-1],"split_indices":[0,0,0,0,0,0,0,0,0,0,0,0,0,0,0,0,0,0,0,0,0,0,0,0,0,0,0,0,0,0,0,0,0,0,0,0,0,0,0,0,0,0,0,0,0,0,0,0,0],"split_type":[0,0,0,0,0,0,0,0,0,0,0,0,0,0,0,0,0,0,0,0,0,0,0,0,0,0,0,0,0,0,0,0,0,0,0,0,0,0,0,0,0,0,0,0,0,0,0,0,0],"sum_hessian":[1.3665E4,1.1468E4,2.197E3,8.496E3,2.972E3,5.85E2,1.612E3,1.103E3,7.393E3,1.839E3,1.133E3,1.507E3,1.05E2,5.28E2,5.75E2,6.897E3,4.96E2,8.83E2,2.5E2,1.387E3,1.2E2,8.2E1,2.3E1,6.9E1,4.59E2,2E1,5.55E2,7.17E2,6.18E3,9.9E1,1.51E2,1.005E3,3.82E2,3.8E1,4.4E1,1.4E1,9E0,4E0,6.5E1,4.5E2,1.05E2,1.15E2,6.065E3,2.7E1,7.2E1,8.04E2,2.01E2,1.5E1,2.9E1],"tree_param":{"num_deleted":"0","num_feature":"1","num_nodes":"49","size_leaf_vector":"1"}},{"base_weights":[2.4581805E-4,-1.9817106E-1,1.0355701E0,-2.8097892E-1,3.856509E-2,1.353945E-1,4.273773E-1,5.646948E-2,-3.313254E-1,9.667239E-3,-2.1261056E-1,2.678351E-1,2.6930592E0,-3.9603093E-1,4.7194907E-1,-3.1436807E-1,-2.8300727E-2,-1.6689803E-2,2.1504118E-1,2.0945096E-1,4.6767525E-2,3.4580734E0,-6.4825684E-2,1.4952272E-1,-2.3909451E-2,1.7934005E-1,3.5345295E-1,-1.9251307E-2,-3.061094E-1,-1.3705969E-2,1.82059E-2,4.1638102E-2,1.9081353E-1,2.0697235E-1,2.7907038E0,1.1242498E-2,-2.4642829E-2,-3.6571957E-3,8.206296E-3,1.2446876E-2,3.974011E-2,6.999485E-3,-1.5729485E-2,3.2025937E-2,-1.3222686E-2,-1.5703516E-2,1.2086141E-2,-7.1643526E-3,2.1312378E-1],"categories":[],"categories_nodes":[],"categories_segments":[],"categories_sizes":[],"default_left":[0,0,0,0,0,0,0,0,0,0,0,0,0,0,0,0,0,0,0,0,0,0,0,0,0,0,0,0,0,0,0,0,0,0,0,0,0,0,0,0,0,0,0,0,0,0,0,0,0],"id":4,"left_children":[1,3,5,7,9,-1,11,13,15,-1,17,19,21,23,25,27,-1,-1,29,31,-1,33,35,37,-1,-1,39,-1,41,43,-1,-1,45,-1,47,-1,-1,-1,-1,-1,-1,-1,-1,-1,-1,-1,-1,-1,-1],"loss_changes":[2.8075547E3,2.2484464E2,2.234413E3,1.4437726E2,1.15622086E2,0E0,5.823329E2,2.077441E2,2.9247925E1,0E0,5.8841534E1,5.857434E1,2.2386517E2,2.378215E1,2.1133258E2,3.9074097E0,0E0,0E0,8.564316E0,1.5965382E1,0E0,2.6190552E1,3.0865817E0,2.3961997E-1,0E0,0E0,2.5449203E1,0E0,2.3427063E1,1.6573923E1,0E0,0E0,3.4749626E1,0E0,1.9492813E2,0E0,0E0,0E0,0E0,0E0,0E0,0E0,0E0,0E0,0E0,0E0,0E0,0E0,0E0],"parents":[2147483647,0,0,1,1,2,2,3,3,4,4,6,6,7,7,8,8,10,10,11,11,12,12,13,13,14,14,15,15,18,18,19,19,21,21,22,22,23,23,26,26,28,28,29,29,32,32,34,34],"right_children":[2,4,6,8,10,-1,12,14,16,-1,18,20,22,24,26,28,-1,-1,30,32,-1,34,36,38,-1,-1,40,-1,42,44,-1,-1,46,-1,48,-1,-1,-1,-1,-1,-1,-1,-1,-1,-1,-1,-1,-1,-1],"split_conditions":[3.4E1,2.8E1,3.5E1,2E1,2.9E1,1.353945E-1,5.3E1,6E0,2.6E1,9.667239E-3,3.1E1,5.2E1,5.8E1,5E0,7E0,2.1E1,-2.8300727E-2,-1.6689803E-2,3.3E1,3.6E1,4.6767525E-2,5.4E1,5.9E1,1E0,-2.3909451E-2,1.7934005E-1,1.4E1,-1.9251307E-2,2.4E1,3.2E1,1.82059E-2,4.1638102E-2,4E1,2.0697235E-1,5.7E1,1.1242498E-2,-2.4642829E-2,-3.6571957E-3,8.206296E-3,1.2446876E-2,3.974011E-2,6.999485E-3,-1.5729485E-2,3.2025937E-2,-1.3222686E-2,-1.5703516E-2,1.2086141E-2,-7.1643526E-3,2.1312378E-1],"split_indices":[0,0,0,0,0,0,0,0,0,0,0,0,0,0,0,0,0,0,0,0,0,0,0,0,0,0,0,0,0,0,0,0,0,0,0,0,0,0,0,0,0,0,0,0,0,0,0,0,0],"split_type":[0,0,0,0,0,0,0,0,0,0,0,0,0,0,0,0,0,0,0,0,0,0,0,0,0,0,0,0,0,0,0,0,0,0,0,0,0,0,0,0,0,0,0,0,0,0,0,0,0],"sum_hessian":[1.3665E4,1.1468E4,2.197E3,8.496E3,2.972E3,5.85E2,1.612E3,1.103E3,7.393E3,1.839E3,1.133E3,1.507E3,1.05E2,5.28E2,5.75E2,6.897E3,4.96E2,8.83E2,2.5E2,1.387E3,1.2E2,8.2E1,2.3E1,6.9E1,4.59E2,2E1,5.55E2,7.17E2,6.18E3,9.9E1,1.51E2,3.9E1,1.348E3,3.8E1,4.4E1,1.4E1,9E0,4E0,6.5E1,4.5E2,1.05E2,1.15E2,6.065E3,2.7E1,7.2E1,1.23E2,1.225E3,1.5E1,2.9E1],"tree_param":{"num_deleted":"0","num_feature":"1","num_nodes":"49","size_leaf_vector":"1"}},{"base_weights":[2.9245103E-4,-1.8824635E-1,9.840737E-1,-2.6691166E-1,3.6646806E-2,1.2863633E-1,4.063089E-1,5.3838234E-2,-3.147668E-1,9.184132E-3,-2.0196216E-1,2.5449976E-1,2.5621755E0,-3.7626588E-1,4.487536E-1,-2.9865378E-1,-2.6888538E-2,-1.5856257E-2,2.0443645E-1,1.9900604E-1,4.444846E-2,3.290145E0,-6.214264E-2,1.4211151E-1,-2.2716573E-2,1.7080006E-1,3.3587417E-1,-1.829008E-2,-2.908054E-1,-1.2832599E-2,1.7301582E-2,1.3514999E-1,1.8310638E-2,1.9688909E-1,2.6557455E0,1.0717853E-2,-2.3533896E-2,-3.5109022E-3,7.8021935E-3,1.1825912E-2,3.7771847E-2,6.6525275E-3,-1.4943142E-2,3.0481834E-2,-1.25706075E-2,1.2097186E-2,-1.4555397E-2,-6.8285177E-3,2.028228E-1],"categories":[],"categories_nodes":[],"categories_segments":[],"categories_sizes":[],"default_left":[0,0,0,0,0,0,0,0,0,0,0,0,0,0,0,0,0,0,0,0,0,0,0,0,0,0,0,0,0,0,0,0,0,0,0,0,0,0,0,0,0,0,0,0,0,0,0,0,0],"id":5,"left_children":[1,3,5,7,9,-1,11,13,15,-1,17,19,21,23,25,27,-1,-1,29,31,-1,33,35,37,-1,-1,39,-1,41,43,-1,45,-1,-1,47,-1,-1,-1,-1,-1,-1,-1,-1,-1,-1,-1,-1,-1,-1],"loss_changes":[2.5349675E3,2.029111E2,2.0164282E3,1.3044202E2,1.04342026E2,0E0,5.272509E2,1.8768845E2,2.640802E1,0E0,5.3138393E1,5.291838E1,2.0270935E2,2.1471825E1,1.9177875E2,3.5288696E0,0E0,0E0,7.726267E0,1.4770401E1,0E0,2.3643555E1,2.8119304E0,2.1803474E-1,0E0,0E0,2.2998772E1,0E0,2.1149109E1,1.5004115E1,0E0,4.5865234E1,0E0,0E0,1.7655917E2,0E0,0E0,0E0,0E0,0E0,0E0,0E0,0E0,0E0,0E0,0E0,0E0,0E0,0E0],"parents":[2147483647,0,0,1,1,2,2,3,3,4,4,6,6,7,7,8,8,10,10,11,11,12,12,13,13,14,14,15,15,18,18,19,19,21,21,22,22,23,23,26,26,28,28,29,29,31,31,34,34],"right_children":[2,4,6,8,10,-1,12,14,16,-1,18,20,22,24,26,28,-1,-1,30,32,-1,34,36,38,-1,-1,40,-1,42,44,-1,46,-1,-1,48,-1,-1,-1,-1,-1,-1,-1,-1,-1,-1,-1,-1,-1,-1],"split_conditions":[3.4E1,2.8E1,3.5E1,2E1,2.9E1,1.2863633E-1,5.3E1,6E0,2.6E1,9.184132E-3,3.1E1,5.2E1,5.8E1,5E0,7E0,2.1E1,-2.6888538E-2,-1.5856257E-2,3.3E1,5E1,4.444846E-2,5.4E1,5.9E1,1E0,-2.2716573E-2,1.7080006E-1,1.4E1,-1.829008E-2,2.4E1,3.2E1,1.7301582E-2,4.7E1,1.8310638E-2,1.9688909E-1,5.7E1,1.0717853E-2,-2.3533896E-2,-3.5109022E-3,7.8021935E-3,1.1825912E-2,3.7771847E-2,6.6525275E-3,-1.4943142E-2,3.0481834E-2,-1.25706075E-2,1.2097186E-2,-1.4555397E-2,-6.8285177E-3,2.028228E-1],"split_indices":[0,0,0,0,0,0,0,0,0,0,0,0,0,0,0,0,0,0,0,0,0,0,0,0,0,0,0,0,0,0,0,0,0,0,0,0,0,0,0,0,0,0,0,0,0,0,0,0,0],"split_type":[0,0,0,0,0,0,0,0,0,0,0,0,0,0,0,0,0,0,0,0,0,0,0,0,0,0,0,0,0,0,0,0,0,0,0,0,0,0,0,0,0,0,0,0,0,0,0,0,0],"sum_hessian":[1.3665E4,1.1468E4,2.197E3,8.496E3,2.972E3,5.85E2,1.612E3,1.103E3,7.393E3,1.839E3,1.133E3,1.507E3,1.05E2,5.28E2,5.75E2,6.897E3,4.96E2,8.83E2,2.5E2,1.387E3,1.2E2,8.2E1,2.3E1,6.9E1,4.59E2,2E1,5.55E2,7.17E2,6.18E3,9.9E1,1.51E2,1.005E3,3.82E2,3.8E1,4.4E1,1.4E1,9E0,4E0,6.5E1,4.5E2,1.05E2,1.15E2,6.065E3,2.7E1,7.2E1,8.04E2,2.01E2,1.5E1,2.9E1],"tree_param":{"num_deleted":"0","num_feature":"1","num_nodes":"49","size_leaf_vector":"1"}},{"base_weights":[3.323626E-4,-1.7881866E-1,9.3512887E-1,-2.5354862E-1,3.4823924E-2,1.2221549E-1,3.862664E-1,5.1329218E-2,-2.9903573E-1,8.7251635E-3,-1.9184698E-1,2.4181472E-1,2.4376523E0,-3.5748744E-1,4.2669845E-1,-2.8372496E-1,-5.1093644E-1,-1.5064341E-2,1.9435486E-1,1.8906708E-1,4.2244412E-2,3.1303713E0,-5.956955E-2,1.3506742E-1,-2.1583214E-2,1.6266671E-1,3.191696E-1,-1.7376853E-2,-2.762665E-1,-2.5585433E-2,-1.0660577E-2,-1.2012014E-2,1.6442195E-2,3.9018508E-2,1.7139384E-1,1.8729705E-1,2.5273137E0,1.0217686E-2,-2.2474876E-2,6.1843325E-3,2.3008501E-2,1.1235921E-2,3.590108E-2,6.3227764E-3,-1.419611E-2,2.9012177E-2,-1.1950699E-2,-1.5524655E-2,1.0999652E-2,-6.5084407E-3,1.930197E-1],"categories":[],"categories_nodes":[],"categories_segments":[],"categories_sizes":[],"default_left":[0,0,0,0,0,0,0,0,0,0,0,0,0,0,0,0,0,0,0,0,0,0,0,0,0,0,0,0,0,0,0,0,0,0,0,0,0,0,0,0,0,0,0,0,0,0,0,0,0,0,0],"id":6,"left_children":[1,3,5,7,9,-1,11,13,15,-1,17,19,21,23,25,27,29,-1,31,33,-1,35,37,39,-1,-1,41,-1,43,-1,-1,45,-1,-1,47,-1,49,-1,-1,-1,-1,-1,-1,-1,-1,-1,-1,-1,-1,-1,-1],"loss_changes":[2.2888086E3,1.8311719E2,1.819731E3,1.1785181E2,9.4162346E1,0E0,4.773847E2,1.6956929E2,2.3843872E1,0E0,4.798805E1,4.781079E1,1.8355298E2,1.938594E1,1.740339E2,3.1870117E0,5.1574707E-3,0E0,6.9702244E0,1.4371178E1,0E0,2.1344421E1,2.5617218E0,2.0207727E-1,0E0,0E0,2.0784306E1,0E0,1.9092651E1,0E0,0E0,1.3583002E1,0E0,0E0,3.1660957E1,0E0,1.5992117E2,0E0,0E0,0E0,0E0,0E0,0E0,0E0,0E0,0E0,0E0,0E0,0E0,0E0,0E0],"parents":[2147483647,0,0,1,1,2,2,3,3,4,4,6,6,7,7,8,8,10,10,11,11,12,12,13,13,14,14,15,15,16,16,18,18,19,19,21,21,22,22,23,23,26,26,28,28,31,31,34,34,36,36],"right_children":[2,4,6,8,10,-1,12,14,16,-1,18,20,22,24,26,28,30,-1,32,34,-1,36,38,40,-1,-1,42,-1,44,-1,-1,46,-1,-1,48,-1,50,-1,-1,-1,-1,-1,-1,-1,-1,-1,-1,-1,-1,-1,-1],"split_conditions":[3.4E1,2.8E1,3.5E1,2E1,2.9E1,1.2221549E-1,5.3E1,6E0,2.6E1,8.7251635E-3,3.1E1,5.2E1,5.8E1,5E0,7E0,2.1E1,2.7E1,-1.5064341E-2,3.3E1,3.6E1,4.2244412E-2,5.4E1,5.9E1,4E0,-2.1583214E-2,1.6266671E-1,1.4E1,-1.7376853E-2,2.4E1,-2.5585433E-2,-1.0660577E-2,3.2E1,1.6442195E-2,3.9018508E-2,4E1,1.8729705E-1,5.7E1,1.0217686E-2,-2.2474876E-2,6.1843325E-3,2.3008501E-2,1.1235921E-2,3.590108E-2,6.3227764E-3,-1.419611E-2,2.9012177E-2,-1.1950699E-2,-1.5524655E-2,1.0999652E-2,-6.5084407E-3,1.930197E-1],"split_indices":[0,0,0,0,0,0,0,0,0,0,0,0,0,0,0,0,0,0,0,0,0,0,0,0,0,0,0,0,0,0,0,0,0,0,0,0,0,0,0,0,0,0,0,0,0,0,0,0,0,0,0],"split_type":[0,0,0,0,0,0,0,0,0,0,0,0,0,0,0,0,0,0,0,0,0,0,0,0,0,0,0,0,0,0,0,0,0,0,0,0,0,0,0,0,0,0,0,0,0,0,0,0,0,0,0],"sum_hessian":[1.3665E4,1.1468E4,2.197E3,8.496E3,2.972E3,5.85E2,1.612E3,1.103E3,7.393E3,1.839E3,1.133E3,1.507E3,1.05E2,5.28E2,5.75E2,6.897E3,4.96E2,8.83E2,2.5E2,1.387E3,1.2E2,8.2E1,2.3E1,6.9E1,4.59E2,2E1,5.55E2,7.17E2,6.18E3,4.94E2,2E0,9.9E1,1.51E2,3.9E1,1.348E3,3.8E1,4.4E1,1.4E1,9E0,6.8E1,1E0,4.5E2,1.05E2,1.15E2,6.065E3,2.7E1,7.2E1,1.23E2,1.225E3,1.5E1,2.9E1],"tree_param":{"num_deleted":"0","num_feature":"1","num_nodes":"51","size_leaf_vector":"1"}},{"base_weights":[3.7008332E-4,-1.6986185E-1,8.8862747E-1,-2.4085295E-1,3.309182E-2,1.1611515E-1,3.672248E-1,4.8959732E-2,-2.840924E-1,8.2891425E-3,-1.8223847E-1,2.2977485E-1,2.3191805E0,-3.3959877E-1,4.0572795E-1,-2.6954252E-1,-2.4273118E-2,-1.4311981E-2,1.8477048E-1,1.7963856E-1,4.0149648E-2,2.9783564E0,-5.7101816E-2,1.287313E-1,-2.0506408E-2,1.5492068E-1,3.0329606E-1,-1.6509218E-2,-2.6245463E-1,-1.12409545E-2,1.562549E-2,1.1955801E-1,1.6848953E-2,1.7817234E-1,2.4050927E0,9.740862E-3,-2.1463512E-2,-3.617828E-3,7.100738E-3,1.0675381E-2,3.4122963E-2,6.0093594E-3,-1.348643E-2,2.7613372E-2,-1.136136E-2,1.1078537E-2,-1.4378488E-2,-6.203362E-3,1.8369041E-1],"categories":[],"categories_nodes":[],"categories_segments":[],"categories_sizes":[],"default_left":[0,0,0,0,0,0,0,0,0,0,0,0,0,0,0,0,0,0,0,0,0,0,0,0,0,0,0,0,0,0,0,0,0,0,0,0,0,0,0,0,0,0,0,0,0,0,0,0,0],"id":7,"left_children":[1,3,5,7,9,-1,11,13,15,-1,17,19,21,23,25,27,-1,-1,29,31,-1,33,35,37,-1,-1,39,-1,41,43,-1,45,-1,-1,47,-1,-1,-1,-1,-1,-1,-1,-1,-1,-1,-1,-1,-1,-1],"loss_changes":[2.0665835E3,1.6525226E2,1.6422009E3,1.06492676E2,8.497595E1,0E0,4.3222894E2,1.5318013E2,2.1532898E1,0E0,4.3336933E1,4.31942E1,1.6620715E2,1.75262E1,1.5793076E2,2.878296E0,0E0,0E0,6.2881413E0,1.308062E1,0E0,1.9268677E1,2.3337803E0,1.9725561E-1,0E0,0E0,1.878302E1,0E0,1.7236206E1,1.2296495E1,0E0,4.184513E1,0E0,0E0,1.4485107E2,0E0,0E0,0E0,0E0,0E0,0E0,0E0,0E0,0E0,0E0,0E0,0E0,0E0,0E0],"parents":[2147483647,0,0,1,1,2,2,3,3,4,4,6,6,7,7,8,8,10,10,11,11,12,12,13,13,14,14,15,15,18,18,19,19,21,21,22,22,23,23,26,26,28,28,29,29,31,31,34,34],"right_children":[2,4,6,8,10,-1,12,14,16,-1,18,20,22,24,26,28,-1,-1,30,32,-1,34,36,38,-1,-1,40,-1,42,44,-1,46,-1,-1,48,-1,-1,-1,-1,-1,-1,-1,-1,-1,-1,-1,-1,-1,-1],"split_conditions":[3.4E1,2.8E1,3.5E1,2E1,2.9E1,1.1611515E-1,5.3E1,6E0,2.6E1,8.2891425E-3,3.1E1,5.2E1,5.8E1,5E0,7E0,2.1E1,-2.4273118E-2,-1.4311981E-2,3.3E1,5E1,4.0149648E-2,5.4E1,5.9E1,1E0,-2.0506408E-2,1.5492068E-1,1.4E1,-1.6509218E-2,2.4E1,3.2E1,1.562549E-2,4.7E1,1.6848953E-2,1.7817234E-1,5.7E1,9.740862E-3,-2.1463512E-2,-3.617828E-3,7.100738E-3,1.0675381E-2,3.4122963E-2,6.0093594E-3,-1.348643E-2,2.7613372E-2,-1.136136E-2,1.1078537E-2,-1.4378488E-2,-6.203362E-3,1.8369041E-1],"split_indices":[0,0,0,0,0,0,0,0,0,0,0,0,0,0,0,0,0,0,0,0,0,0,0,0,0,0,0,0,0,0,0,0,0,0,0,0,0,0,0,0,0,0,0,0,0,0,0,0,0],"split_type":[0,0,0,0,0,0,0,0,0,0,0,0,0,0,0,0,0,0,0,0,0,0,0,0,0,0,0,0,0,0,0,0,0,0,0,0,0,0,0,0,0,0,0,0,0,0,0,0,0],"sum_hessian":[1.3665E4,1.1468E4,2.197E3,8.496E3,2.972E3,5.85E2,1.612E3,1.103E3,7.393E3,1.839E3,1.133E3,1.507E3,1.05E2,5.28E2,5.75E2,6.897E3,4.96E2,8.83E2,2.5E2,1.387E3,1.2E2,8.2E1,2.3E1,6.9E1,4.59E2,2E1,5.55E2,7.17E2,6.18E3,9.9E1,1.51E2,1.005E3,3.82E2,3.8E1,4.4E1,1.4E1,9E0,4E0,6.5E1,4.5E2,1.05E2,1.15E2,6.065E3,2.7E1,7.2E1,8.04E2,2.01E2,1.5E1,2.9E1],"tree_param":{"num_deleted":"0","num_feature":"1","num_nodes":"49","size_leaf_vector":"1"}},{"base_weights":[4.0083457E-4,-1.6135488E-1,8.444299E-1,-2.2879454E-1,3.1445745E-2,1.1031931E-1,3.4911016E-1,4.6677213E-2,-2.6989436E-1,7.8749005E-3,-1.7311123E-1,2.183218E-1,2.2064662E0,-3.2265103E-1,3.8578823E-1,-2.5606894E-1,-4.6123827E-1,-1.3597201E-2,1.7565893E-1,1.7066649E-1,3.8158756E-2,2.8337238E0,-5.4735195E-2,1.2234464E-1,-1.9483317E-2,1.475435E-1,2.882118E-1,-1.5684916E-2,-2.4933314E-1,-2.3097541E-2,-9.496125E-3,-1.05165E-2,1.48493545E-2,3.6576282E-2,1.5390961E-1,1.6949216E-1,2.288782E0,9.286289E-3,-2.0497657E-2,5.5607925E-3,2.2255778E-2,1.0142793E-2,3.243291E-2,5.7114707E-3,-1.2812222E-2,2.6282026E-2,-1.0801084E-2,-1.5304121E-2,1.0015427E-2,-5.912588E-3,1.7481203E-1],"categories":[],"categories_nodes":[],"categories_segments":[],"categories_sizes":[],"default_left":[0,0,0,0,0,0,0,0,0,0,0,0,0,0,0,0,0,0,0,0,0,0,0,0,0,0,0,0,0,0,0,0,0,0,0,0,0,0,0,0,0,0,0,0,0,0,0,0,0,0,0],"id":8,"left_children":[1,3,5,7,9,-1,11,13,15,-1,17,19,21,23,25,27,29,-1,31,33,-1,35,37,39,-1,-1,41,-1,43,-1,-1,45,-1,-1,47,-1,49,-1,-1,-1,-1,-1,-1,-1,-1,-1,-1,-1,-1,-1,-1],"loss_changes":[1.8659077E3,1.4913187E2,1.4820089E3,9.6214264E1,7.6685684E1,0E0,3.9134918E2,1.3839305E2,1.9442017E1,0E0,3.913667E1,3.9025192E1,1.505008E2,1.5823261E1,1.4331747E2,2.5994263E0,8.354187E-3,0E0,5.6727934E0,1.29321785E1,0E0,1.7394714E1,2.1261241E0,2.019397E-1,0E0,0E0,1.6974445E1,0E0,1.5560211E1,0E0,0E0,1.1131854E1,0E0,0E0,2.8853218E1,0E0,1.3120113E2,0E0,0E0,0E0,0E0,0E0,0E0,0E0,0E0,0E0,0E0,0E0,0E0,0E0,0E0],"parents":[2147483647,0,0,1,1,2,2,3,3,4,4,6,6,7,7,8,8,10,10,11,11,12,12,13,13,14,14,15,15,16,16,18,18,19,19,21,21,22,22,23,23,26,26,28,28,31,31,34,34,36,36],"right_children":[2,4,6,8,10,-1,12,14,16,-1,18,20,22,24,26,28,30,-1,32,34,-1,36,38,40,-1,-1,42,-1,44,-1,-1,46,-1,-1,48,-1,50,-1,-1,-1,-1,-1,-1,-1,-1,-1,-1,-1,-1,-1,-1],"split_conditions":[3.4E1,2.8E1,3.5E1,2E1,2.9E1,1.1031931E-1,5.3E1,6E0,2.6E1,7.8749005E-3,3.1E1,5.2E1,5.8E1,5E0,7E0,2.1E1,2.7E1,-1.3597201E-2,3.3E1,3.6E1,3.8158756E-2,5.4E1,5.9E1,4E0,-1.9483317E-2,1.475435E-1,1.4E1,-1.5684916E-2,2.4E1,-2.3097541E-2,-9.496125E-3,3.2E1,1.48493545E-2,3.6576282E-2,4E1,1.6949216E-1,5.7E1,9.286289E-3,-2.0497657E-2,5.5607925E-3,2.2255778E-2,1.0142793E-2,3.243291E-2,5.7114707E-3,-1.2812222E-2,2.6282026E-2,-1.0801084E-2,-1.5304121E-2,1.0015427E-2,-5.912588E-3,1.7481203E-1],"split_indices":[0,0,0,0,0,0,0,0,0,0,0,0,0,0,0,0,0,0,0,0,0,0,0,0,0,0,0,0,0,0,0,0,0,0,0,0,0,0,0,0,0,0,0,0,0,0,0,0,0,0,0],"split_type":[0,0,0,0,0,0,0,0,0,0,0,0,0,0,0,0,0,0,0,0,0,0,0,0,0,0,0,0,0,0,0,0,0,0,0,0,0,0,0,0,0,0,0,0,0,0,0,0,0,0,0],"sum_hessian":[1.3665E4,1.1468E4,2.197E3,8.496E3,2.972E3,5.85E2,1.612E3,1.103E3,7.393E3,1.839E3,1.133E3,1.507E3,1.05E2,5.28E2,5.75E2,6.897E3,4.96E2,8.83E2,2.5E2,1.387E3,1.2E2,8.2E1,2.3E1,6.9E1,4.59E2,2E1,5.55E2,7.17E2,6.18E3,4.94E2,2E0,9.9E1,1.51E2,3.9E1,1.348E3,3.8E1,4.4E1,1.4E1,9E0,6.8E1,1E0,4.5E2,1.05E2,1.15E2,6.065E3,2.7E1,7.2E1,1.23E2,1.225E3,1.5E1,2.9E1],"tree_param":{"num_deleted":"0","num_feature":"1","num_nodes":"51","size_leaf_vector":"1"}},{"base_weights":[4.3010156E-4,-1.5327258E-1,8.0243903E-1,-2.1733806E-1,2.9881656E-2,1.04812756E-1,3.3190048E-1,4.4522993E-2,-2.564072E-1,7.4813664E-3,-1.6444102E-1,2.074517E-1,2.0992296E0,-3.065029E-1,3.6682886E-1,-2.4326885E-1,-4.3824196E-1,-1.2918119E-2,1.66997E-1,1.6215566E-1,3.6266576E-2,2.6961145E0,-5.2465588E-2,1.16624705E-1,-1.851128E-2,1.4051762E-1,2.7387774E-1,-1.4901753E-2,-2.3686773E-1,-2.1944998E-2,-9.179584E-3,-9.835648E-3,1.411178E-2,3.4793187E-2,1.4621015E-1,1.6123484E-1,2.1780963E0,8.852924E-3,-1.9575257E-2,5.286779E-3,2.1699382E-2,9.636777E-3,3.0826557E-2,5.4283547E-3,-1.2171721E-2,2.5014866E-2,-1.0268417E-2,-1.454509E-2,9.515062E-3,-5.6354264E-3,1.6636279E-1],"categories":[],"categories_nodes":[],"categories_segments":[],"categories_sizes":[],"default_left":[0,0,0,0,0,0,0,0,0,0,0,0,0,0,0,0,0,0,0,0,0,0,0,0,0,0,0,0,0,0,0,0,0,0,0,0,0,0,0,0,0,0,0,0,0,0,0,0,0,0,0],"id":9,"left_children":[1,3,5,7,9,-1,11,13,15,-1,17,19,21,23,25,27,29,-1,31,33,-1,35,37,39,-1,-1,41,-1,43,-1,-1,45,-1,-1,47,-1,49,-1,-1,-1,-1,-1,-1,-1,-1,-1,-1,-1,-1,-1,-1],"loss_changes":[1.6847435E3,1.3458215E2,1.3374255E3,8.694156E1,6.920422E1,0E0,3.5433093E2,1.2501647E2,1.7557709E1,0E0,3.534356E1,3.5256905E1,1.3627881E2,1.4306507E1,1.3005618E2,2.3476257E0,2.7008057E-3,0E0,5.1176414E0,1.1710472E1,0E0,1.5702881E1,1.9369448E0,1.960187E-1,0E0,0E0,1.5340008E1,0E0,1.4047211E1,0E0,0E0,1.0077512E1,0E0,0E0,2.605428E1,0E0,1.18837524E2,0E0,0E0,0E0,0E0,0E0,0E0,0E0,0E0,0E0,0E0,0E0,0E0,0E0,0E0],"parents":[2147483647,0,0,1,1,2,2,3,3,4,4,6,6,7,7,8,8,10,10,11,11,12,12,13,13,14,14,15,15,16,16,18,18,19,19,21,21,22,22,23,23,26,26,28,28,31,31,34,34,36,36],"right_children":[2,4,6,8,10,-1,12,14,16,-1,18,20,22,24,26,28,30,-1,32,34,-1,36,38,40,-1,-1,42,-1,44,-1,-1,46,-1,-1,48,-1,50,-1,-1,-1,-1,-1,-1,-1,-1,-1,-1,-1,-1,-1,-1],"split_conditions":[3.4E1,2.8E1,3.5E1,2E1,2.9E1,1.04812756E-1,5.3E1,6E0,2.6E1,7.4813664E-3,3.1E1,5.2E1,5.8E1,5E0,7E0,2.1E1,2.7E1,-1.2918119E-2,3.3E1,3.6E1,3.6266576E-2,5.4E1,5.9E1,4E0,-1.851128E-2,1.4051762E-1,1.4E1,-1.4901753E-2,2.4E1,-2.1944998E-2,-9.179584E-3,3.2E1,1.411178E-2,3.4793187E-2,4E1,1.6123484E-1,5.7E1,8.852924E-3,-1.9575257E-2,5.286779E-3,2.1699382E-2,9.636777E-3,3.0826557E-2,5.4283547E-3,-1.2171721E-2,2.5014866E-2,-1.0268417E-2,-1.454509E-2,9.515062E-3,-5.6354264E-3,1.6636279E-1],"split_indices":[0,0,0,0,0,0,0,0,0,0,0,0,0,0,0,0,0,0,0,0,0,0,0,0,0,0,0,0,0,0,0,0,0,0,0,0,0,0,0,0,0,0,0,0,0,0,0,0,0,0,0],"split_type":[0,0,0,0,0,0,0,0,0,0,0,0,0,0,0,0,0,0,0,0,0,0,0,0,0,0,0,0,0,0,0,0,0,0,0,0,0,0,0,0,0,0,0,0,0,0,0,0,0,0,0],"sum_hessian":[1.3665E4,1.1468E4,2.197E3,8.496E3,2.972E3,5.85E2,1.612E3,1.103E3,7.393E3,1.839E3,1.133E3,1.507E3,1.05E2,5.28E2,5.75E2,6.897E3,4.96E2,8.83E2,2.5E2,1.387E3,1.2E2,8.2E1,2.3E1,6.9E1,4.59E2,2E1,5.55E2,7.17E2,6.18E3,4.94E2,2E0,9.9E1,1.51E2,3.9E1,1.348E3,3.8E1,4.4E1,1.4E1,9E0,6.8E1,1E0,4.5E2,1.05E2,1.15E2,6.065E3,2.7E1,7.2E1,1.23E2,1.225E3,1.5E1,2.9E1],"tree_param":{"num_deleted":"0","num_feature":"1","num_nodes":"51","size_leaf_vector":"1"}},{"base_weights":[4.5553307E-4,-1.4559504E-1,7.625363E-1,-2.0645505E-1,2.8395269E-2,9.958107E-2,3.1553915E-1,4.246842E-2,-2.4359396E-1,7.10749E-3,-1.5620504E-1,1.9712268E-1,1.9972043E0,-2.9116172E-1,3.4880155E-1,-2.3110853E-1,-2.0819625E-2,-1.227295E-2,1.5876193E-1,1.540691E-1,3.4468222E-2,2.565188E0,-5.0289143E-2,1.1117906E-1,-1.7587727E-2,1.338263E-1,2.6025656E-1,-1.4157708E-2,-2.250254E-1,-9.196553E-3,1.3410823E-2,9.809346E-2,1.5034712E-2,1.533798E-1,2.0727632E0,8.439786E-3,-1.8694377E-2,5.0262744E-3,2.1156896E-2,9.156002E-3,2.929977E-2,5.159279E-3,-1.1563234E-2,2.380879E-2,-9.76204E-3,9.801659E-3,-1.4634824E-2,-5.3712735E-3,1.5832193E-1],"categories":[],"categories_nodes":[],"categories_segments":[],"categories_sizes":[],"default_left":[0,0,0,0,0,0,0,0,0,0,0,0,0,0,0,0,0,0,0,0,0,0,0,0,0,0,0,0,0,0,0,0,0,0,0,0,0,0,0,0,0,0,0,0,0,0,0,0,0],"id":10,"left_children":[1,3,5,7,9,-1,11,13,15,-1,17,19,21,23,25,27,-1,-1,29,31,-1,33,35,37,-1,-1,39,-1,41,43,-1,45,-1,-1,47,-1,-1,-1,-1,-1,-1,-1,-1,-1,-1,-1,-1,-1,-1],"loss_changes":[1.5211687E3,1.21451706E2,1.2069474E3,7.856296E1,6.2452606E1,0E0,3.208141E2,1.12932526E2,1.5856079E1,0E0,3.1918036E1,3.1852493E1,1.2340091E2,1.2935577E1,1.1802182E2,2.1201782E0,0E0,0E0,4.6168036E0,1.1362423E1,0E0,1.4175598E1,1.7646025E0,1.9010723E-1,0E0,0E0,1.3862953E1,0E0,1.2681274E1,9.123042E0,0E0,3.8560883E1,0E0,0E0,1.0763898E2,0E0,0E0,0E0,0E0,0E0,0E0,0E0,0E0,0E0,0E0,0E0,0E0,0E0,0E0],"parents":[2147483647,0,0,1,1,2,2,3,3,4,4,6,6,7,7,8,8,10,10,11,11,12,12,13,13,14,14,15,15,18,18,19,19,21,21,22,22,23,23,26,26,28,28,29,29,31,31,34,34],"right_children":[2,4,6,8,10,-1,12,14,16,-1,18,20,22,24,26,28,-1,-1,30,32,-1,34,36,38,-1,-1,40,-1,42,44,-1,46,-1,-1,48,-1,-1,-1,-1,-1,-1,-1,-1,-1,-1,-1,-1,-1,-1],"split_conditions":[3.4E1,2.8E1,3.5E1,2E1,2.9E1,9.958107E-2,5.3E1,6E0,2.6E1,7.10749E-3,3.1E1,5.2E1,5.8E1,5E0,7E0,2.1E1,-2.0819625E-2,-1.227295E-2,3.3E1,5E1,3.4468222E-2,5.4E1,5.9E1,4E0,-1.7587727E-2,1.338263E-1,1.4E1,-1.4157708E-2,2.4E1,3.2E1,1.3410823E-2,4.7E1,1.5034712E-2,1.533798E-1,5.7E1,8.439786E-3,-1.8694377E-2,5.0262744E-3,2.1156896E-2,9.156002E-3,2.929977E-2,5.159279E-3,-1.1563234E-2,2.380879E-2,-9.76204E-3,9.801659E-3,-1.4634824E-2,-5.3712735E-3,1.5832193E-1],"split_indices":[0,0,0,0,0,0,0,0,0,0,0,0,0,0,0,0,0,0,0,0,0,0,0,0,0,0,0,0,0,0,0,0,0,0,0,0,0,0,0,0,0,0,0,0,0,0,0,0,0],"split_type":[0,0,0,0,0,0,0,0,0,0,0,0,0,0,0,0,0,0,0,0,0,0,0,0,0,0,0,0,0,0,0,0,0,0,0,0,0,0,0,0,0,0,0,0,0,0,0,0,0],"sum_hessian":[1.3665E4,1.1468E4,2.197E3,8.496E3,2.972E3,5.85E2,1.612E3,1.103E3,7.393E3,1.839E3,1.133E3,1.507E3,1.05E2,5.28E2,5.75E2,6.897E3,4.96E2,8.83E2,2.5E2,1.387E3,1.2E2,8.2E1,2.3E1,6.9E1,4.59E2,2E1,5.55E2,7.17E2,6.18E3,9.9E1,1.51E2,1.005E3,3.82E2,3.8E1,4.4E1,1.4E1,9E0,6.8E1,1E0,4.5E2,1.05E2,1.15E2,6.065E3,2.7E1,7.2E1,8.04E2,2.01E2,1.5E1,2.9E1],"tree_param":{"num_deleted":"0","num_feature":"1","num_nodes":"49","size_leaf_vector":"1"}},{"base_weights":[4.76838E-4,-1.3830113E-1,7.246097E-1,-1.9611585E-1,2.6983095E-2,9.4610505E-2,2.9997334E-1,4.050872E-2,-2.314198E-1,6.752321E-3,-1.4838155E-1,1.8729605E-1,1.9001372E0,-2.7658746E-1,3.316604E-1,-2.1955603E-1,-3.956147E-1,-1.1660003E-2,1.5093301E-1,1.4637285E-1,3.2759055E-2,2.4406192E0,-4.8202086E-2,1.059941E-1,-1.6710257E-2,1.2745363E-1,2.4731271E-1,-1.3450806E-2,-2.137751E-1,-1.9811084E-2,-8.179609E-3,-8.596468E-3,1.2744682E-2,3.261917E-2,1.3126034E-1,1.4590745E-1,1.972524E0,8.045918E-3,-1.7853128E-2,4.7786E-3,2.0627975E-2,8.699205E-3,2.7848605E-2,4.903534E-3,-1.0985165E-2,2.2660857E-2,-9.280636E-3,-1.4309846E-2,8.668785E-3,-5.1195035E-3,1.5066971E-1],"categories":[],"categories_nodes":[],"categories_segments":[],"categories_sizes":[],"default_left":[0,0,0,0,0,0,0,0,0,0,0,0,0,0,0,0,0,0,0,0,0,0,0,0,0,0,0,0,0,0,0,0,0,0,0,0,0,0,0,0,0,0,0,0,0,0,0,0,0,0,0],"id":11,"left_children":[1,3,5,7,9,-1,11,13,15,-1,17,19,21,23,25,27,29,-1,31,33,-1,35,37,39,-1,-1,41,-1,43,-1,-1,45,-1,-1,47,-1,49,-1,-1,-1,-1,-1,-1,-1,-1,-1,-1,-1,-1,-1,-1],"loss_changes":[1.3734469E3,1.0960147E2,1.0892134E3,7.0991455E1,5.6359833E1,0E0,2.904714E2,1.0201642E2,1.4316406E1,0E0,2.8824526E1,2.8778301E1,1.1174014E2,1.1696415E1,1.0710092E2,1.9148254E0,5.180359E-3,0E0,4.164973E0,1.0528542E1,0E0,1.2796814E1,1.607595E0,1.8422472E-1,0E0,0E0,1.252813E1,0E0,1.1448212E1,0E0,0E0,8.258974E0,0E0,0E0,2.3766884E1,0E0,9.749576E1,0E0,0E0,0E0,0E0,0E0,0E0,0E0,0E0,0E0,0E0,0E0,0E0,0E0,0E0],"parents":[2147483647,0,0,1,1,2,2,3,3,4,4,6,6,7,7,8,8,10,10,11,11,12,12,13,13,14,14,15,15,16,16,18,18,19,19,21,21,22,22,23,23,26,26,28,28,31,31,34,34,36,36],"right_children":[2,4,6,8,10,-1,12,14,16,-1,18,20,22,24,26,28,30,-1,32,34,-1,36,38,40,-1,-1,42,-1,44,-1,-1,46,-1,-1,48,-1,50,-1,-1,-1,-1,-1,-1,-1,-1,-1,-1,-1,-1,-1,-1],"split_conditions":[3.4E1,2.8E1,3.5E1,2E1,2.9E1,9.4610505E-2,5.3E1,6E0,2.6E1,6.752321E-3,3.1E1,5.2E1,5.8E1,5E0,7E0,2.1E1,2.7E1,-1.1660003E-2,3.3E1,3.6E1,3.2759055E-2,5.4E1,5.9E1,4E0,-1.6710257E-2,1.2745363E-1,1.4E1,-1.3450806E-2,2.4E1,-1.9811084E-2,-8.179609E-3,3.2E1,1.2744682E-2,3.261917E-2,4E1,1.4590745E-1,5.7E1,8.045918E-3,-1.7853128E-2,4.7786E-3,2.0627975E-2,8.699205E-3,2.7848605E-2,4.903534E-3,-1.0985165E-2,2.2660857E-2,-9.280636E-3,-1.4309846E-2,8.668785E-3,-5.1195035E-3,1.5066971E-1],"split_indices":[0,0,0,0,0,0,0,0,0,0,0,0,0,0,0,0,0,0,0,0,0,0,0,0,0,0,0,0,0,0,0,0,0,0,0,0,0,0,0,0,0,0,0,0,0,0,0,0,0,0,0],"split_type":[0,0,0,0,0,0,0,0,0,0,0,0,0,0,0,0,0,0,0,0,0,0,0,0,0,0,0,0,0,0,0,0,0,0,0,0,0,0,0,0,0,0,0,0,0,0,0,0,0,0,0],"sum_hessian":[1.3665E4,1.1468E4,2.197E3,8.496E3,2.972E3,5.85E2,1.612E3,1.103E3,7.393E3,1.839E3,1.133E3,1.507E3,1.05E2,5.28E2,5.75E2,6.897E3,4.96E2,8.83E2,2.5E2,1.387E3,1.2E2,8.2E1,2.3E1,6.9E1,4.59E2,2E1,5.55E2,7.17E2,6.18E3,4.94E2,2E0,9.9E1,1.51E2,3.9E1,1.348E3,3.8E1,4.4E1,1.4E1,9E0,6.8E1,1E0,4.5E2,1.05E2,1.15E2,6.065E3,2.7E1,7.2E1,1.23E2,1.225E3,1.5E1,2.9E1],"tree_param":{"num_deleted":"0","num_feature":"1","num_nodes":"51","size_leaf_vector":"1"}},{"base_weights":[4.9565674E-4,-1.3137323E-1,6.885775E-1,-1.862952E-1,2.564099E-2,8.988804E-2,2.8518623E-1,3.8639635E-2,-2.1985507E-1,6.41488E-3,-1.4094965E-1,1.7797077E-1,1.8077874E0,-2.627416E-1,3.1536192E-1,-2.0858088E-1,-3.7589023E-1,-1.1077657E-2,1.4349034E-1,1.3907355E-1,3.1134633E-2,2.3220997E0,-4.6200704E-2,1.01057544E-1,-1.587656E-2,1.213844E-1,2.3501262E-1,-1.2779211E-2,-2.0308712E-1,-1.8822528E-2,-7.906954E-3,-8.032775E-3,1.2111629E-2,8.640455E-2,1.3852626E-2,1.3879915E-1,1.8771323E0,7.670431E-3,-1.7049732E-2,4.543143E-3,2.0112276E-2,8.265199E-3,2.6469305E-2,4.6604816E-3,-1.0435986E-2,2.1568287E-2,-8.822958E-3,8.996805E-3,-1.4338016E-2,-4.879535E-3,1.4338735E-1],"categories":[],"categories_nodes":[],"categories_segments":[],"categories_sizes":[],"default_left":[0,0,0,0,0,0,0,0,0,0,0,0,0,0,0,0,0,0,0,0,0,0,0,0,0,0,0,0,0,0,0,0,0,0,0,0,0,0,0,0,0,0,0,0,0,0,0,0,0,0,0],"id":12,"left_children":[1,3,5,7,9,-1,11,13,15,-1,17,19,21,23,25,27,29,-1,31,33,-1,35,37,39,-1,-1,41,-1,43,-1,-1,45,-1,47,-1,-1,49,-1,-1,-1,-1,-1,-1,-1,-1,-1,-1,-1,-1,-1,-1],"loss_changes":[1.2400966E3,9.890802E1,9.829491E2,6.415051E1,5.0861233E1,0E0,2.6299466E2,9.215525E1,1.2928894E1,0E0,2.603085E1,2.5999447E1,1.011814E2,1.0576324E1,9.719043E1,1.7293091E0,1.1062622E-3,0E0,3.7573395E0,1.0062962E1,0E0,1.1552032E1,1.4645582E0,1.783871E-1,0E0,0E0,1.1321823E1,0E0,1.0335037E1,0E0,0E0,7.4767485E0,0E0,3.51637E1,0E0,0E0,8.830838E1,0E0,0E0,0E0,0E0,0E0,0E0,0E0,0E0,0E0,0E0,0E0,0E0,0E0,0E0],"parents":[2147483647,0,0,1,1,2,2,3,3,4,4,6,6,7,7,8,8,10,10,11,11,12,12,13,13,14,14,15,15,16,16,18,18,19,19,21,21,22,22,23,23,26,26,28,28,31,31,33,33,36,36],"right_children":[2,4,6,8,10,-1,12,14,16,-1,18,20,22,24,26,28,30,-1,32,34,-1,36,38,40,-1,-1,42,-1,44,-1,-1,46,-1,48,-1,-1,50,-1,-1,-1,-1,-1,-1,-1,-1,-1,-1,-1,-1,-1,-1],"split_conditions":[3.4E1,2.8E1,3.5E1,2E1,2.9E1,8.988804E-2,5.3E1,6E0,2.6E1,6.41488E-3,3.1E1,5.2E1,5.8E1,5E0,7E0,2.1E1,2.7E1,-1.1077657E-2,3.3E1,5E1,3.1134633E-2,5.4E1,5.9E1,4E0,-1.587656E-2,1.213844E-1,1.4E1,-1.2779211E-2,2.4E1,-1.8822528E-2,-7.906954E-3,3.2E1,1.2111629E-2,4.7E1,1.3852626E-2,1.3879915E-1,5.7E1,7.670431E-3,-1.7049732E-2,4.543143E-3,2.0112276E-2,8.265199E-3,2.6469305E-2,4.6604816E-3,-1.0435986E-2,2.1568287E-2,-8.822958E-3,8.996805E-3,-1.4338016E-2,-4.879535E-3,1.4338735E-1],"split_indices":[0,0,0,0,0,0,0,0,0,0,0,0,0,0,0,0,0,0,0,0,0,0,0,0,0,0,0,0,0,0,0,0,0,0,0,0,0,0,0,0,0,0,0,0,0,0,0,0,0,0,0],"split_type":[0,0,0,0,0,0,0,0,0,0,0,0,0,0,0,0,0,0,0,0,0,0,0,0,0,0,0,0,0,0,0,0,0,0,0,0,0,0,0,0,0,0,0,0,0,0,0,0,0,0,0],"sum_hessian":[1.3665E4,1.1468E4,2.197E3,8.496E3,2.972E3,5.85E2,1.612E3,1.103E3,7.393E3,1.839E3,1.133E3,1.507E3,1.05E2,5.28E2,5.75E2,6.897E3,4.96E2,8.83E2,2.5E2,1.387E3,1.2E2,8.2E1,2.3E1,6.9E1,4.59E2,2E1,5.55E2,7.17E2,6.18E3,4.94E2,2E0,9.9E1,1.51E2,1.005E3,3.82E2,3.8E1,4.4E1,1.4E1,9E0,6.8E1,1E0,4.5E2,1.05E2,1.15E2,6.065E3,2.7E1,7.2E1,8.04E2,2.01E2,1.5E1,2.9E1],"tree_param":{"num_deleted":"0","num_feature":"1","num_nodes":"51","size_leaf_vector":"1"}},{"base_weights":[5.102399E-4,-1.2479231E-1,6.5432936E-1,-1.7696628E-1,2.436579E-2,8.540131E-2,2.711175E-1,3.6857173E-2,-2.0886837E-1,6.09431E-3,-1.3388985E-1,1.6909844E-1,1.7199256E0,-2.4958776E-1,2.99865E-1,-1.9815446E-1,-1.7857468E-2,-1.052439E-2,1.3641483E-1,1.3212593E-1,2.9590769E-2,2.2093358E0,-4.4281434E-2,9.635673E-2,-1.50844455E-2,1.1560418E-1,2.2332463E-1,-1.2141139E-2,-1.9293363E-1,-7.5037144E-3,1.151003E-2,3.059039E-2,1.1780465E-1,1.3203713E-1,1.7863536E0,7.312479E-3,-1.628249E-2,-4.480941E-3,5.449292E-3,7.852864E-3,2.5158329E-2,4.42946E-3,-9.91427E-3,2.0528387E-2,-8.387855E-3,-1.4046343E-2,7.901852E-3,-4.65081E-3,1.3645695E-1],"categories":[],"categories_nodes":[],"categories_segments":[],"categories_sizes":[],"default_left":[0,0,0,0,0,0,0,0,0,0,0,0,0,0,0,0,0,0,0,0,0,0,0,0,0,0,0,0,0,0,0,0,0,0,0,0,0,0,0,0,0,0,0,0,0,0,0,0,0],"id":13,"left_children":[1,3,5,7,9,-1,11,13,15,-1,17,19,21,23,25,27,-1,-1,29,31,-1,33,35,37,-1,-1,39,-1,41,43,-1,-1,45,-1,47,-1,-1,-1,-1,-1,-1,-1,-1,-1,-1,-1,-1,-1,-1],"loss_changes":[1.1196714E3,8.925804E1,8.8706525E2,5.796924E1,4.5899086E1,0E0,2.3812033E2,8.324717E1,1.1675873E1,0E0,2.3507935E1,2.3490196E1,9.162045E1,9.56382E0,8.819687E1,1.5617981E0,0E0,0E0,3.3896031E0,9.463011E0,0E0,1.0428345E1,1.3342519E0,1.7417657E-1,0E0,0E0,1.0231651E1,0E0,9.330093E0,6.7686124E0,0E0,0E0,2.1684942E1,0E0,7.9986755E1,0E0,0E0,0E0,0E0,0E0,0E0,0E0,0E0,0E0,0E0,0E0,0E0,0E0,0E0],"parents":[2147483647,0,0,1,1,2,2,3,3,4,4,6,6,7,7,8,8,10,10,11,11,12,12,13,13,14,14,15,15,18,18,19,19,21,21,22,22,23,23,26,26,28,28,29,29,32,32,34,34],"right_children":[2,4,6,8,10,-1,12,14,16,-1,18,20,22,24,26,28,-1,-1,30,32,-1,34,36,38,-1,-1,40,-1,42,44,-1,-1,46,-1,48,-1,-1,-1,-1,-1,-1,-1,-1,-1,-1,-1,-1,-1,-1],"split_conditions":[3.4E1,2.8E1,3.5E1,2E1,2.9E1,8.540131E-2,5.3E1,6E0,2.6E1,6.09431E-3,3.1E1,5.2E1,5.8E1,5E0,7E0,2.1E1,-1.7857468E-2,-1.052439E-2,3.3E1,3.6E1,2.9590769E-2,5.4E1,5.9E1,1E0,-1.50844455E-2,1.1560418E-1,1.4E1,-1.2141139E-2,2.4E1,3.2E1,1.151003E-2,3.059039E-2,4E1,1.3203713E-1,5.7E1,7.312479E-3,-1.628249E-2,-4.480941E-3,5.449292E-3,7.852864E-3,2.5158329E-2,4.42946E-3,-9.91427E-3,2.0528387E-2,-8.387855E-3,-1.4046343E-2,7.901852E-3,-4.65081E-3,1.3645695E-1],"split_indices":[0,0,0,0,0,0,0,0,0,0,0,0,0,0,0,0,0,0,0,0,0,0,0,0,0,0,0,0,0,0,0,0,0,0,0,0,0,0,0,0,0,0,0,0,0,0,0,0,0],"split_type":[0,0,0,0,0,0,0,0,0,0,0,0,0,0,0,0,0,0,0,0,0,0,0,0,0,0,0,0,0,0,0,0,0,0,0,0,0,0,0,0,0,0,0,0,0,0,0,0,0],"sum_hessian":[1.3665E4,1.1468E4,2.197E3,8.496E3,2.972E3,5.85E2,1.612E3,1.103E3,7.393E3,1.839E3,1.133E3,1.507E3,1.05E2,5.28E2,5.75E2,6.897E3,4.96E2,8.83E2,2.5E2,1.387E3,1.2E2,8.2E1,2.3E1,6.9E1,4.59E2,2E1,5.55E2,7.17E2,6.18E3,9.9E1,1.51E2,3.9E1,1.348E3,3.8E1,4.4E1,1.4E1,9E0,4E0,6.5E1,4.5E2,1.05E2,1.15E2,6.065E3,2.7E1,7.2E1,1.23E2,1.225E3,1.5E1,2.9E1],"tree_param":{"num_deleted":"0","num_feature":"1","num_nodes":"49","size_leaf_vector":"1"}},{"base_weights":[5.222683E-4,-1.1854234E-1,6.217923E-1,-1.6810623E-1,2.3153853E-2,8.1138514E-2,2.5775328E-1,3.513599E-2,-1.9842963E-1,5.7897526E-3,-1.2718385E-1,1.6067949E-1,1.6363338E0,-2.3713522E-1,2.851296E-1,-1.8824917E-1,-3.3932772E-1,-9.998771E-3,1.2968844E-1,7.598896E-2,3.2974112E-1,2.1020477E0,-4.244098E-2,9.155272E-2,-1.4331872E-2,1.1009921E-1,2.1221761E-1,-1.1534924E-2,-1.8328771E-1,-1.6992223E-2,-7.0481384E-3,-7.0069693E-3,1.0938322E-2,1.6531277E-1,-2.803558E-1,1.2767754E-2,2.8123466E-2,1.2560456E-1,1.6999649E0,6.9712386E-3,-1.5549776E-2,4.079537E-3,1.947323E-2,7.461083E-3,2.3912275E-2,4.209902E-3,-9.418631E-3,1.953863E-2,-7.974198E-3,-3.0147133E-3,1.11123435E-2,-5.2233566E-2,5.335472E-3,-4.4328133E-3,1.2986153E-1],"categories":[],"categories_nodes":[],"categories_segments":[],"categories_sizes":[],"default_left":[0,0,0,0,0,0,0,0,0,0,0,0,0,0,0,0,0,0,0,0,0,0,0,0,0,0,0,0,0,0,0,0,0,0,0,0,0,0,0,0,0,0,0,0,0,0,0,0,0,0,0,0,0,0,0],"id":14,"left_children":[1,3,5,7,9,-1,11,13,15,-1,17,19,21,23,25,27,29,-1,31,33,35,37,39,41,-1,-1,43,-1,45,-1,-1,47,-1,49,51,-1,-1,-1,53,-1,-1,-1,-1,-1,-1,-1,-1,-1,-1,-1,-1,-1,-1,-1,-1],"loss_changes":[1.01096515E3,8.055084E1,8.00522E2,5.2373947E1,4.142108E1,0E0,2.1559526E2,7.5212555E1,1.0542114E1,0E0,2.1229628E1,2.156636E1,8.2963104E1,8.633488E0,8.003543E1,1.4105072E0,3.0403137E-3,0E0,3.0578475E0,3.2067398E1,8.564171E0,9.413849E0,1.2155414E0,1.759687E-1,0E0,0E0,9.24646E0,0E0,8.422897E0,0E0,0E0,6.1275444E0,0E0,1.0353415E1,5.9871155E1,0E0,0E0,0E0,7.2449356E1,0E0,0E0,0E0,0E0,0E0,0E0,0E0,0E0,0E0,0E0,0E0,0E0,0E0,0E0,0E0,0E0],"parents":[2147483647,0,0,1,1,2,2,3,3,4,4,6,6,7,7,8,8,10,10,11,11,12,12,13,13,14,14,15,15,16,16,18,18,19,19,20,20,21,21,22,22,23,23,26,26,28,28,31,31,33,33,34,34,38,38],"right_children":[2,4,6,8,10,-1,12,14,16,-1,18,20,22,24,26,28,30,-1,32,34,36,38,40,42,-1,-1,44,-1,46,-1,-1,48,-1,50,52,-1,-1,-1,54,-1,-1,-1,-1,-1,-1,-1,-1,-1,-1,-1,-1,-1,-1,-1,-1],"split_conditions":[3.4E1,2.8E1,3.5E1,2E1,2.9E1,8.1138514E-2,5.3E1,6E0,2.6E1,5.7897526E-3,3.1E1,5E1,5.8E1,5E0,7E0,2.1E1,2.7E1,-9.998771E-3,3.3E1,4.7E1,5.2E1,5.4E1,5.9E1,4E0,-1.4331872E-2,1.1009921E-1,1.4E1,-1.1534924E-2,2.4E1,-1.6992223E-2,-7.0481384E-3,3.2E1,1.0938322E-2,4E1,4.8E1,1.2767754E-2,2.8123466E-2,1.2560456E-1,5.7E1,6.9712386E-3,-1.5549776E-2,4.079537E-3,1.947323E-2,7.461083E-3,2.3912275E-2,4.209902E-3,-9.418631E-3,1.953863E-2,-7.974198E-3,-3.0147133E-3,1.11123435E-2,-5.2233566E-2,5.335472E-3,-4.4328133E-3,1.2986153E-1],"split_indices":[0,0,0,0,0,0,0,0,0,0,0,0,0,0,0,0,0,0,0,0,0,0,0,0,0,0,0,0,0,0,0,0,0,0,0,0,0,0,0,0,0,0,0,0,0,0,0,0,0,0,0,0,0,0,0],"split_type":[0,0,0,0,0,0,0,0,0,0,0,0,0,0,0,0,0,0,0,0,0,0,0,0,0,0,0,0,0,0,0,0,0,0,0,0,0,0,0,0,0,0,0,0,0,0,0,0,0,0,0,0,0,0,0],"sum_hessian":[1.3665E4,1.1468E4,2.197E3,8.496E3,2.972E3,5.85E2,1.612E3,1.103E3,7.393E3,1.839E3,1.133E3,1.507E3,1.05E2,5.28E2,5.75E2,6.897E3,4.96E2,8.83E2,2.5E2,1.005E3,5.02E2,8.2E1,2.3E1,6.9E1,4.59E2,2E1,5.55E2,7.17E2,6.18E3,4.94E2,2E0,9.9E1,1.51E2,8.04E2,2.01E2,3.82E2,1.2E2,3.8E1,4.4E1,1.4E1,9E0,6.8E1,1E0,4.5E2,1.05E2,1.15E2,6.065E3,2.7E1,7.2E1,1.62E2,6.42E2,6.7E1,1.34E2,1.5E1,2.9E1],"tree_param":{"num_deleted":"0","num_feature":"1","num_nodes":"55","size_leaf_vector":"1"}},{"base_weights":[5.2928965E-4,-1.1260415E-1,5.908509E-1,-1.5968812E-1,2.2002328E-2,7.708851E-2,2.4501729E-1,3.3515666E-2,-1.8851382E-1,5.5004223E-3,-1.20813586E-1,1.5264696E-1,1.5568044E0,-2.2526105E-1,2.7111873E-1,-1.788393E-1,-3.2240984E-1,-9.499397E-3,1.2329378E-1,7.2151035E-2,3.1333533E-1,1.9999698E0,-4.0676486E-2,8.7311745E-2,-1.3616839E-2,1.0485639E-1,2.0166314E-1,-1.0958992E-2,-1.741243E-1,-1.6144333E-2,-6.8132007E-3,-6.540952E-3,1.0395012E-2,1.5705726E-1,-2.6657006E-1,1.2131031E-2,2.6728919E-2,1.1948534E-1,1.617754E0,6.645908E-3,-1.4850042E-2,3.8785264E-3,1.8986404E-2,7.0888572E-3,2.2727933E-2,4.001217E-3,-8.947785E-3,1.8596599E-2,-7.5809523E-3,-2.86491E-3,1.05575975E-2,-4.966029E-2,5.070682E-3,-4.2250315E-3,1.23584904E-1],"categories":[],"categories_nodes":[],"categories_segments":[],"categories_sizes":[],"default_left":[0,0,0,0,0,0,0,0,0,0,0,0,0,0,0,0,0,0,0,0,0,0,0,0,0,0,0,0,0,0,0,0,0,0,0,0,0,0,0,0,0,0,0,0,0,0,0,0,0,0,0,0,0,0,0],"id":15,"left_children":[1,3,5,7,9,-1,11,13,15,-1,17,19,21,23,25,27,29,-1,31,33,35,37,39,41,-1,-1,43,-1,45,-1,-1,47,-1,49,51,-1,-1,-1,53,-1,-1,-1,-1,-1,-1,-1,-1,-1,-1,-1,-1,-1,-1,-1,-1],"loss_changes":[9.127518E2,7.269183E1,7.2245624E2,4.7328094E1,3.7379955E1,0E0,1.952099E2,6.794177E1,9.520355E0,0E0,1.9172115E1,1.9483013E1,7.512387E1,7.8077984E0,7.262916E1,1.2738647E0,1.1062622E-4,0E0,2.7585583E0,2.8973953E1,7.739807E0,8.498047E0,1.1073936E0,1.6993874E-1,0E0,0E0,8.356119E0,0E0,7.6039124E0,0E0,0E0,5.547205E0,0E0,9.346472E0,5.411353E1,0E0,0E0,0E0,6.5622215E1,0E0,0E0,0E0,0E0,0E0,0E0,0E0,0E0,0E0,0E0,0E0,0E0,0E0,0E0,0E0,0E0],"parents":[2147483647,0,0,1,1,2,2,3,3,4,4,6,6,7,7,8,8,10,10,11,11,12,12,13,13,14,14,15,15,16,16,18,18,19,19,20,20,21,21,22,22,23,23,26,26,28,28,31,31,33,33,34,34,38,38],"right_children":[2,4,6,8,10,-1,12,14,16,-1,18,20,22,24,26,28,30,-1,32,34,36,38,40,42,-1,-1,44,-1,46,-1,-1,48,-1,50,52,-1,-1,-1,54,-1,-1,-1,-1,-1,-1,-1,-1,-1,-1,-1,-1,-1,-1,-1,-1],"split_conditions":[3.4E1,2.8E1,3.5E1,2E1,2.9E1,7.708851E-2,5.3E1,6E0,2.6E1,5.5004223E-3,3.1E1,5E1,5.8E1,5E0,7E0,2.1E1,2.7E1,-9.499397E-3,3.3E1,4.7E1,5.2E1,5.4E1,5.9E1,4E0,-1.3616839E-2,1.0485639E-1,1.4E1,-1.0958992E-2,2.4E1,-1.6144333E-2,-6.8132007E-3,3.2E1,1.0395012E-2,4E1,4.8E1,1.2131031E-2,2.6728919E-2,1.1948534E-1,5.7E1,6.645908E-3,-1.4850042E-2,3.8785264E-3,1.8986404E-2,7.0888572E-3,2.2727933E-2,4.001217E-3,-8.947785E-3,1.8596599E-2,-7.5809523E-3,-2.86491E-3,1.05575975E-2,-4.966029E-2,5.070682E-3,-4.2250315E-3,1.23584904E-1],"split_indices":[0,0,0,0,0,0,0,0,0,0,0,0,0,0,0,0,0,0,0,0,0,0,0,0,0,0,0,0,0,0,0,0,0,0,0,0,0,0,0,0,0,0,0,0,0,0,0,0,0,0,0,0,0,0,0],"split_type":[0,0,0,0,0,0,0,0,0,0,0,0,0,0,0,0,0,0,0,0,0,0,0,0,0,0,0,0,0,0,0,0,0,0,0,0,0,0,0,0,0,0,0,0,0,0,0,0,0,0,0,0,0,0,0],"sum_hessian":[1.3665E4,1.1468E4,2.197E3,8.496E3,2.972E3,5.85E2,1.612E3,1.103E3,7.393E3,1.839E3,1.133E3,1.507E3,1.05E2,5.28E2,5.75E2,6.897E3,4.96E2,8.83E2,2.5E2,1.005E3,5.02E2,8.2E1,2.3E1,6.9E1,4.59E2,2E1,5.55E2,7.17E2,6.18E3,4.94E2,2E0,9.9E1,1.51E2,8.04E2,2.01E2,3.82E2,1.2E2,3.8E1,4.4E1,1.4E1,9E0,6.8E1,1E0,4.5E2,1.05E2,1.15E2,6.065E3,2.7E1,7.2E1,1.62E2,6.42E2,6.7E1,1.34E2,1.5E1,2.9E1],"tree_param":{"num_deleted":"0","num_feature":"1","num_nodes":"55","size_leaf_vector":"1"}},{"base_weights":[5.345156E-4,-1.0696317E-1,5.614492E-1,-1.5169126E-1,2.0908171E-2,7.324067E-2,2.3291054E-1,3.19704E-2,-1.7909332E-1,5.2255555E-3,-1.147623E-1,1.4501582E-1,1.4811401E0,-2.1398035E-1,2.5779673E-1,-1.6989957E-1,-1.531678E-2,-9.024957E-3,1.1721431E-1,6.8506755E-2,2.9774565E-1,1.9028491E0,-3.898433E-2,8.327274E-2,-1.2937467E-2,9.986322E-2,1.9163376E-1,-1.0411798E-2,-1.6541883E-1,-6.1039017E-3,9.878678E-3,1.492139E-1,-2.5346234E-1,1.1526054E-2,2.5403509E-2,1.1366427E-1,1.539519E0,6.3357763E-3,-1.4181784E-2,3.6874071E-3,1.8511748E-2,6.7352094E-3,2.1602256E-2,3.8028848E-3,-8.500466E-3,1.7699976E-2,-7.207107E-3,-2.7225467E-3,1.0030536E-2,-4.7213797E-2,4.8190258E-3,-4.0269727E-3,1.1761164E-1],"categories":[],"categories_nodes":[],"categories_segments":[],"categories_sizes":[],"default_left":[0,0,0,0,0,0,0,0,0,0,0,0,0,0,0,0,0,0,0,0,0,0,0,0,0,0,0,0,0,0,0,0,0,0,0,0,0,0,0,0,0,0,0,0,0,0,0,0,0,0,0,0,0],"id":16,"left_children":[1,3,5,7,9,-1,11,13,15,-1,17,19,21,23,25,27,-1,-1,29,31,33,35,37,39,-1,-1,41,-1,43,45,-1,47,49,-1,-1,-1,51,-1,-1,-1,-1,-1,-1,-1,-1,-1,-1,-1,-1,-1,-1,-1,-1],"loss_changes":[8.240793E2,6.559944E1,6.520034E2,4.276863E1,3.3733097E1,0E0,1.7675194E2,6.13737E1,8.597702E0,0E0,1.7313984E1,1.7600908E1,6.802551E1,7.061329E0,6.590815E1,1.1504517E0,0E0,0E0,2.4885552E0,2.6178936E1,6.9947815E0,7.6712646E0,1.0088696E0,1.6401982E-1,0E0,0E0,7.551504E0,0E0,6.8645325E0,5.02183E0,0E0,8.437443E0,4.89096E1,0E0,0E0,0E0,5.9438423E1,0E0,0E0,0E0,0E0,0E0,0E0,0E0,0E0,0E0,0E0,0E0,0E0,0E0,0E0,0E0,0E0],"parents":[2147483647,0,0,1,1,2,2,3,3,4,4,6,6,7,7,8,8,10,10,11,11,12,12,13,13,14,14,15,15,18,18,19,19,20,20,21,21,22,22,23,23,26,26,28,28,29,29,31,31,32,32,36,36],"right_children":[2,4,6,8,10,-1,12,14,16,-1,18,20,22,24,26,28,-1,-1,30,32,34,36,38,40,-1,-1,42,-1,44,46,-1,48,50,-1,-1,-1,52,-1,-1,-1,-1,-1,-1,-1,-1,-1,-1,-1,-1,-1,-1,-1,-1],"split_conditions":[3.4E1,2.8E1,3.5E1,2E1,2.9E1,7.324067E-2,5.3E1,6E0,2.6E1,5.2255555E-3,3.1E1,5E1,5.8E1,5E0,7E0,2.1E1,-1.531678E-2,-9.024957E-3,3.3E1,4.7E1,5.2E1,5.4E1,5.9E1,4E0,-1.2937467E-2,9.986322E-2,1.4E1,-1.0411798E-2,2.4E1,3.2E1,9.878678E-3,4E1,4.8E1,1.1526054E-2,2.5403509E-2,1.1366427E-1,5.7E1,6.3357763E-3,-1.4181784E-2,3.6874071E-3,1.8511748E-2,6.7352094E-3,2.1602256E-2,3.8028848E-3,-8.500466E-3,1.7699976E-2,-7.207107E-3,-2.7225467E-3,1.0030536E-2,-4.7213797E-2,4.8190258E-3,-4.0269727E-3,1.1761164E-1],"split_indices":[0,0,0,0,0,0,0,0,0,0,0,0,0,0,0,0,0,0,0,0,0,0,0,0,0,0,0,0,0,0,0,0,0,0,0,0,0,0,0,0,0,0,0,0,0,0,0,0,0,0,0,0,0],"split_type":[0,0,0,0,0,0,0,0,0,0,0,0,0,0,0,0,0,0,0,0,0,0,0,0,0,0,0,0,0,0,0,0,0,0,0,0,0,0,0,0,0,0,0,0,0,0,0,0,0,0,0,0,0],"sum_hessian":[1.3665E4,1.1468E4,2.197E3,8.496E3,2.972E3,5.85E2,1.612E3,1.103E3,7.393E3,1.839E3,1.133E3,1.507E3,1.05E2,5.28E2,5.75E2,6.897E3,4.96E2,8.83E2,2.5E2,1.005E3,5.02E2,8.2E1,2.3E1,6.9E1,4.59E2,2E1,5.55E2,7.17E2,6.18E3,9.9E1,1.51E2,8.04E2,2.01E2,3.82E2,1.2E2,3.8E1,4.4E1,1.4E1,9E0,6.8E1,1E0,4.5E2,1.05E2,1.15E2,6.065E3,2.7E1,7.2E1,1.62E2,6.42E2,6.7E1,1.34E2,1.5E1,2.9E1],"tree_param":{"num_deleted":"0","num_feature":"1","num_nodes":"53","size_leaf_vector":"1"}},{"base_weights":[5.3842156E-4,-1.01604186E-1,5.335107E-1,-1.4409402E-1,1.986831E-2,6.9584884E-2,2.2140212E-1,3.049639E-2,-1.7014267E-1,4.9644145E-3,-1.0901409E-1,1.3776618E-1,1.409153E0,-2.0326374E-1,2.451294E-1,-1.6140668E-1,-2.9104945E-1,-1.7148426E-1,1.114347E-1,6.504647E-2,2.8293175E-1,1.8104447E0,-3.736207E-2,7.942625E-2,-1.2291996E-2,9.510783E-2,1.8210296E-1,-9.891936E-3,-1.5714854E-1,-1.457445E-2,-6.075533E-3,-8.578247E-3,-2.5059343E-3,-5.6939744E-3,9.387996E-3,1.4176215E-1,-2.4099894E-1,1.0951254E-2,2.414383E-2,1.0812678E-1,1.4650671E0,6.040109E-3,-1.3543612E-2,3.5057098E-3,1.8048955E-2,6.3991905E-3,2.0532338E-2,3.6143851E-3,-8.075507E-3,1.6846573E-2,-6.851697E-3,2.9518459E-2,5.9075565E-3,-4.4887807E-2,4.5798644E-3,-3.838212E-3,1.11927085E-1],"categories":[],"categories_nodes":[],"categories_segments":[],"categories_sizes":[],"default_left":[0,0,0,0,0,0,0,0,0,0,0,0,0,0,0,0,0,0,0,0,0,0,0,0,0,0,0,0,0,0,0,0,0,0,0,0,0,0,0,0,0,0,0,0,0,0,0,0,0,0,0,0,0,0,0,0,0],"id":17,"left_children":[1,3,5,7,9,-1,11,13,15,-1,17,19,21,23,25,27,29,31,33,35,37,39,41,43,-1,-1,45,-1,47,-1,-1,-1,-1,49,-1,51,53,-1,-1,-1,55,-1,-1,-1,-1,-1,-1,-1,-1,-1,-1,-1,-1,-1,-1,-1,-1],"loss_changes":[7.440199E2,5.919835E1,5.884206E2,3.864821E1,3.0441969E1,0E0,1.6003914E2,5.5440426E1,7.762863E0,0E0,1.5635962E1,1.5900646E1,6.159793E1,6.386492E0,5.980905E1,1.0390167E0,1.6212463E-3,5.722046E-5,2.2449765E0,2.3653519E1,6.321476E0,6.9249268E0,9.1911304E-1,1.5821877E-1,0E0,0E0,6.8243847E0,0E0,6.197052E0,0E0,0E0,0E0,0E0,4.546212E0,0E0,8.456863E0,4.42061E1,0E0,0E0,0E0,5.3837357E1,0E0,0E0,0E0,0E0,0E0,0E0,0E0,0E0,0E0,0E0,0E0,0E0,0E0,0E0,0E0,0E0],"parents":[2147483647,0,0,1,1,2,2,3,3,4,4,6,6,7,7,8,8,10,10,11,11,12,12,13,13,14,14,15,15,16,16,17,17,18,18,19,19,20,20,21,21,22,22,23,23,26,26,28,28,33,33,35,35,36,36,40,40],"right_children":[2,4,6,8,10,-1,12,14,16,-1,18,20,22,24,26,28,30,32,34,36,38,40,42,44,-1,-1,46,-1,48,-1,-1,-1,-1,50,-1,52,54,-1,-1,-1,56,-1,-1,-1,-1,-1,-1,-1,-1,-1,-1,-1,-1,-1,-1,-1,-1],"split_conditions":[3.4E1,2.8E1,3.5E1,2E1,2.9E1,6.9584884E-2,5.3E1,6E0,2.6E1,4.9644145E-3,3.1E1,5E1,5.8E1,5E0,7E0,2.1E1,2.7E1,3E1,3.3E1,4.7E1,5.2E1,5.4E1,5.9E1,4E0,-1.2291996E-2,9.510783E-2,1.4E1,-9.891936E-3,2.4E1,-1.457445E-2,-6.075533E-3,-8.578247E-3,-2.5059343E-3,3.2E1,9.387996E-3,3.6E1,4.8E1,1.0951254E-2,2.414383E-2,1.0812678E-1,5.7E1,6.040109E-3,-1.3543612E-2,3.5057098E-3,1.8048955E-2,6.3991905E-3,2.0532338E-2,3.6143851E-3,-8.075507E-3,1.6846573E-2,-6.851697E-3,2.9518459E-2,5.9075565E-3,-4.4887807E-2,4.5798644E-3,-3.838212E-3,1.11927085E-1],"split_indices":[0,0,0,0,0,0,0,0,0,0,0,0,0,0,0,0,0,0,0,0,0,0,0,0,0,0,0,0,0,0,0,0,0,0,0,0,0,0,0,0,0,0,0,0,0,0,0,0,0,0,0,0,0,0,0,0,0],"split_type":[0,0,0,0,0,0,0,0,0,0,0,0,0,0,0,0,0,0,0,0,0,0,0,0,0,0,0,0,0,0,0,0,0,0,0,0,0,0,0,0,0,0,0,0,0,0,0,0,0,0,0,0,0,0,0,0,0],"sum_hessian":[1.3665E4,1.1468E4,2.197E3,8.496E3,2.972E3,5.85E2,1.612E3,1.103E3,7.393E3,1.839E3,1.133E3,1.507E3,1.05E2,5.28E2,5.75E2,6.897E3,4.96E2,8.83E2,2.5E2,1.005E3,5.02E2,8.2E1,2.3E1,6.9E1,4.59E2,2E1,5.55E2,7.17E2,6.18E3,4.94E2,2E0,8.82E2,1E0,9.9E1,1.51E2,8.04E2,2.01E2,3.82E2,1.2E2,3.8E1,4.4E1,1.4E1,9E0,6.8E1,1E0,4.5E2,1.05E2,1.15E2,6.065E3,2.7E1,7.2E1,3.9E1,7.65E2,6.7E1,1.34E2,1.5E1,2.9E1],"tree_param":{"num_deleted":"0","num_feature":"1","num_nodes":"57","size_leaf_vector":"1"}},{"base_weights":[5.422105E-4,-9.651429E-2,5.0697553E-1,-1.3687782E-1,1.887941E-2,6.611158E-2,2.1048021E-1,2.90905E-2,-1.616401E-1,4.716332E-3,-1.0355602E-1,1.3089798E-1,1.3406644E0,-1.9308312E-1,2.3308487E-1,-1.5333824E-1,-1.3826923E-2,-8.146127E-3,1.05940185E-1,6.1789293E-2,2.6885512E-1,1.7225275E0,-3.5806607E-2,7.576287E-2,-1.1678736E-2,9.057888E-2,1.7304632E-1,-9.398025E-3,-1.4929163E-1,-5.309367E-3,8.921686E-3,1.3471806E-1,-2.2914857E-1,1.0405131E-2,2.2946624E-2,1.0285907E-1,1.3942158E0,5.758238E-3,-1.293415E-2,-4.907749E-3,4.3895273E-3,6.0799415E-3,1.9515416E-2,3.4352217E-3,-7.671788E-3,1.6034324E-2,-6.5138065E-3,-3.1632732E-3,9.234861E-3,-4.2676415E-2,4.35256E-3,-3.6583028E-3,1.0651728E-1],"categories":[],"categories_nodes":[],"categories_segments":[],"categories_sizes":[],"default_left":[0,0,0,0,0,0,0,0,0,0,0,0,0,0,0,0,0,0,0,0,0,0,0,0,0,0,0,0,0,0,0,0,0,0,0,0,0,0,0,0,0,0,0,0,0,0,0,0,0,0,0,0,0],"id":18,"left_children":[1,3,5,7,9,-1,11,13,15,-1,17,19,21,23,25,27,-1,-1,29,31,33,35,37,39,-1,-1,41,-1,43,45,-1,47,49,-1,-1,-1,51,-1,-1,-1,-1,-1,-1,-1,-1,-1,-1,-1,-1,-1,-1,-1,-1],"loss_changes":[6.7176904E2,5.3421722E1,5.3102136E2,3.4925262E1,2.7472599E1,0E0,1.4490189E2,5.0080677E1,7.010483E0,0E0,1.4120886E1,1.4360714E1,5.5777786E1,5.77639E0,5.4274265E1,9.38385E-1,0E0,0E0,2.0252304E0,2.137592E1,5.7129784E0,6.251114E0,8.3734196E-1,1.5504491E-1,0E0,0E0,6.1672745E0,0E0,5.5944824E0,4.1156416E0,0E0,7.9772005E0,3.9954903E1,0E0,0E0,0E0,4.8764122E1,0E0,0E0,0E0,0E0,0E0,0E0,0E0,0E0,0E0,0E0,0E0,0E0,0E0,0E0,0E0,0E0],"parents":[2147483647,0,0,1,1,2,2,3,3,4,4,6,6,7,7,8,8,10,10,11,11,12,12,13,13,14,14,15,15,18,18,19,19,20,20,21,21,22,22,23,23,26,26,28,28,29,29,31,31,32,32,36,36],"right_children":[2,4,6,8,10,-1,12,14,16,-1,18,20,22,24,26,28,-1,-1,30,32,34,36,38,40,-1,-1,42,-1,44,46,-1,48,50,-1,-1,-1,52,-1,-1,-1,-1,-1,-1,-1,-1,-1,-1,-1,-1,-1,-1,-1,-1],"split_conditions":[3.4E1,2.8E1,3.5E1,2E1,2.9E1,6.611158E-2,5.3E1,6E0,2.6E1,4.716332E-3,3.1E1,5E1,5.8E1,5E0,7E0,2.1E1,-1.3826923E-2,-8.146127E-3,3.3E1,4.7E1,5.2E1,5.4E1,5.9E1,1E0,-1.1678736E-2,9.057888E-2,1.4E1,-9.398025E-3,2.4E1,3.2E1,8.921686E-3,4E1,4.8E1,1.0405131E-2,2.2946624E-2,1.0285907E-1,5.7E1,5.758238E-3,-1.293415E-2,-4.907749E-3,4.3895273E-3,6.0799415E-3,1.9515416E-2,3.4352217E-3,-7.671788E-3,1.6034324E-2,-6.5138065E-3,-3.1632732E-3,9.234861E-3,-4.2676415E-2,4.35256E-3,-3.6583028E-3,1.0651728E-1],"split_indices":[0,0,0,0,0,0,0,0,0,0,0,0,0,0,0,0,0,0,0,0,0,0,0,0,0,0,0,0,0,0,0,0,0,0,0,0,0,0,0,0,0,0,0,0,0,0,0,0,0,0,0,0,0],"split_type":[0,0,0,0,0,0,0,0,0,0,0,0,0,0,0,0,0,0,0,0,0,0,0,0,0,0,0,0,0,0,0,0,0,0,0,0,0,0,0,0,0,0,0,0,0,0,0,0,0,0,0,0,0],"sum_hessian":[1.3665E4,1.1468E4,2.197E3,8.496E3,2.972E3,5.85E2,1.612E3,1.103E3,7.393E3,1.839E3,1.133E3,1.507E3,1.05E2,5.28E2,5.75E2,6.897E3,4.96E2,8.83E2,2.5E2,1.005E3,5.02E2,8.2E1,2.3E1,6.9E1,4.59E2,2E1,5.55E2,7.17E2,6.18E3,9.9E1,1.51E2,8.04E2,2.01E2,3.82E2,1.2E2,3.8E1,4.4E1,1.4E1,9E0,4E0,6.5E1,4.5E2,1.05E2,1.15E2,6.065E3,2.7E1,7.2E1,1.62E2,6.42E2,6.7E1,1.34E2,1.5E1,2.9E1],"tree_param":{"num_deleted":"0","num_feature":"1","num_nodes":"53","size_leaf_vector":"1"}},{"base_weights":[5.412503E-4,-9.168059E-2,4.817477E-1,-1.3002492E-1,1.7940497E-2,6.2811635E-2,2.0007996E-1,2.7730027E-2,-1.5356177E-1,4.4806404E-3,-9.836902E-2,1.24353796E-1,1.2755042E0,-1.8345208E-1,2.2163212E-1,-1.4567327E-1,-2.6273942E-1,-1.5478545E-1,1.0071665E-1,5.866775E-2,2.5547868E-1,1.6388797E0,-3.4315277E-2,7.1967095E-2,-1.10960705E-2,8.626559E-2,1.6443986E-1,-8.92878E-3,-1.4182769E-1,-1.315725E-2,-5.4121255E-3,-7.7429647E-3,-2.2396327E-3,-4.9487925E-3,8.47854E-3,1.2798968E-1,-2.1788086E-1,9.886236E-3,2.1808764E-2,9.784799E-2,1.3267907E0,5.489518E-3,-1.2352111E-2,3.1436065E-3,1.7487992E-2,5.7766084E-3,1.8548844E-2,3.2649455E-3,-7.2882595E-3,1.526125E-2,-6.1925882E-3,2.8233638E-2,5.250965E-3,-4.0573973E-2,4.1365433E-3,-3.4868203E-3,1.0136894E-1],"categories":[],"categories_nodes":[],"categories_segments":[],"categories_sizes":[],"default_left":[0,0,0,0,0,0,0,0,0,0,0,0,0,0,0,0,0,0,0,0,0,0,0,0,0,0,0,0,0,0,0,0,0,0,0,0,0,0,0,0,0,0,0,0,0,0,0,0,0,0,0,0,0,0,0,0,0],"id":19,"left_children":[1,3,5,7,9,-1,11,13,15,-1,17,19,21,23,25,27,29,31,33,35,37,39,41,43,-1,-1,45,-1,47,-1,-1,-1,-1,49,-1,51,53,-1,-1,-1,55,-1,-1,-1,-1,-1,-1,-1,-1,-1,-1,-1,-1,-1,-1,-1,-1],"loss_changes":[6.065103E2,4.8210518E1,4.792368E2,3.1554077E1,2.4792252E1,0E0,1.312005E2,4.5247974E1,6.329788E0,0E0,1.2752343E1,1.297353E1,5.0507614E1,5.2138214E0,4.9251633E1,8.4747314E-1,2.658844E-3,2.4223328E-4,1.8269901E0,1.9313795E1,5.1630363E0,5.642868E0,7.628464E-1,1.5486589E-1,0E0,0E0,5.573434E0,0E0,5.0504913E0,0E0,0E0,0E0,0E0,3.7258606E0,0E0,8.015476E0,3.6112556E1,0E0,0E0,0E0,4.4168953E1,0E0,0E0,0E0,0E0,0E0,0E0,0E0,0E0,0E0,0E0,0E0,0E0,0E0,0E0,0E0,0E0],"parents":[2147483647,0,0,1,1,2,2,3,3,4,4,6,6,7,7,8,8,10,10,11,11,12,12,13,13,14,14,15,15,16,16,17,17,18,18,19,19,20,20,21,21,22,22,23,23,26,26,28,28,33,33,35,35,36,36,40,40],"right_children":[2,4,6,8,10,-1,12,14,16,-1,18,20,22,24,26,28,30,32,34,36,38,40,42,44,-1,-1,46,-1,48,-1,-1,-1,-1,50,-1,52,54,-1,-1,-1,56,-1,-1,-1,-1,-1,-1,-1,-1,-1,-1,-1,-1,-1,-1,-1,-1],"split_conditions":[3.4E1,2.8E1,3.5E1,2E1,2.9E1,6.2811635E-2,5.3E1,6E0,2.6E1,4.4806404E-3,3.1E1,5E1,5.8E1,5E0,7E0,2.1E1,2.7E1,3E1,3.3E1,4.7E1,5.2E1,5.4E1,5.9E1,4E0,-1.10960705E-2,8.626559E-2,1.4E1,-8.92878E-3,2.4E1,-1.315725E-2,-5.4121255E-3,-7.7429647E-3,-2.2396327E-3,3.2E1,8.47854E-3,3.6E1,4.8E1,9.886236E-3,2.1808764E-2,9.784799E-2,5.7E1,5.489518E-3,-1.2352111E-2,3.1436065E-3,1.7487992E-2,5.7766084E-3,1.8548844E-2,3.2649455E-3,-7.2882595E-3,1.526125E-2,-6.1925882E-3,2.8233638E-2,5.250965E-3,-4.0573973E-2,4.1365433E-3,-3.4868203E-3,1.0136894E-1],"split_indices":[0,0,0,0,0,0,0,0,0,0,0,0,0,0,0,0,0,0,0,0,0,0,0,0,0,0,0,0,0,0,0,0,0,0,0,0,0,0,0,0,0,0,0,0,0,0,0,0,0,0,0,0,0,0,0,0,0],"split_type":[0,0,0,0,0,0,0,0,0,0,0,0,0,0,0,0,0,0,0,0,0,0,0,0,0,0,0,0,0,0,0,0,0,0,0,0,0,0,0,0,0,0,0,0,0,0,0,0,0,0,0,0,0,0,0,0,0],"sum_hessian":[1.3665E4,1.1468E4,2.197E3,8.496E3,2.972E3,5.85E2,1.612E3,1.103E3,7.393E3,1.839E3,1.133E3,1.507E3,1.05E2,5.28E2,5.75E2,6.897E3,4.96E2,8.83E2,2.5E2,1.005E3,5.02E2,8.2E1,2.3E1,6.9E1,4.59E2,2E1,5.55E2,7.17E2,6.18E3,4.94E2,2E0,8.82E2,1E0,9.9E1,1.51E2,8.04E2,2.01E2,3.82E2,1.2E2,3.8E1,4.4E1,1.4E1,9E0,6.8E1,1E0,4.5E2,1.05E2,1.15E2,6.065E3,2.7E1,7.2E1,3.9E1,7.65E2,6.7E1,1.34E2,1.5E1,2.9E1],"tree_param":{"num_deleted":"0","num_feature":"1","num_nodes":"57","size_leaf_vector":"1"}},{"base_weights":[5.4212817E-4,-8.7087706E-2,4.5778784E-1,-1.23513095E-1,1.7047374E-2,5.967641E-2,1.902109E-1,2.6452368E-2,-1.4588778E-1,4.25672E-3,-9.344397E-2,1.181552E-1,1.2135109E0,-1.7426154E-1,2.1074265E-1,-1.3839132E-1,-2.496397E-1,-7.3528783E-3,9.5750704E-2,5.573146E-2,2.4276777E-1,1.559294E0,-3.2885402E-2,6.866331E-2,-1.05424775E-2,8.21577E-2,1.5626176E-1,-8.482964E-3,-1.3473676E-1,-1.2500711E-2,-5.2317223E-3,-4.6105767E-3,8.057396E-3,1.2163183E-1,-2.0716718E-1,9.393213E-3,2.0727344E-2,9.308104E-2,1.2626263E0,5.2333483E-3,-1.17962705E-2,2.9886956E-3,1.7050792E-2,5.4884288E-3,1.7630147E-2,3.1031077E-3,-6.9238963E-3,1.4525442E-2,-5.8871955E-3,-3.5419576E-3,8.511695E-3,-3.85751E-2,3.9312476E-3,-3.3233843E-3,9.646945E-2],"categories":[],"categories_nodes":[],"categories_segments":[],"categories_sizes":[],"default_left":[0,0,0,0,0,0,0,0,0,0,0,0,0,0,0,0,0,0,0,0,0,0,0,0,0,0,0,0,0,0,0,0,0,0,0,0,0,0,0,0,0,0,0,0,0,0,0,0,0,0,0,0,0,0,0],"id":20,"left_children":[1,3,5,7,9,-1,11,13,15,-1,17,19,21,23,25,27,29,-1,31,33,35,37,39,41,-1,-1,43,-1,45,-1,-1,47,-1,49,51,-1,-1,-1,53,-1,-1,-1,-1,-1,-1,-1,-1,-1,-1,-1,-1,-1,-1,-1,-1],"loss_changes":[5.476142E2,4.3505867E1,4.3248688E2,2.8514938E1,2.2373915E1,0E0,1.1879051E2,4.087327E1,5.7163086E0,0E0,1.1516703E1,1.1716871E1,4.573546E1,4.716299E0,4.469374E1,7.6538086E-1,8.277893E-4,0E0,1.6481433E0,1.7454264E1,4.66605E0,5.0937805E0,6.9498086E-1,1.490896E-1,0E0,0E0,5.0367546E0,0E0,4.5594025E0,0E0,0E0,3.3729901E0,0E0,7.542425E0,3.2639713E1,0E0,0E0,0E0,4.0006805E1,0E0,0E0,0E0,0E0,0E0,0E0,0E0,0E0,0E0,0E0,0E0,0E0,0E0,0E0,0E0,0E0],"parents":[2147483647,0,0,1,1,2,2,3,3,4,4,6,6,7,7,8,8,10,10,11,11,12,12,13,13,14,14,15,15,16,16,18,18,19,19,20,20,21,21,22,22,23,23,26,26,28,28,31,31,33,33,34,34,38,38],"right_children":[2,4,6,8,10,-1,12,14,16,-1,18,20,22,24,26,28,30,-1,32,34,36,38,40,42,-1,-1,44,-1,46,-1,-1,48,-1,50,52,-1,-1,-1,54,-1,-1,-1,-1,-1,-1,-1,-1,-1,-1,-1,-1,-1,-1,-1,-1],"split_conditions":[3.4E1,2.8E1,3.5E1,2E1,2.9E1,5.967641E-2,5.3E1,6E0,2.6E1,4.25672E-3,3.1E1,5E1,5.8E1,5E0,7E0,2.1E1,2.7E1,-7.3528783E-3,3.3E1,4.7E1,5.2E1,5.4E1,5.9E1,4E0,-1.05424775E-2,8.21577E-2,1.4E1,-8.482964E-3,2.4E1,-1.2500711E-2,-5.2317223E-3,3.2E1,8.057396E-3,4E1,4.8E1,9.393213E-3,2.0727344E-2,9.308104E-2,5.7E1,5.2333483E-3,-1.17962705E-2,2.9886956E-3,1.7050792E-2,5.4884288E-3,1.7630147E-2,3.1031077E-3,-6.9238963E-3,1.4525442E-2,-5.8871955E-3,-3.5419576E-3,8.511695E-3,-3.85751E-2,3.9312476E-3,-3.3233843E-3,9.646945E-2],"split_indices":[0,0,0,0,0,0,0,0,0,0,0,0,0,0,0,0,0,0,0,0,0,0,0,0,0,0,0,0,0,0,0,0,0,0,0,0,0,0,0,0,0,0,0,0,0,0,0,0,0,0,0,0,0,0,0],"split_type":[0,0,0,0,0,0,0,0,0,0,0,0,0,0,0,0,0,0,0,0,0,0,0,0,0,0,0,0,0,0,0,0,0,0,0,0,0,0,0,0,0,0,0,0,0,0,0,0,0,0,0,0,0,0,0],"sum_hessian":[1.3665E4,1.1468E4,2.197E3,8.496E3,2.972E3,5.85E2,1.612E3,1.103E3,7.393E3,1.839E3,1.133E3,1.507E3,1.05E2,5.28E2,5.75E2,6.897E3,4.96E2,8.83E2,2.5E2,1.005E3,5.02E2,8.2E1,2.3E1,6.9E1,4.59E2,2E1,5.55E2,7.17E2,6.18E3,4.94E2,2E0,9.9E1,1.51E2,8.04E2,2.01E2,3.82E2,1.2E2,3.8E1,4.4E1,1.4E1,9E0,6.8E1,1E0,4.5E2,1.05E2,1.15E2,6.065E3,2.7E1,7.2E1,1.62E2,6.42E2,6.7E1,1.34E2,1.5E1,2.9E1],"tree_param":{"num_deleted":"0","num_feature":"1","num_nodes":"55","size_leaf_vector":"1"}},{"base_weights":[5.396571E-4,-8.272488E-2,4.3500754E-1,-1.1732763E-1,1.6199548E-2,5.6697667E-2,1.8081212E-1,2.5233688E-2,-1.3859762E-1,4.0439996E-3,-8.87636E-2,1.1224783E-1,1.1545303E0,-1.655306E-1,2.0038833E-1,-1.3147373E-1,-1.18596675E-2,-1.3971305E-1,9.102952E-2,5.2915517E-2,2.306893E-1,1.483573E0,-3.1514477E-2,6.551631E-2,-1.0016504E-2,7.824544E-2,1.4849028E-1,-8.059408E-3,-1.2800075E-1,-6.9890344E-3,-1.9998194E-3,-4.2937757E-3,7.6571666E-3,1.1555653E-1,-1.9698016E-1,8.924779E-3,1.969955E-2,8.854633E-2,1.201565E0,4.989128E-3,-1.126543E-2,2.8414207E-3,1.6624523E-2,5.214617E-3,1.6756957E-2,2.9492823E-3,-6.5777698E-3,1.382511E-2,-5.596876E-3,2.7029922E-2,4.6605137E-3,-3.6674708E-2,3.7361511E-3,-3.1675927E-3,9.180676E-2],"categories":[],"categories_nodes":[],"categories_segments":[],"categories_sizes":[],"default_left":[0,0,0,0,0,0,0,0,0,0,0,0,0,0,0,0,0,0,0,0,0,0,0,0,0,0,0,0,0,0,0,0,0,0,0,0,0,0,0,0,0,0,0,0,0,0,0,0,0,0,0,0,0,0,0],"id":21,"left_children":[1,3,5,7,9,-1,11,13,15,-1,17,19,21,23,25,27,-1,29,31,33,35,37,39,41,-1,-1,43,-1,45,-1,-1,47,-1,49,51,-1,-1,-1,53,-1,-1,-1,-1,-1,-1,-1,-1,-1,-1,-1,-1,-1,-1,-1,-1],"loss_changes":[4.94414E2,3.926095E1,3.9031104E2,2.5768768E1,2.0191061E1,0E0,1.0755797E2,3.69214E1,5.162262E0,0E0,1.0400565E1,1.0585121E1,4.141426E1,4.266449E0,4.0557613E1,6.912155E-1,0E0,3.7002563E-4,1.4868021E0,1.5770403E1,4.2169075E0,4.5980988E0,6.331521E-1,1.4346611E-1,0E0,0E0,4.5517664E0,0E0,4.116089E0,0E0,0E0,3.0535438E0,0E0,7.595578E0,2.9500866E1,0E0,0E0,0E0,3.6236847E1,0E0,0E0,0E0,0E0,0E0,0E0,0E0,0E0,0E0,0E0,0E0,0E0,0E0,0E0,0E0,0E0],"parents":[2147483647,0,0,1,1,2,2,3,3,4,4,6,6,7,7,8,8,10,10,11,11,12,12,13,13,14,14,15,15,17,17,18,18,19,19,20,20,21,21,22,22,23,23,26,26,28,28,31,31,33,33,34,34,38,38],"right_children":[2,4,6,8,10,-1,12,14,16,-1,18,20,22,24,26,28,-1,30,32,34,36,38,40,42,-1,-1,44,-1,46,-1,-1,48,-1,50,52,-1,-1,-1,54,-1,-1,-1,-1,-1,-1,-1,-1,-1,-1,-1,-1,-1,-1,-1,-1],"split_conditions":[3.4E1,2.8E1,3.5E1,2E1,2.9E1,5.6697667E-2,5.3E1,6E0,2.6E1,4.0439996E-3,3.1E1,5E1,5.8E1,5E0,7E0,2.1E1,-1.18596675E-2,3E1,3.3E1,4.7E1,5.2E1,5.4E1,5.9E1,4E0,-1.0016504E-2,7.824544E-2,1.4E1,-8.059408E-3,2.4E1,-6.9890344E-3,-1.9998194E-3,3.2E1,7.6571666E-3,3.6E1,4.8E1,8.924779E-3,1.969955E-2,8.854633E-2,5.7E1,4.989128E-3,-1.126543E-2,2.8414207E-3,1.6624523E-2,5.214617E-3,1.6756957E-2,2.9492823E-3,-6.5777698E-3,1.382511E-2,-5.596876E-3,2.7029922E-2,4.6605137E-3,-3.6674708E-2,3.7361511E-3,-3.1675927E-3,9.180676E-2],"split_indices":[0,0,0,0,0,0,0,0,0,0,0,0,0,0,0,0,0,0,0,0,0,0,0,0,0,0,0,0,0,0,0,0,0,0,0,0,0,0,0,0,0,0,0,0,0,0,0,0,0,0,0,0,0,0,0],"split_type":[0,0,0,0,0,0,0,0,0,0,0,0,0,0,0,0,0,0,0,0,0,0,0,0,0,0,0,0,0,0,0,0,0,0,0,0,0,0,0,0,0,0,0,0,0,0,0,0,0,0,0,0,0,0,0],"sum_hessian":[1.3665E4,1.1468E4,2.197E3,8.496E3,2.972E3,5.85E2,1.612E3,1.103E3,7.393E3,1.839E3,1.133E3,1.507E3,1.05E2,5.28E2,5.75E2,6.897E3,4.96E2,8.83E2,2.5E2,1.005E3,5.02E2,8.2E1,2.3E1,6.9E1,4.59E2,2E1,5.55E2,7.17E2,6.18E3,8.82E2,1E0,9.9E1,1.51E2,8.04E2,2.01E2,3.82E2,1.2E2,3.8E1,4.4E1,1.4E1,9E0,6.8E1,1E0,4.5E2,1.05E2,1.15E2,6.065E3,2.7E1,7.2E1,3.9E1,7.65E2,6.7E1,1.34E2,1.5E1,2.9E1],"tree_param":{"num_deleted":"0","num_feature":"1","num_nodes":"55","size_leaf_vector":"1"}},{"base_weights":[5.3850684E-4,-7.858007E-2,4.1337305E-1,-1.1145096E-1,1.539322E-2,5.386761E-2,1.7189436E-1,2.407127E-2,-1.3167074E-1,3.8419068E-3,-8.431933E-2,1.066535E-1,1.0984162E0,-1.5723626E-1,1.9054283E-1,-1.2490155E-1,-2.2535732E-1,-6.63688E-3,8.654149E-2,5.0268434E-2,2.192116E-1,1.4115293E0,-3.0200332E-2,6.2518515E-2,-9.51677E-3,7.4519455E-2,1.4110522E-1,-7.656994E-3,-1.2160111E-1,-1.1285138E-2,-4.6619973E-3,-3.996587E-3,7.276833E-3,1.09817974E-1,-1.872942E-1,8.479696E-3,1.8722711E-2,8.423253E-2,1.1434567E0,4.756301E-3,-1.0758492E-2,-5.0704074E-3,3.699498E-3,4.9544605E-3,1.5927011E-2,2.8030917E-3,-6.248926E-3,1.315855E-2,-5.320854E-3,-3.8651568E-3,7.854112E-3,-3.486795E-2,3.5507337E-3,-3.01911E-3,8.736945E-2],"categories":[],"categories_nodes":[],"categories_segments":[],"categories_sizes":[],"default_left":[0,0,0,0,0,0,0,0,0,0,0,0,0,0,0,0,0,0,0,0,0,0,0,0,0,0,0,0,0,0,0,0,0,0,0,0,0,0,0,0,0,0,0,0,0,0,0,0,0,0,0,0,0,0,0],"id":22,"left_children":[1,3,5,7,9,-1,11,13,15,-1,17,19,21,23,25,27,29,-1,31,33,35,37,39,41,-1,-1,43,-1,45,-1,-1,47,-1,49,51,-1,-1,-1,53,-1,-1,-1,-1,-1,-1,-1,-1,-1,-1,-1,-1,-1,-1,-1,-1],"loss_changes":[4.464034E2,3.54293E1,3.5223514E2,2.3286896E1,1.8221542E1,0E0,9.7383995E1,3.3351494E1,4.6609955E0,0E0,9.392824E0,9.559647E0,3.7501404E1,3.859682E0,3.6804207E1,6.242676E-1,1.6384125E-3,0E0,1.3412502E0,1.4252196E1,3.8109932E0,4.1506195E0,5.768255E-1,1.391364E-1,0E0,0E0,4.113476E0,0E0,3.7158356E0,0E0,0E0,2.7643495E0,0E0,7.1316776E0,2.6663883E1,0E0,0E0,0E0,3.282218E1,0E0,0E0,0E0,0E0,0E0,0E0,0E0,0E0,0E0,0E0,0E0,0E0,0E0,0E0,0E0,0E0],"parents":[2147483647,0,0,1,1,2,2,3,3,4,4,6,6,7,7,8,8,10,10,11,11,12,12,13,13,14,14,15,15,16,16,18,18,19,19,20,20,21,21,22,22,23,23,26,26,28,28,31,31,33,33,34,34,38,38],"right_children":[2,4,6,8,10,-1,12,14,16,-1,18,20,22,24,26,28,30,-1,32,34,36,38,40,42,-1,-1,44,-1,46,-1,-1,48,-1,50,52,-1,-1,-1,54,-1,-1,-1,-1,-1,-1,-1,-1,-1,-1,-1,-1,-1,-1,-1,-1],"split_conditions":[3.4E1,2.8E1,3.5E1,2E1,2.9E1,5.386761E-2,5.3E1,6E0,2.6E1,3.8419068E-3,3.1E1,5E1,5.8E1,5E0,7E0,2.1E1,2.7E1,-6.63688E-3,3.3E1,4.7E1,5.2E1,5.4E1,5.9E1,1E0,-9.51677E-3,7.4519455E-2,1.4E1,-7.656994E-3,2.4E1,-1.1285138E-2,-4.6619973E-3,3.2E1,7.276833E-3,4E1,4.8E1,8.479696E-3,1.8722711E-2,8.423253E-2,5.7E1,4.756301E-3,-1.0758492E-2,-5.0704074E-3,3.699498E-3,4.9544605E-3,1.5927011E-2,2.8030917E-3,-6.248926E-3,1.315855E-2,-5.320854E-3,-3.8651568E-3,7.854112E-3,-3.486795E-2,3.5507337E-3,-3.01911E-3,8.736945E-2],"split_indices":[0,0,0,0,0,0,0,0,0,0,0,0,0,0,0,0,0,0,0,0,0,0,0,0,0,0,0,0,0,0,0,0,0,0,0,0,0,0,0,0,0,0,0,0,0,0,0,0,0,0,0,0,0,0,0],"split_type":[0,0,0,0,0,0,0,0,0,0,0,0,0,0,0,0,0,0,0,0,0,0,0,0,0,0,0,0,0,0,0,0,0,0,0,0,0,0,0,0,0,0,0,0,0,0,0,0,0,0,0,0,0,0,0],"sum_hessian":[1.3665E4,1.1468E4,2.197E3,8.496E3,2.972E3,5.85E2,1.612E3,1.103E3,7.393E3,1.839E3,1.133E3,1.507E3,1.05E2,5.28E2,5.75E2,6.897E3,4.96E2,8.83E2,2.5E2,1.005E3,5.02E2,8.2E1,2.3E1,6.9E1,4.59E2,2E1,5.55E2,7.17E2,6.18E3,4.94E2,2E0,9.9E1,1.51E2,8.04E2,2.01E2,3.82E2,1.2E2,3.8E1,4.4E1,1.4E1,9E0,4E0,6.5E1,4.5E2,1.05E2,1.15E2,6.065E3,2.7E1,7.2E1,1.62E2,6.42E2,6.7E1,1.34E2,1.5E1,2.9E1],"tree_param":{"num_deleted":"0","num_feature":"1","num_nodes":"55","size_leaf_vector":"1"}},{"base_weights":[5.325603E-4,-7.464493E-2,3.9280283E-1,-1.0587161E-1,1.4627783E-2,5.117882E-2,1.6340046E-1,2.294431E-2,-1.2509084E-1,3.6499172E-3,-8.009573E-2,1.01320855E-1,1.0450292E0,-1.4939506E-1,1.8118143E-1,-1.1865806E-1,-2.1412137E-1,-1.26108E-1,8.22746E-2,4.7727954E-2,2.0830521E-1,1.3429838E0,-2.8940529E-2,5.9373178E-2,-9.041969E-3,7.09709E-2,1.3408764E-1,-7.2746747E-3,-1.15521595E-1,-1.0722013E-2,-4.506596E-3,-6.3085007E-3,-1.7838955E-3,-3.718195E-3,6.9153765E-3,1.0433216E-1,-1.7808445E-1,8.056823E-3,1.7794322E-2,8.012891E-2,1.0881581E0,4.5343335E-3,-1.0274365E-2,2.5445402E-3,1.611643E-2,4.707293E-3,1.5138182E-2,2.6641337E-3,-5.9365295E-3,1.2524131E-2,-5.0584474E-3,2.5900641E-2,4.1296915E-3,-3.31502E-2,3.3745223E-3,-2.8775788E-3,8.3146565E-2],"categories":[],"categories_nodes":[],"categories_segments":[],"categories_sizes":[],"default_left":[0,0,0,0,0,0,0,0,0,0,0,0,0,0,0,0,0,0,0,0,0,0,0,0,0,0,0,0,0,0,0,0,0,0,0,0,0,0,0,0,0,0,0,0,0,0,0,0,0,0,0,0,0,0,0,0,0],"id":23,"left_children":[1,3,5,7,9,-1,11,13,15,-1,17,19,21,23,25,27,29,31,33,35,37,39,41,43,-1,-1,45,-1,47,-1,-1,-1,-1,49,-1,51,53,-1,-1,-1,55,-1,-1,-1,-1,-1,-1,-1,-1,-1,-1,-1,-1,-1,-1,-1,-1],"loss_changes":[4.0303824E2,3.1973572E1,3.178854E2,2.1039253E1,1.6443754E1,0E0,8.8175476E1,3.0133682E1,4.2092285E0,0E0,8.482521E0,8.636331E0,3.3958267E1,3.4833965E0,3.339811E1,5.6378174E-1,3.2424927E-4,4.5490265E-4,1.2099396E0,1.2877201E1,3.444149E0,3.7466888E0,5.2551E-1,1.3973053E-1,0E0,0E0,3.71739E0,0E0,3.3545303E0,0E0,0E0,0E0,0E0,2.502547E0,0E0,7.1963596E0,2.4099728E1,0E0,0E0,0E0,2.9729252E1,0E0,0E0,0E0,0E0,0E0,0E0,0E0,0E0,0E0,0E0,0E0,0E0,0E0,0E0,0E0,0E0],"parents":[2147483647,0,0,1,1,2,2,3,3,4,4,6,6,7,7,8,8,10,10,11,11,12,12,13,13,14,14,15,15,16,16,17,17,18,18,19,19,20,20,21,21,22,22,23,23,26,26,28,28,33,33,35,35,36,36,40,40],"right_children":[2,4,6,8,10,-1,12,14,16,-1,18,20,22,24,26,28,30,32,34,36,38,40,42,44,-1,-1,46,-1,48,-1,-1,-1,-1,50,-1,52,54,-1,-1,-1,56,-1,-1,-1,-1,-1,-1,-1,-1,-1,-1,-1,-1,-1,-1,-1,-1],"split_conditions":[3.4E1,2.8E1,3.5E1,2E1,2.9E1,5.117882E-2,5.3E1,6E0,2.6E1,3.6499172E-3,3.1E1,5E1,5.8E1,5E0,7E0,2.1E1,2.7E1,3E1,3.3E1,4.7E1,5.2E1,5.4E1,5.9E1,4E0,-9.041969E-3,7.09709E-2,1.4E1,-7.2746747E-3,2.4E1,-1.0722013E-2,-4.506596E-3,-6.3085007E-3,-1.7838955E-3,3.2E1,6.9153765E-3,3.6E1,4.8E1,8.056823E-3,1.7794322E-2,8.012891E-2,5.7E1,4.5343335E-3,-1.0274365E-2,2.5445402E-3,1.611643E-2,4.707293E-3,1.5138182E-2,2.6641337E-3,-5.9365295E-3,1.2524131E-2,-5.0584474E-3,2.5900641E-2,4.1296915E-3,-3.31502E-2,3.3745223E-3,-2.8775788E-3,8.3146565E-2],"split_indices":[0,0,0,0,0,0,0,0,0,0,0,0,0,0,0,0,0,0,0,0,0,0,0,0,0,0,0,0,0,0,0,0,0,0,0,0,0,0,0,0,0,0,0,0,0,0,0,0,0,0,0,0,0,0,0,0,0],"split_type":[0,0,0,0,0,0,0,0,0,0,0,0,0,0,0,0,0,0,0,0,0,0,0,0,0,0,0,0,0,0,0,0,0,0,0,0,0,0,0,0,0,0,0,0,0,0,0,0,0,0,0,0,0,0,0,0,0],"sum_hessian":[1.3665E4,1.1468E4,2.197E3,8.496E3,2.972E3,5.85E2,1.612E3,1.103E3,7.393E3,1.839E3,1.133E3,1.507E3,1.05E2,5.28E2,5.75E2,6.897E3,4.96E2,8.83E2,2.5E2,1.005E3,5.02E2,8.2E1,2.3E1,6.9E1,4.59E2,2E1,5.55E2,7.17E2,6.18E3,4.94E2,2E0,8.82E2,1E0,9.9E1,1.51E2,8.04E2,2.01E2,3.82E2,1.2E2,3.8E1,4.4E1,1.4E1,9E0,6.8E1,1E0,4.5E2,1.05E2,1.15E2,6.065E3,2.7E1,7.2E1,3.9E1,7.65E2,6.7E1,1.34E2,1.5E1,2.9E1],"tree_param":{"num_deleted":"0","num_feature":"1","num_nodes":"57","size_leaf_vector":"1"}},{"base_weights":[5.2915263E-4,-7.090523E-2,3.732682E-1,-1.0056918E-1,1.3899866E-2,4.8624236E-2,1.5534247E-1,2.1887986E-2,-1.18839696E-1,3.4675307E-3,-7.608539E-2,9.627207E-2,9.9423695E-1,-1.4190726E-1,1.7228E-1,-1.1272661E-1,-1.017229E-2,-1.19811706E-1,7.8218006E-2,4.534165E-2,1.9794153E-1,1.2777675E0,-2.7732601E-2,5.6671236E-2,-8.590862E-3,6.759133E-2,1.2741892E-1,-6.91145E-3,-1.0974595E-1,-5.9934305E-3,-1.7392993E-3,-3.4577418E-3,6.5718726E-3,9.9152654E-2,-1.6932768E-1,7.6550427E-3,1.6911969E-2,7.6225206E-2,1.0355343E0,4.3227356E-3,-9.812015E-3,2.4191637E-3,1.5713513E-2,4.4724485E-3,1.4388415E-2,2.5320777E-3,-5.6397473E-3,1.1920289E-2,-4.8089973E-3,-4.138758E-3,7.255851E-3,-3.1517066E-2,3.2070433E-3,-2.742686E-3,7.912784E-2],"categories":[],"categories_nodes":[],"categories_segments":[],"categories_sizes":[],"default_left":[0,0,0,0,0,0,0,0,0,0,0,0,0,0,0,0,0,0,0,0,0,0,0,0,0,0,0,0,0,0,0,0,0,0,0,0,0,0,0,0,0,0,0,0,0,0,0,0,0,0,0,0,0,0,0],"id":24,"left_children":[1,3,5,7,9,-1,11,13,15,-1,17,19,21,23,25,27,-1,29,31,33,35,37,39,41,-1,-1,43,-1,45,-1,-1,47,-1,49,51,-1,-1,-1,53,-1,-1,-1,-1,-1,-1,-1,-1,-1,-1,-1,-1,-1,-1,-1,-1],"loss_changes":[3.639026E2,2.885344E1,2.8687408E2,1.9013405E1,1.4839803E1,0E0,7.983461E1,2.721983E1,3.8012695E0,0E0,7.6606045E0,7.799555E0,3.0749954E1,3.151721E0,3.0307213E1,5.0917816E-1,0E0,1.0681152E-4,1.0914859E0,1.1637671E1,3.1126118E0,3.3820648E0,4.7876048E-1,1.3424252E-1,0E0,0E0,3.3594437E0,0E0,3.0283508E0,0E0,0E0,2.2655418E0,0E0,6.7435794E0,2.178213E1,0E0,0E0,0E0,2.6927807E1,0E0,0E0,0E0,0E0,0E0,0E0,0E0,0E0,0E0,0E0,0E0,0E0,0E0,0E0,0E0,0E0],"parents":[2147483647,0,0,1,1,2,2,3,3,4,4,6,6,7,7,8,8,10,10,11,11,12,12,13,13,14,14,15,15,17,17,18,18,19,19,20,20,21,21,22,22,23,23,26,26,28,28,31,31,33,33,34,34,38,38],"right_children":[2,4,6,8,10,-1,12,14,16,-1,18,20,22,24,26,28,-1,30,32,34,36,38,40,42,-1,-1,44,-1,46,-1,-1,48,-1,50,52,-1,-1,-1,54,-1,-1,-1,-1,-1,-1,-1,-1,-1,-1,-1,-1,-1,-1,-1,-1],"split_conditions":[3.4E1,2.8E1,3.5E1,2E1,2.9E1,4.8624236E-2,5.3E1,6E0,2.6E1,3.4675307E-3,3.1E1,5E1,5.8E1,5E0,7E0,2.1E1,-1.017229E-2,3E1,3.3E1,4.7E1,5.2E1,5.4E1,5.9E1,4E0,-8.590862E-3,6.759133E-2,1.4E1,-6.91145E-3,2.4E1,-5.9934305E-3,-1.7392993E-3,3.2E1,6.5718726E-3,4E1,4.8E1,7.6550427E-3,1.6911969E-2,7.6225206E-2,5.7E1,4.3227356E-3,-9.812015E-3,2.4191637E-3,1.5713513E-2,4.4724485E-3,1.4388415E-2,2.5320777E-3,-5.6397473E-3,1.1920289E-2,-4.8089973E-3,-4.138758E-3,7.255851E-3,-3.1517066E-2,3.2070433E-3,-2.742686E-3,7.912784E-2],"split_indices":[0,0,0,0,0,0,0,0,0,0,0,0,0,0,0,0,0,0,0,0,0,0,0,0,0,0,0,0,0,0,0,0,0,0,0,0,0,0,0,0,0,0,0,0,0,0,0,0,0,0,0,0,0,0,0],"split_type":[0,0,0,0,0,0,0,0,0,0,0,0,0,0,0,0,0,0,0,0,0,0,0,0,0,0,0,0,0,0,0,0,0,0,0,0,0,0,0,0,0,0,0,0,0,0,0,0,0,0,0,0,0,0,0],"sum_hessian":[1.3665E4,1.1468E4,2.197E3,8.496E3,2.972E3,5.85E2,1.612E3,1.103E3,7.393E3,1.839E3,1.133E3,1.507E3,1.05E2,5.28E2,5.75E2,6.897E3,4.96E2,8.83E2,2.5E2,1.005E3,5.02E2,8.2E1,2.3E1,6.9E1,4.59E2,2E1,5.55E2,7.17E2,6.18E3,8.82E2,1E0,9.9E1,1.51E2,8.04E2,2.01E2,3.82E2,1.2E2,3.8E1,4.4E1,1.4E1,9E0,6.8E1,1E0,4.5E2,1.05E2,1.15E2,6.065E3,2.7E1,7.2E1,1.62E2,6.42E2,6.7E1,1.34E2,1.5E1,2.9E1],"tree_param":{"num_deleted":"0","num_feature":"1","num_nodes":"55","size_leaf_vector":"1"}},{"base_weights":[5.2310654E-4,-6.735265E-2,3.5469353E-1,-9.553195E-2,1.3208005E-2,4.6197183E-2,1.4766607E-1,2.0880546E-2,-1.1290061E-1,3.294247E-3,-7.2275914E-2,9.1457956E-2,9.4591296E-1,-1.3479398E-1,1.6381621E-1,-1.0709192E-1,-1.932939E-1,-5.6914967E-3,7.436164E-2,4.3049414E-2,1.8809322E-1,1.2157177E0,-2.6574621E-2,5.4096878E-2,-8.162261E-3,6.43727E-2,1.2108203E-1,-6.5663676E-3,-1.0425934E-1,-9.679398E-3,-4.0172976E-3,-3.2138538E-3,6.245446E-3,9.4198786E-2,-1.6100156E-1,7.273285E-3,1.607336E-2,7.2511666E-2,9.854548E-1,4.1210176E-3,-9.370481E-3,2.2999672E-3,1.5320671E-2,2.201193E-3,9.631804E-3,2.406569E-3,-5.3578163E-3,1.1345553E-2,-4.5718458E-3,2.483975E-2,3.6526255E-3,-2.9964387E-2,3.047871E-3,-2.6141189E-3,7.530331E-2],"categories":[],"categories_nodes":[],"categories_segments":[],"categories_sizes":[],"default_left":[0,0,0,0,0,0,0,0,0,0,0,0,0,0,0,0,0,0,0,0,0,0,0,0,0,0,0,0,0,0,0,0,0,0,0,0,0,0,0,0,0,0,0,0,0,0,0,0,0,0,0,0,0,0,0],"id":25,"left_children":[1,3,5,7,9,-1,11,13,15,-1,17,19,21,23,25,27,29,-1,31,33,35,37,39,41,-1,-1,43,-1,45,-1,-1,47,-1,49,51,-1,-1,-1,53,-1,-1,-1,-1,-1,-1,-1,-1,-1,-1,-1,-1,-1,-1,-1,-1],"loss_changes":[3.2854886E2,2.6037525E1,2.588987E2,1.7182686E1,1.3392273E1,0E0,7.22855E1,2.4587675E1,3.4321594E0,0E0,6.918357E0,7.0462856E0,2.7844757E1,2.8517714E0,2.7502338E1,4.598465E-1,9.5176697E-4,0E0,9.8463E-1,1.0514868E1,2.812994E0,3.052887E0,4.361713E-1,1.2892514E-1,0E0,0E0,3.0572052E0,0E0,2.7338943E0,0E0,0E0,2.0509806E0,0E0,6.817004E0,1.9687407E1,0E0,0E0,0E0,2.4390331E1,0E0,0E0,0E0,0E0,0E0,0E0,0E0,0E0,0E0,0E0,0E0,0E0,0E0,0E0,0E0,0E0],"parents":[2147483647,0,0,1,1,2,2,3,3,4,4,6,6,7,7,8,8,10,10,11,11,12,12,13,13,14,14,15,15,16,16,18,18,19,19,20,20,21,21,22,22,23,23,26,26,28,28,31,31,33,33,34,34,38,38],"right_children":[2,4,6,8,10,-1,12,14,16,-1,18,20,22,24,26,28,30,-1,32,34,36,38,40,42,-1,-1,44,-1,46,-1,-1,48,-1,50,52,-1,-1,-1,54,-1,-1,-1,-1,-1,-1,-1,-1,-1,-1,-1,-1,-1,-1,-1,-1],"split_conditions":[3.4E1,2.8E1,3.5E1,2E1,2.9E1,4.6197183E-2,5.3E1,6E0,2.6E1,3.294247E-3,3.1E1,5E1,5.8E1,5E0,7E0,2.1E1,2.7E1,-5.6914967E-3,3.3E1,4.7E1,5.2E1,5.4E1,5.9E1,4E0,-8.162261E-3,6.43727E-2,8E0,-6.5663676E-3,2.4E1,-9.679398E-3,-4.0172976E-3,3.2E1,6.245446E-3,3.6E1,4.8E1,7.273285E-3,1.607336E-2,7.2511666E-2,5.7E1,4.1210176E-3,-9.370481E-3,2.2999672E-3,1.5320671E-2,2.201193E-3,9.631804E-3,2.406569E-3,-5.3578163E-3,1.1345553E-2,-4.5718458E-3,2.483975E-2,3.6526255E-3,-2.9964387E-2,3.047871E-3,-2.6141189E-3,7.530331E-2],"split_indices":[0,0,0,0,0,0,0,0,0,0,0,0,0,0,0,0,0,0,0,0,0,0,0,0,0,0,0,0,0,0,0,0,0,0,0,0,0,0,0,0,0,0,0,0,0,0,0,0,0,0,0,0,0,0,0],"split_type":[0,0,0,0,0,0,0,0,0,0,0,0,0,0,0,0,0,0,0,0,0,0,0,0,0,0,0,0,0,0,0,0,0,0,0,0,0,0,0,0,0,0,0,0,0,0,0,0,0,0,0,0,0,0,0],"sum_hessian":[1.3665E4,1.1468E4,2.197E3,8.496E3,2.972E3,5.85E2,1.612E3,1.103E3,7.393E3,1.839E3,1.133E3,1.507E3,1.05E2,5.28E2,5.75E2,6.897E3,4.96E2,8.83E2,2.5E2,1.005E3,5.02E2,8.2E1,2.3E1,6.9E1,4.59E2,2E1,5.55E2,7.17E2,6.18E3,4.94E2,2E0,9.9E1,1.51E2,8.04E2,2.01E2,3.82E2,1.2E2,3.8E1,4.4E1,1.4E1,9E0,6.8E1,1E0,2.68E2,2.87E2,1.15E2,6.065E3,2.7E1,7.2E1,3.9E1,7.65E2,6.7E1,1.34E2,1.5E1,2.9E1],"tree_param":{"num_deleted":"0","num_feature":"1","num_nodes":"55","size_leaf_vector":"1"}},{"base_weights":[5.176979E-4,-6.39787E-2,3.3705485E-1,-9.074803E-2,1.2551045E-2,4.3891255E-2,1.4038503E-1,1.9914297E-2,-1.0725877E-1,3.1296131E-3,-6.865565E-2,8.6901635E-2,8.999376E-1,-1.2803617E-1,1.5575784E-1,-1.0173875E-1,-1.8365684E-1,-1.0814484E-1,7.0695356E-2,4.089854E-2,1.7873506E-1,1.1566812E0,-2.5464565E-2,5.1643927E-2,-7.7550234E-3,6.130734E-2,1.15049355E-1,-6.2384983E-3,-9.904693E-2,-9.196409E-3,-3.8833858E-3,-5.4098475E-3,-1.5535236E-3,-2.9853296E-3,5.9352196E-3,8.9524284E-2,-1.5308475E-1,6.9105746E-3,1.5276338E-2,6.897905E-2,9.377975E-1,3.9287126E-3,-8.948817E-3,-5.1581264E-3,3.1294604E-3,3.989592E-3,1.3198736E-2,2.2872763E-3,-5.0899736E-3,1.0798543E-2,-4.3463814E-3,-4.3680565E-3,6.7112683E-3,-2.8488198E-2,2.8966025E-3,-2.4915866E-3,7.166366E-2],"categories":[],"categories_nodes":[],"categories_segments":[],"categories_sizes":[],"default_left":[0,0,0,0,0,0,0,0,0,0,0,0,0,0,0,0,0,0,0,0,0,0,0,0,0,0,0,0,0,0,0,0,0,0,0,0,0,0,0,0,0,0,0,0,0,0,0,0,0,0,0,0,0,0,0,0,0],"id":26,"left_children":[1,3,5,7,9,-1,11,13,15,-1,17,19,21,23,25,27,29,31,33,35,37,39,41,43,-1,-1,45,-1,47,-1,-1,-1,-1,49,-1,51,53,-1,-1,-1,55,-1,-1,-1,-1,-1,-1,-1,-1,-1,-1,-1,-1,-1,-1,-1,-1],"loss_changes":[2.96648E2,2.34971E1,2.3364108E2,1.5527145E1,1.2085624E1,0E0,6.544743E1,2.2208263E1,3.0995102E0,0E0,6.2478876E0,6.3634195E0,2.5214111E1,2.580493E0,2.4957516E1,4.1529846E-1,7.6293945E-6,1.8787384E-4,8.882265E-1,9.502883E0,2.5422134E0,2.7557297E0,3.9737123E-1,1.2506483E-1,0E0,0E0,2.898347E0,0E0,2.468071E0,0E0,0E0,0E0,0E0,1.8567426E0,0E0,6.3768373E0,1.7794125E1,0E0,0E0,0E0,2.2092003E1,0E0,0E0,0E0,0E0,0E0,0E0,0E0,0E0,0E0,0E0,0E0,0E0,0E0,0E0,0E0,0E0],"parents":[2147483647,0,0,1,1,2,2,3,3,4,4,6,6,7,7,8,8,10,10,11,11,12,12,13,13,14,14,15,15,16,16,17,17,18,18,19,19,20,20,21,21,22,22,23,23,26,26,28,28,33,33,35,35,36,36,40,40],"right_children":[2,4,6,8,10,-1,12,14,16,-1,18,20,22,24,26,28,30,32,34,36,38,40,42,44,-1,-1,46,-1,48,-1,-1,-1,-1,50,-1,52,54,-1,-1,-1,56,-1,-1,-1,-1,-1,-1,-1,-1,-1,-1,-1,-1,-1,-1,-1,-1],"split_conditions":[3.4E1,2.8E1,3.5E1,2E1,2.9E1,4.3891255E-2,5.3E1,6E0,2.6E1,3.1296131E-3,3.1E1,5E1,5.8E1,5E0,7E0,2.1E1,2.7E1,3E1,3.3E1,4.7E1,5.2E1,5.4E1,5.9E1,1E0,-7.7550234E-3,6.130734E-2,1.4E1,-6.2384983E-3,2.4E1,-9.196409E-3,-3.8833858E-3,-5.4098475E-3,-1.5535236E-3,3.2E1,5.9352196E-3,4E1,4.8E1,6.9105746E-3,1.5276338E-2,6.897905E-2,5.7E1,3.9287126E-3,-8.948817E-3,-5.1581264E-3,3.1294604E-3,3.989592E-3,1.3198736E-2,2.2872763E-3,-5.0899736E-3,1.0798543E-2,-4.3463814E-3,-4.3680565E-3,6.7112683E-3,-2.8488198E-2,2.8966025E-3,-2.4915866E-3,7.166366E-2],"split_indices":[0,0,0,0,0,0,0,0,0,0,0,0,0,0,0,0,0,0,0,0,0,0,0,0,0,0,0,0,0,0,0,0,0,0,0,0,0,0,0,0,0,0,0,0,0,0,0,0,0,0,0,0,0,0,0,0,0],"split_type":[0,0,0,0,0,0,0,0,0,0,0,0,0,0,0,0,0,0,0,0,0,0,0,0,0,0,0,0,0,0,0,0,0,0,0,0,0,0,0,0,0,0,0,0,0,0,0,0,0,0,0,0,0,0,0,0,0],"sum_hessian":[1.3665E4,1.1468E4,2.197E3,8.496E3,2.972E3,5.85E2,1.612E3,1.103E3,7.393E3,1.839E3,1.133E3,1.507E3,1.05E2,5.28E2,5.75E2,6.897E3,4.96E2,8.83E2,2.5E2,1.005E3,5.02E2,8.2E1,2.3E1,6.9E1,4.59E2,2E1,5.55E2,7.17E2,6.18E3,4.94E2,2E0,8.82E2,1E0,9.9E1,1.51E2,8.04E2,2.01E2,3.82E2,1.2E2,3.8E1,4.4E1,1.4E1,9E0,4E0,6.5E1,4.5E2,1.05E2,1.15E2,6.065E3,2.7E1,7.2E1,1.62E2,6.42E2,6.7E1,1.34E2,1.5E1,2.9E1],"tree_param":{"num_deleted":"0","num_feature":"1","num_nodes":"57","size_leaf_vector":"1"}},{"base_weights":[5.08589E-4,-6.077508E-2,3.2028198E-1,-8.6205326E-2,1.1926414E-2,8.1248385E-1,1.24636196E-1,1.8980674E-2,-1.0189901E-1,2.973224E-3,-6.521818E-2,4.170043E-2,2.3841737E-2,7.176347E-2,8.561966E-1,-1.2165306E-1,1.4810613E-1,-9.665331E-2,-8.725023E-3,-5.1372806E-3,6.720997E-2,-2.629489E-1,1.0254547E-1,1.1005114E0,-2.4400482E-2,4.9032725E-2,-7.368126E-3,5.8387943E-2,1.0932769E-1,-5.9270095E-3,-9.4095245E-2,-2.7715254E-3,5.6404127E-3,-3.4946103E-2,-2.5372213E-1,3.4904468E-1,8.7106995E-2,6.5618515E-2,8.924446E-1,3.745375E-3,-8.5461205E-3,2.0564597E-3,1.4859415E-2,1.892805E-3,8.785227E-3,2.173893E-3,-4.835527E-3,1.0277904E-2,-4.1320403E-3,1.2012041E-2,-1.2987009E-2,1.2673996E-2,3.5474427E-2,1.6332263E-3,8.492111E-3,-2.3747988E-3,6.81999E-2],"categories":[],"categories_nodes":[],"categories_segments":[],"categories_sizes":[],"default_left":[0,0,0,0,0,0,0,0,0,0,0,0,0,0,0,0,0,0,0,0,0,0,0,0,0,0,0,0,0,0,0,0,0,0,0,0,0,0,0,0,0,0,0,0,0,0,0,0,0,0,0,0,0,0,0,0,0],"id":27,"left_children":[1,3,5,7,9,11,13,15,17,-1,19,-1,-1,21,23,25,27,29,-1,-1,31,33,35,37,39,41,-1,-1,43,-1,45,47,-1,-1,49,51,53,-1,55,-1,-1,-1,-1,-1,-1,-1,-1,-1,-1,-1,-1,-1,-1,-1,-1,-1,-1],"loss_changes":[2.678305E2,2.1205112E1,2.1156001E2,1.4028404E1,1.0906775E1,4.117798E0,6.082024E1,2.006599E1,2.7991028E0,0E0,5.6425314E0,0E0,0E0,1.5162243E1,2.2832008E1,2.3286042E0,2.264768E1,3.750534E-1,0E0,0E0,8.012626E-1,3.2147312E-1,5.091895E0,2.4874802E0,3.6202246E-1,1.2506829E-1,0E0,0E0,2.6310453E0,0E0,2.2280884E0,1.6809008E0,0E0,0E0,4.2804193E-1,2.5413713E0,5.7059174E0,0E0,2.0010235E1,0E0,0E0,0E0,0E0,0E0,0E0,0E0,0E0,0E0,0E0,0E0,0E0,0E0,0E0,0E0,0E0,0E0,0E0],"parents":[2147483647,0,0,1,1,2,2,3,3,4,4,5,5,6,6,7,7,8,8,10,10,13,13,14,14,15,15,16,16,17,17,20,20,21,21,22,22,23,23,24,24,25,25,28,28,30,30,31,31,34,34,35,35,36,36,38,38],"right_children":[2,4,6,8,10,12,14,16,18,-1,20,-1,-1,22,24,26,28,30,-1,-1,32,34,36,38,40,42,-1,-1,44,-1,46,48,-1,-1,50,52,54,-1,56,-1,-1,-1,-1,-1,-1,-1,-1,-1,-1,-1,-1,-1,-1,-1,-1,-1,-1],"split_conditions":[3.4E1,2.8E1,3.6E1,2E1,2.9E1,3.5E1,5.3E1,6E0,2.6E1,2.973224E-3,3.1E1,4.170043E-2,2.3841737E-2,4E1,5.8E1,5E0,7E0,2.1E1,-8.725023E-3,-5.1372806E-3,3.3E1,3.7E1,4.6E1,5.4E1,5.9E1,4E0,-7.368126E-3,5.8387943E-2,8E0,-5.9270095E-3,2.4E1,3.2E1,5.6404127E-3,-3.4946103E-2,3.8E1,4.5E1,5E1,6.5618515E-2,5.7E1,3.745375E-3,-8.5461205E-3,2.0564597E-3,1.4859415E-2,1.892805E-3,8.785227E-3,2.173893E-3,-4.835527E-3,1.0277904E-2,-4.1320403E-3,1.2012041E-2,-1.2987009E-2,1.2673996E-2,3.5474427E-2,1.6332263E-3,8.492111E-3,-2.3747988E-3,6.81999E-2],"split_indices":[0,0,0,0,0,0,0,0,0,0,0,0,0,0,0,0,0,0,0,0,0,0,0,0,0,0,0,0,0,0,0,0,0,0,0,0,0,0,0,0,0,0,0,0,0,0,0,0,0,0,0,0,0,0,0,0,0],"split_type":[0,0,0,0,0,0,0,0,0,0,0,0,0,0,0,0,0,0,0,0,0,0,0,0,0,0,0,0,0,0,0,0,0,0,0,0,0,0,0,0,0,0,0,0,0,0,0,0,0,0,0,0,0,0,0,0,0],"sum_hessian":[1.3665E4,1.1468E4,2.197E3,8.496E3,2.972E3,6.24E2,1.573E3,1.103E3,7.393E3,1.839E3,1.133E3,5.85E2,3.9E1,1.468E3,1.05E2,5.28E2,5.75E2,6.897E3,4.96E2,8.83E2,2.5E2,1.23E2,1.345E3,8.2E1,2.3E1,6.9E1,4.59E2,2E1,5.55E2,7.17E2,6.18E3,9.9E1,1.51E2,1E0,1.22E2,7.8E1,1.267E3,3.8E1,4.4E1,1.4E1,9E0,6.8E1,1E0,2.68E2,2.87E2,1.15E2,6.065E3,2.7E1,7.2E1,1E0,1.21E2,6.3E1,1.5E1,7.65E2,5.02E2,1.5E1,2.9E1],"tree_param":{"num_deleted":"0","num_feature":"1","num_nodes":"57","size_leaf_vector":"1"}},{"base_weights":[5.041362E-4,-5.7730053E-2,3.0436555E-1,-8.188777E-2,1.133347E-2,7.7196455E-1,1.1849912E-1,1.8102879E-2,-9.680632E-2,2.8246508E-3,-6.1951272E-2,3.961897E-2,2.2679446E-2,6.81906E-2,8.145814E-1,-1.1555241E-1,1.4082083E-1,-9.182182E-2,-1.6579284E-1,-9.7613975E-2,6.389645E-2,-2.5009102E-1,9.7461574E-2,1.0470694E0,-2.3380509E-2,4.6822608E-2,-7.000522E-3,5.560757E-2,1.03880614E-1,-5.6310683E-3,-8.939084E-2,-8.3021475E-3,-3.4631013E-3,-4.8830863E-3,-1.3862491E-3,-2.5712824E-3,5.360243E-3,-3.4072455E-2,-2.410438E-1,3.3220208E-1,8.2759716E-2,6.2421717E-2,8.4928495E-1,3.570582E-3,-8.161535E-3,1.9551197E-3,1.4487934E-2,3.5570548E-3,1.2109901E-2,2.066135E-3,-4.593787E-3,9.782369E-3,-3.9282567E-3,1.1711741E-2,-1.2342975E-2,1.2050205E-2,3.381157E-2,3.0846163E-3,1.4097738E-2,-2.263487E-3,6.4903565E-2],"categories":[],"categories_nodes":[],"categories_segments":[],"categories_sizes":[],"default_left":[0,0,0,0,0,0,0,0,0,0,0,0,0,0,0,0,0,0,0,0,0,0,0,0,0,0,0,0,0,0,0,0,0,0,0,0,0,0,0,0,0,0,0,0,0,0,0,0,0,0,0,0,0,0,0,0,0,0,0,0,0],"id":28,"left_children":[1,3,5,7,9,11,13,15,17,-1,19,-1,-1,21,23,25,27,29,31,33,35,37,39,41,43,45,-1,-1,47,-1,49,-1,-1,-1,-1,51,-1,-1,53,55,57,-1,59,-1,-1,-1,-1,-1,-1,-1,-1,-1,-1,-1,-1,-1,-1,-1,-1,-1,-1],"loss_changes":[2.418391E2,1.9136002E1,1.9093881E2,1.2676861E1,9.842661E0,3.7028198E0,5.5064163E1,1.8123974E1,2.5273056E0,0E0,5.095708E0,0E0,0E0,1.3710186E1,2.0674988E1,2.1074133E0,2.0552021E1,3.387184E-1,4.9877167E-4,2.4223328E-4,7.2280693E-1,3.1966162E-1,4.617717E0,2.2453537E0,3.2981735E-1,1.1995605E-1,0E0,0E0,2.500585E0,0E0,2.011444E0,0E0,0E0,0E0,0E0,1.5217111E0,0E0,0E0,3.978033E-1,2.3156328E0,5.303791E0,0E0,1.8124641E1,0E0,0E0,0E0,0E0,0E0,0E0,0E0,0E0,0E0,0E0,0E0,0E0,0E0,0E0,0E0,0E0,0E0,0E0],"parents":[2147483647,0,0,1,1,2,2,3,3,4,4,5,5,6,6,7,7,8,8,10,10,13,13,14,14,15,15,16,16,17,17,18,18,19,19,20,20,21,21,22,22,23,23,24,24,25,25,28,28,30,30,35,35,38,38,39,39,40,40,42,42],"right_children":[2,4,6,8,10,12,14,16,18,-1,20,-1,-1,22,24,26,28,30,32,34,36,38,40,42,44,46,-1,-1,48,-1,50,-1,-1,-1,-1,52,-1,-1,54,56,58,-1,60,-1,-1,-1,-1,-1,-1,-1,-1,-1,-1,-1,-1,-1,-1,-1,-1,-1,-1],"split_conditions":[3.4E1,2.8E1,3.6E1,2E1,2.9E1,3.5E1,5.3E1,6E0,2.6E1,2.8246508E-3,3.1E1,3.961897E-2,2.2679446E-2,4E1,5.8E1,5E0,7E0,2.1E1,2.7E1,3E1,3.3E1,3.7E1,4.6E1,5.4E1,5.9E1,4E0,-7.000522E-3,5.560757E-2,1.4E1,-5.6310683E-3,2.4E1,-8.3021475E-3,-3.4631013E-3,-4.8830863E-3,-1.3862491E-3,3.2E1,5.360243E-3,-3.4072455E-2,3.8E1,4.5E1,5.2E1,6.2421717E-2,5.7E1,3.570582E-3,-8.161535E-3,1.9551197E-3,1.4487934E-2,3.5570548E-3,1.2109901E-2,2.066135E-3,-4.593787E-3,9.782369E-3,-3.9282567E-3,1.1711741E-2,-1.2342975E-2,1.2050205E-2,3.381157E-2,3.0846163E-3,1.4097738E-2,-2.263487E-3,6.4903565E-2],"split_indices":[0,0,0,0,0,0,0,0,0,0,0,0,0,0,0,0,0,0,0,0,0,0,0,0,0,0,0,0,0,0,0,0,0,0,0,0,0,0,0,0,0,0,0,0,0,0,0,0,0,0,0,0,0,0,0,0,0,0,0,0,0],"split_type":[0,0,0,0,0,0,0,0,0,0,0,0,0,0,0,0,0,0,0,0,0,0,0,0,0,0,0,0,0,0,0,0,0,0,0,0,0,0,0,0,0,0,0,0,0,0,0,0,0,0,0,0,0,0,0,0,0,0,0,0,0],"sum_hessian":[1.3665E4,1.1468E4,2.197E3,8.496E3,2.972E3,6.24E2,1.573E3,1.103E3,7.393E3,1.839E3,1.133E3,5.85E2,3.9E1,1.468E3,1.05E2,5.28E2,5.75E2,6.897E3,4.96E2,8.83E2,2.5E2,1.23E2,1.345E3,8.2E1,2.3E1,6.9E1,4.59E2,2E1,5.55E2,7.17E2,6.18E3,4.94E2,2E0,8.82E2,1E0,9.9E1,1.51E2,1E0,1.22E2,7.8E1,1.267E3,3.8E1,4.4E1,1.4E1,9E0,6.8E1,1E0,4.5E2,1.05E2,1.15E2,6.065E3,2.7E1,7.2E1,1E0,1.21E2,6.3E1,1.5E1,1.147E3,1.2E2,1.5E1,2.9E1],"tree_param":{"num_deleted":"0","num_feature":"1","num_nodes":"61","size_leaf_vector":"1"}},{"base_weights":[4.9940654E-4,-5.483755E-2,2.892433E-1,-7.778619E-2,1.0769392E-2,7.33466E-1,1.12668686E-1,1.727077E-2,-9.1968656E-2,2.6834884E-3,-5.884918E-2,3.7641402E-2,2.157383E-2,6.480033E-2,7.7498895E-1,-1.0975699E-1,1.3390344E-1,-8.723187E-2,-7.87634E-3,-9.274016E-2,6.074636E-2,-2.3786639E-1,9.2635304E-2,9.962228E-1,-2.2402754E-2,4.4716462E-2,-6.651261E-3,5.295958E-2,9.871467E-2,-5.3499113E-3,-8.492164E-2,-4.6391985E-3,-1.3515949E-3,-2.3842144E-3,5.0939997E-3,-3.3220645E-2,-2.289968E-1,3.1617254E-1,7.8635246E-2,5.9380658E-2,8.0821294E-1,3.403956E-3,-7.7942647E-3,1.8587847E-3,1.4125741E-2,1.6213292E-3,8.014342E-3,1.9637186E-3,-4.3641324E-3,9.310721E-3,-3.7345383E-3,1.1418951E-2,-1.1730887E-2,1.1457111E-2,3.2226652E-2,1.397643E-3,7.7830614E-3,-2.1573834E-3,6.1766576E-2],"categories":[],"categories_nodes":[],"categories_segments":[],"categories_sizes":[],"default_left":[0,0,0,0,0,0,0,0,0,0,0,0,0,0,0,0,0,0,0,0,0,0,0,0,0,0,0,0,0,0,0,0,0,0,0,0,0,0,0,0,0,0,0,0,0,0,0,0,0,0,0,0,0,0,0,0,0,0,0],"id":29,"left_children":[1,3,5,7,9,11,13,15,17,-1,19,-1,-1,21,23,25,27,29,-1,31,33,35,37,39,41,43,-1,-1,45,-1,47,-1,-1,49,-1,-1,51,53,55,-1,57,-1,-1,-1,-1,-1,-1,-1,-1,-1,-1,-1,-1,-1,-1,-1,-1,-1,-1],"loss_changes":[2.1837408E2,1.7268452E1,1.7232507E2,1.1456745E1,8.882507E0,3.3295898E0,4.9852165E1,1.6371105E1,2.2823563E0,0E0,4.6019745E0,0E0,0E0,1.2397947E1,1.8721783E1,1.9073448E0,1.8649857E1,3.059082E-1,0E0,3.6239624E-5,6.520371E-1,3.169794E-1,4.1874914E0,2.026764E0,3.0047855E-1,1.150201E-1,0E0,0E0,2.2641163E0,0E0,1.8158607E0,0E0,0E0,1.3776003E0,0E0,0E0,3.698001E-1,2.1099186E0,4.9457426E0,0E0,1.6416739E1,0E0,0E0,0E0,0E0,0E0,0E0,0E0,0E0,0E0,0E0,0E0,0E0,0E0,0E0,0E0,0E0,0E0,0E0],"parents":[2147483647,0,0,1,1,2,2,3,3,4,4,5,5,6,6,7,7,8,8,10,10,13,13,14,14,15,15,16,16,17,17,19,19,20,20,21,21,22,22,23,23,24,24,25,25,28,28,30,30,33,33,36,36,37,37,38,38,40,40],"right_children":[2,4,6,8,10,12,14,16,18,-1,20,-1,-1,22,24,26,28,30,-1,32,34,36,38,40,42,44,-1,-1,46,-1,48,-1,-1,50,-1,-1,52,54,56,-1,58,-1,-1,-1,-1,-1,-1,-1,-1,-1,-1,-1,-1,-1,-1,-1,-1,-1,-1],"split_conditions":[3.4E1,2.8E1,3.6E1,2E1,2.9E1,3.5E1,5.3E1,6E0,2.6E1,2.6834884E-3,3.1E1,3.7641402E-2,2.157383E-2,4E1,5.8E1,5E0,7E0,2.1E1,-7.87634E-3,3E1,3.3E1,3.7E1,4.6E1,5.4E1,5.9E1,4E0,-6.651261E-3,5.295958E-2,8E0,-5.3499113E-3,2.4E1,-4.6391985E-3,-1.3515949E-3,3.2E1,5.0939997E-3,-3.3220645E-2,3.8E1,4.5E1,5E1,5.9380658E-2,5.7E1,3.403956E-3,-7.7942647E-3,1.8587847E-3,1.4125741E-2,1.6213292E-3,8.014342E-3,1.9637186E-3,-4.3641324E-3,9.310721E-3,-3.7345383E-3,1.1418951E-2,-1.1730887E-2,1.1457111E-2,3.2226652E-2,1.397643E-3,7.7830614E-3,-2.1573834E-3,6.1766576E-2],"split_indices":[0,0,0,0,0,0,0,0,0,0,0,0,0,0,0,0,0,0,0,0,0,0,0,0,0,0,0,0,0,0,0,0,0,0,0,0,0,0,0,0,0,0,0,0,0,0,0,0,0,0,0,0,0,0,0,0,0,0,0],"split_type":[0,0,0,0,0,0,0,0,0,0,0,0,0,0,0,0,0,0,0,0,0,0,0,0,0,0,0,0,0,0,0,0,0,0,0,0,0,0,0,0,0,0,0,0,0,0,0,0,0,0,0,0,0,0,0,0,0,0,0],"sum_hessian":[1.3665E4,1.1468E4,2.197E3,8.496E3,2.972E3,6.24E2,1.573E3,1.103E3,7.393E3,1.839E3,1.133E3,5.85E2,3.9E1,1.468E3,1.05E2,5.28E2,5.75E2,6.897E3,4.96E2,8.83E2,2.5E2,1.23E2,1.345E3,8.2E1,2.3E1,6.9E1,4.59E2,2E1,5.55E2,7.17E2,6.18E3,8.82E2,1E0,9.9E1,1.51E2,1E0,1.22E2,7.8E1,1.267E3,3.8E1,4.4E1,1.4E1,9E0,6.8E1,1E0,2.68E2,2.87E2,1.15E2,6.065E3,2.7E1,7.2E1,1E0,1.21E2,6.3E1,1.5E1,7.65E2,5.02E2,1.5E1,2.9E1],"tree_param":{"num_deleted":"0","num_feature":"1","num_nodes":"59","size_leaf_vector":"1"}},{"base_weights":[4.931745E-4,-5.2090187E-2,2.74869E-1,-7.3890306E-2,1.02332905E-2,6.968873E-1,1.0712039E-1,1.6472507E-2,-8.737241E-2,2.5493794E-3,-5.5902638E-2,3.5762534E-2,2.0522095E-2,6.1573524E-2,7.373206E-1,-1.0425137E-1,1.2731706E-1,-8.2871474E-2,-1.4966625E-1,-4.4054994E-3,5.7751536E-2,-2.262437E-1,8.8042885E-2,9.478453E-1,-2.1465609E-2,4.270906E-2,-6.3194144E-3,5.04377E-2,9.379638E-2,-5.082778E-3,-8.0676064E-2,-7.4948505E-3,-3.0851127E-3,-2.2092056E-3,4.840973E-3,-3.2390125E-2,-2.175497E-1,7.097461E-2,1.3012749E-2,5.6487758E-2,7.6912683E-1,3.2450964E-3,-7.4435174E-3,-5.1866225E-3,2.6578004E-3,3.1697133E-3,1.1113196E-2,1.8663843E-3,-4.1459673E-3,8.861813E-3,-3.5503667E-3,1.113348E-2,-1.11491615E-2,1.5045851E-2,2.7544613E-3,-2.056264E-3,5.8781188E-2],"categories":[],"categories_nodes":[],"categories_segments":[],"categories_sizes":[],"default_left":[0,0,0,0,0,0,0,0,0,0,0,0,0,0,0,0,0,0,0,0,0,0,0,0,0,0,0,0,0,0,0,0,0,0,0,0,0,0,0,0,0,0,0,0,0,0,0,0,0,0,0,0,0,0,0,0,0],"id":30,"left_children":[1,3,5,7,9,11,13,15,17,-1,19,-1,-1,21,23,25,27,29,31,-1,33,35,37,39,41,43,-1,-1,45,-1,47,-1,-1,49,-1,-1,51,53,-1,-1,55,-1,-1,-1,-1,-1,-1,-1,-1,-1,-1,-1,-1,-1,-1,-1,-1],"loss_changes":[1.9718195E2,1.5583218E1,1.5552835E2,1.03531685E1,8.016047E0,2.993988E0,4.5134132E1,1.478654E1,2.06073E0,0E0,4.1560946E0,0E0,0E0,1.1211258E1,1.6953121E1,1.726367E0,1.6924086E1,2.762642E-1,8.392334E-4,0E0,5.881917E-1,3.1353426E-1,3.937912E0,1.8294601E0,2.7374917E-1,1.1260465E-1,0E0,0E0,2.1574697E0,0E0,1.6393051E0,0E0,0E0,1.2471362E0,0E0,0E0,3.4386063E-1,4.4616613E0,0E0,0E0,1.486977E1,0E0,0E0,0E0,0E0,0E0,0E0,0E0,0E0,0E0,0E0,0E0,0E0,0E0,0E0,0E0,0E0],"parents":[2147483647,0,0,1,1,2,2,3,3,4,4,5,5,6,6,7,7,8,8,10,10,13,13,14,14,15,15,16,16,17,17,18,18,20,20,21,21,22,22,23,23,24,24,25,25,28,28,30,30,33,33,36,36,37,37,40,40],"right_children":[2,4,6,8,10,12,14,16,18,-1,20,-1,-1,22,24,26,28,30,32,-1,34,36,38,40,42,44,-1,-1,46,-1,48,-1,-1,50,-1,-1,52,54,-1,-1,56,-1,-1,-1,-1,-1,-1,-1,-1,-1,-1,-1,-1,-1,-1,-1,-1],"split_conditions":[3.4E1,2.8E1,3.6E1,2E1,2.9E1,3.5E1,5.3E1,6E0,2.6E1,2.5493794E-3,3.1E1,3.5762534E-2,2.0522095E-2,4E1,5.8E1,5E0,7E0,2.1E1,2.7E1,-4.4054994E-3,3.3E1,3.7E1,5.2E1,5.4E1,5.9E1,1E0,-6.3194144E-3,5.04377E-2,1.4E1,-5.082778E-3,2.4E1,-7.4948505E-3,-3.0851127E-3,3.2E1,4.840973E-3,-3.2390125E-2,3.8E1,4.6E1,1.3012749E-2,5.6487758E-2,5.7E1,3.2450964E-3,-7.4435174E-3,-5.1866225E-3,2.6578004E-3,3.1697133E-3,1.1113196E-2,1.8663843E-3,-4.1459673E-3,8.861813E-3,-3.5503667E-3,1.113348E-2,-1.11491615E-2,1.5045851E-2,2.7544613E-3,-2.056264E-3,5.8781188E-2],"split_indices":[0,0,0,0,0,0,0,0,0,0,0,0,0,0,0,0,0,0,0,0,0,0,0,0,0,0,0,0,0,0,0,0,0,0,0,0,0,0,0,0,0,0,0,0,0,0,0,0,0,0,0,0,0,0,0,0,0],"split_type":[0,0,0,0,0,0,0,0,0,0,0,0,0,0,0,0,0,0,0,0,0,0,0,0,0,0,0,0,0,0,0,0,0,0,0,0,0,0,0,0,0,0,0,0,0,0,0,0,0,0,0,0,0,0,0,0,0],"sum_hessian":[1.3665E4,1.1468E4,2.197E3,8.496E3,2.972E3,6.24E2,1.573E3,1.103E3,7.393E3,1.839E3,1.133E3,5.85E2,3.9E1,1.468E3,1.05E2,5.28E2,5.75E2,6.897E3,4.96E2,8.83E2,2.5E2,1.23E2,1.345E3,8.2E1,2.3E1,6.9E1,4.59E2,2E1,5.55E2,7.17E2,6.18E3,4.94E2,2E0,9.9E1,1.51E2,1E0,1.22E2,1.225E3,1.2E2,3.8E1,4.4E1,1.4E1,9E0,4E0,6.5E1,4.5E2,1.05E2,1.15E2,6.065E3,2.7E1,7.2E1,1E0,1.21E2,7.8E1,1.147E3,1.5E1,2.9E1],"tree_param":{"num_deleted":"0","num_feature":"1","num_nodes":"57","size_leaf_vector":"1"}},{"base_weights":[4.8395555E-4,-4.9481537E-2,2.6119995E-1,-7.019123E-2,9.724554E-3,6.621332E-1,1.0183242E-1,1.56996E-2,-8.3006114E-2,2.42199E-3,-5.3102415E-2,3.397747E-2,1.9521642E-2,5.8493566E-2,7.014828E-1,-9.905544E-2,1.21063694E-1,-7.872887E-2,-1.4220415E-1,-8.370947E-2,5.4904506E-2,-2.1519308E-1,8.366344E-2,9.018167E-1,-2.056717E-2,4.0537395E-2,-6.0041244E-3,4.8035897E-2,8.91324E-2,-4.829002E-3,-7.66425E-2,-7.120861E-3,-2.9822746E-3,-4.187478E-3,-1.2076617E-3,-2.0455695E-3,4.6005226E-3,-3.158037E-2,-2.0667258E-1,6.7440204E-2,1.2367482E-2,5.3735774E-2,7.3193073E-1,3.0936687E-3,-7.108563E-3,1.6589651E-3,1.3706148E-2,3.0115878E-3,1.0562779E-2,1.7738717E-3,-3.938697E-3,8.434537E-3,-3.375272E-3,1.0855138E-2,-1.0596284E-2,1.4303091E-2,2.616847E-3,-1.9598834E-3,5.5940073E-2],"categories":[],"categories_nodes":[],"categories_segments":[],"categories_sizes":[],"default_left":[0,0,0,0,0,0,0,0,0,0,0,0,0,0,0,0,0,0,0,0,0,0,0,0,0,0,0,0,0,0,0,0,0,0,0,0,0,0,0,0,0,0,0,0,0,0,0,0,0,0,0,0,0,0,0,0,0,0,0],"id":31,"left_children":[1,3,5,7,9,11,13,15,17,-1,19,-1,-1,21,23,25,27,29,31,33,35,37,39,41,43,45,-1,-1,47,-1,49,-1,-1,-1,-1,51,-1,-1,53,55,-1,-1,57,-1,-1,-1,-1,-1,-1,-1,-1,-1,-1,-1,-1,-1,-1,-1,-1],"loss_changes":[1.7803723E2,1.4063278E1,1.4037546E2,9.353794E0,7.2339835E0,2.6921387E0,4.0864326E1,1.3360523E1,1.8609962E0,0E0,3.7533436E0,0E0,0E0,1.0137442E1,1.5351566E1,1.5576024E0,1.5357649E1,2.495079E-1,2.4795532E-4,8.8214874E-5,5.30598E-1,3.0942392E-1,3.5576496E0,1.6513596E0,2.493992E-1,1.1121692E-1,0E0,0E0,1.9496431E0,0E0,1.4799042E0,0E0,0E0,0E0,0E0,1.1290252E0,0E0,0E0,3.1982374E-1,4.033158E0,0E0,0E0,1.3468571E1,0E0,0E0,0E0,0E0,0E0,0E0,0E0,0E0,0E0,0E0,0E0,0E0,0E0,0E0,0E0,0E0],"parents":[2147483647,0,0,1,1,2,2,3,3,4,4,5,5,6,6,7,7,8,8,10,10,13,13,14,14,15,15,16,16,17,17,18,18,19,19,20,20,21,21,22,