{"learner":{"attributes":{"scikit_learn":"{\"_estimator_type\": \"regressor\"}"},"feature_names":["floor_area_m2","building_type_enc"],"feature_types":["float","int"],"gradient_booster":{"model":{"cats":{"enc":[],"feature_segments":[],"sorted_idx":[]},"gbtree_model_param":{"num_parallel_tree":"1","num_trees":"200"},"iteration_indptr":[0,1,2,3,4,5,6,7,8,9,10,11,12,13,14,15,16,17,18,19,20,21,22,23,24,25,26,27,28,29,30,31,32,33,34,35,36,37,38,39,40,41,42,43,44,45,46,47,48,49,50,51,52,53,54,55,56,57,58,59,60,61,62,63,64,65,66,67,68,69,70,71,72,73,74,75,76,77,78,79,80,81,82,83,84,85,86,87,88,89,90,91,92,93,94,95,96,97,98,99,100,101,102,103,104,105,106,107,108,109,110,111,112,113,114,115,116,117,118,119,120,121,122,123,124,125,126,127,128,129,130,131,132,133,134,135,136,137,138,139,140,141,142,143,144,145,146,147,148,149,150,151,152,153,154,155,156,157,158,159,160,161,162,163,164,165,166,167,168,169,170,171,172,173,174,175,176,177,178,179,180,181,182,183,184,185,186,187,188,189,190,191,192,193,194,195,196,197,198,199,200],"tree_info":[0,0,0,0,0,0,0,0,0,0,0,0,0,0,0,0,0,0,0,0,0,0,0,0,0,0,0,0,0,0,0,0,0,0,0,0,0,0,0,0,0,0,0,0,0,0,0,0,0,0,0,0,0,0,0,0,0,0,0,0,0,0,0,0,0,0,0,0,0,0,0,0,0,0,0,0,0,0,0,0,0,0,0,0,0,0,0,0,0,0,0,0,0,0,0,0,0,0,0,0,0,0,0,0,0,0,0,0,0,0,0,0,0,0,0,0,0,0,0,0,0,0,0,0,0,0,0,0,0,0,0,0,0,0,0,0,0,0,0,0,0,0,0,0,0,0,0,0,0,0,0,0,0,0,0,0,0,0,0,0,0,0,0,0,0,0,0,0,0,0,0,0,0,0,0,0,0,0,0,0,0,0,0,0,0,0,0,0,0,0,0,0,0,0,0,0,0,0,0,0],"trees":[{"base_weights":[-3.7313633E-8,-1.0784818E0,1.1605996E0,-1.5111294E0,-4.6532044E-1,5.340375E-1,1.7070141E0,-1.6079581E0,-7.773448E-2,4.3829303E-2,-6.4679277E-1,1.1239581E0,3.4572238E-1,2.6083748E0,8.556619E-1,-1.4248804E0,-2.2408514E0,-1.3547652E-2,-8.607348E-1,-7.0438117E-1,1.1289527E0,-6.699253E-1,2.6345828E-1,7.172019E-1,4.2627975E-1,1.3455626E-1,6.962488E-1,2.154517E0,4.5048614E0,-8.5278434E-1,2.2704058E0,-1.3532624E-1,-2.1794043E-1,-2.3777688E-1,-1.3636681E-1,-2.4966609E-2,6.9114785E-3,-1.01950385E-1,2.0470858E-2,-5.9651207E-2,-1.2722783E-1,2.6660916E-1,-2.829632E-3,-7.738691E-2,-2.4465611E-2,7.597604E-2,-1.4664207E-1,3.8695674E-2,-2.417397E-1,6.68553E-2,3.2225415E-1,1.6229133E-1,2.4905622E-1,3.9027122E-1,5.3871554E-1,-4.1846152E-2,-1.24668255E-1,1.7300546E-1,3.280225E-1],"categories":[],"categories_nodes":[],"categories_segments":[],"categories_sizes":[],"default_left":[0,0,0,0,0,0,0,0,0,0,0,0,0,0,0,0,0,0,0,0,0,0,0,0,0,0,0,0,0,0,0,0,0,0,0,0,0,0,0,0,0,0,0,0,0,0,0,0,0,0,0,0,0,0,0,0,0,0,0],"id":0,"left_children":[1,3,5,7,9,11,13,15,17,19,21,23,25,27,29,31,33,35,37,39,41,43,-1,45,-1,47,49,51,53,55,57,-1,-1,-1,-1,-1,-1,-1,-1,-1,-1,-1,-1,-1,-1,-1,-1,-1,-1,-1,-1,-1,-1,-1,-1,-1,-1,-1,-1],"loss_changes":[7.6790913E3,8.4289624E2,1.0107693E3,2.5858643E2,1.2171469E2,1.5269476E2,1.208687E3,1.9911377E2,5.9690776E0,2.8252478E2,7.547E1,4.2209796E2,7.733051E1,6.496172E2,1.9669685E3,7.037964E1,4.3596924E1,2.1837673E0,1.7311354E0,1.1860329E1,2.5267249E2,4.246765E1,0E0,2.8621933E1,0E0,4.2218616E2,2.5343018E1,1.067168E2,5.7072754E1,6.2606445E1,2.3714233E2,0E0,0E0,0E0,0E0,0E0,0E0,0E0,0E0,0E0,0E0,0E0,0E0,0E0,0E0,0E0,0E0,0E0,0E0,0E0,0E0,0E0,0E0,0E0,0E0,0E0,0E0,0E0,0E0],"parents":[2147483647,0,0,1,1,2,2,3,3,4,4,5,5,6,6,7,7,8,8,9,9,10,10,11,11,12,12,13,13,14,14,15,15,16,16,17,17,18,18,19,19,20,20,21,21,23,23,25,25,26,26,27,27,28,28,29,29,30,30],"right_children":[2,4,6,8,10,12,14,16,18,20,22,24,26,28,30,32,34,36,38,40,42,44,-1,46,-1,48,50,52,54,56,58,-1,-1,-1,-1,-1,-1,-1,-1,-1,-1,-1,-1,-1,-1,-1,-1,-1,-1,-1,-1,-1,-1,-1,-1,-1,-1,-1,-1],"split_conditions":[5.188E3,2.38E2,1.9978E4,1.8E1,9E0,6E0,1.3E1,1.4E1,6E0,4E0,2E1,5E0,1.5E1,9.9114E4,1.4E1,1.83E2,8.7E1,2E1,1.85E2,3E0,6E0,1.4E1,2.6345828E-1,4E0,4.2627975E-1,1.4E1,2E1,2.9536E4,2.24869E5,1.23214E5,5.5004E4,-1.3532624E-1,-2.1794043E-1,-2.3777688E-1,-1.3636681E-1,-2.4966609E-2,6.9114785E-3,-1.01950385E-1,2.0470858E-2,-5.9651207E-2,-1.2722783E-1,2.6660916E-1,-2.829632E-3,-7.738691E-2,-2.4465611E-2,7.597604E-2,-1.4664207E-1,3.8695674E-2,-2.417397E-1,6.68553E-2,3.2225415E-1,1.6229133E-1,2.4905622E-1,3.9027122E-1,5.3871554E-1,-4.1846152E-2,-1.24668255E-1,1.7300546E-1,3.280225E-1],"split_indices":[0,0,0,1,1,1,1,1,0,1,1,1,1,0,1,0,0,1,0,1,1,1,0,1,0,1,1,0,0,0,0,0,0,0,0,0,0,0,0,0,0,0,0,0,0,0,0,0,0,0,0,0,0,0,0,0,0,0,0],"split_type":[0,0,0,0,0,0,0,0,0,0,0,0,0,0,0,0,0,0,0,0,0,0,0,0,0,0,0,0,0,0,0,0,0,0,0,0,0,0,0,0,0,0,0,0,0,0,0,0,0,0,0,0,0,0,0,0,0,0,0],"sum_hessian":[6.133E3,3.179E3,2.954E3,1.863E3,1.316E3,1.377E3,1.577E3,1.745E3,1.18E2,3.46E2,9.7E2,3.32E2,1.045E3,7.65E2,8.12E2,1.356E3,3.89E2,1.1E2,8E0,2.05E2,1.41E2,9.64E2,6E0,2.95E2,3.7E1,6.53E2,3.92E2,6.19E2,1.46E2,3.68E2,4.44E2,1.241E3,1.15E2,3.35E2,5.4E1,2.8E1,8.2E1,7E0,1E0,1.74E2,3.1E1,6E1,8.1E1,7.74E2,1.9E2,2.9E2,5E0,5.95E2,5.8E1,3.89E2,3E0,2.42E2,3.77E2,9E1,5.6E1,1.76E2,1.92E2,2.91E2,1.53E2],"tree_param":{"num_deleted":"0","num_feature":"2","num_nodes":"59","size_leaf_vector":"1"}},{"base_weights":[2.654296E-4,-9.7081864E-1,1.0452898E0,-1.3604599E0,-4.1860732E-1,4.8102683E-1,1.5373741E0,-1.4475788E0,-7.0797384E-2,3.9668046E-2,-5.8194715E-1,1.0126299E0,3.1132814E-1,2.3492873E0,7.705073E-1,-1.2826525E0,-2.0177257E0,-1.2355491E-2,-7.837144E-1,-6.3485014E-1,1.017915E0,-6.030383E-1,2.4087615E-1,6.4524263E-1,3.8477352E-1,1.2079044E-1,6.2761396E-1,1.9397289E0,4.060695E0,-7.679572E-1,2.0444913E0,-1.2180449E-1,-1.9633427E-1,-2.1907674E-1,-1.4165781E-1,-2.2556076E-2,6.2286775E-3,-1.607987E-1,-4.7968198E-2,-5.3720158E-2,-1.1490264E-1,2.4038532E-1,-2.5501275E-3,-7.080511E-2,-2.3120372E-2,6.840452E-2,-1.3442193E-1,3.4832634E-2,-2.179755E-1,3.0027581E-2,8.262742E-2,1.44462E-1,2.23205E-1,3.5167298E-1,4.8578906E-1,-3.7685167E-2,-1.1226604E-1,1.5945056E-1,3.033992E-1],"categories":[],"categories_nodes":[],"categories_segments":[],"categories_sizes":[],"default_left":[0,0,0,0,0,0,0,0,0,0,0,0,0,0,0,0,0,0,0,0,0,0,0,0,0,0,0,0,0,0,0,0,0,0,0,0,0,0,0,0,0,0,0,0,0,0,0,0,0,0,0,0,0,0,0,0,0,0,0],"id":1,"left_children":[1,3,5,7,9,11,13,15,17,19,21,23,25,27,29,31,33,35,37,39,41,43,-1,45,-1,47,49,51,53,55,57,-1,-1,-1,-1,-1,-1,-1,-1,-1,-1,-1,-1,-1,-1,-1,-1,-1,-1,-1,-1,-1,-1,-1,-1,-1,-1,-1,-1],"loss_changes":[6.225838E3,6.836531E2,8.197605E2,2.093252E2,9.860658E1,1.23997345E2,9.806992E2,1.6159204E2,4.948359E0,2.2961256E2,6.270099E1,3.4436398E2,6.2960724E1,5.290288E2,1.5950331E3,5.7286377E1,3.74657E1,1.7805172E0,1.484128E0,9.725693E0,2.0540898E2,3.7517E1,0E0,2.3769562E1,0E0,3.430999E2,2.5308334E1,8.650879E1,4.6662354E1,5.0766968E1,1.9330334E2,0E0,0E0,0E0,0E0,0E0,0E0,0E0,0E0,0E0,0E0,0E0,0E0,0E0,0E0,0E0,0E0,0E0,0E0,0E0,0E0,0E0,0E0,0E0,0E0,0E0,0E0,0E0,0E0],"parents":[2147483647,0,0,1,1,2,2,3,3,4,4,5,5,6,6,7,7,8,8,9,9,10,10,11,11,12,12,13,13,14,14,15,15,16,16,17,17,18,18,19,19,20,20,21,21,23,23,25,25,26,26,27,27,28,28,29,29,30,30],"right_children":[2,4,6,8,10,12,14,16,18,20,22,24,26,28,30,32,34,36,38,40,42,44,-1,46,-1,48,50,52,54,56,58,-1,-1,-1,-1,-1,-1,-1,-1,-1,-1,-1,-1,-1,-1,-1,-1,-1,-1,-1,-1,-1,-1,-1,-1,-1,-1,-1,-1],"split_conditions":[5.188E3,2.38E2,1.9978E4,1.8E1,9E0,6E0,1.3E1,1.4E1,6E0,4E0,2E1,5E0,1.5E1,9.9114E4,1.4E1,1.83E2,6.4E1,2E1,1.7E1,3E0,6E0,3.251E3,2.4087615E-1,4E0,3.8477352E-1,1.4E1,7.804E3,2.8255E4,2.24869E5,1.23214E5,6.0386E4,-1.2180449E-1,-1.9633427E-1,-2.1907674E-1,-1.4165781E-1,-2.2556076E-2,6.2286775E-3,-1.607987E-1,-4.7968198E-2,-5.3720158E-2,-1.1490264E-1,2.4038532E-1,-2.5501275E-3,-7.080511E-2,-2.3120372E-2,6.840452E-2,-1.3442193E-1,3.4832634E-2,-2.179755E-1,3.0027581E-2,8.262742E-2,1.44462E-1,2.23205E-1,3.5167298E-1,4.8578906E-1,-3.7685167E-2,-1.1226604E-1,1.5945056E-1,3.033992E-1],"split_indices":[0,0,0,1,1,1,1,1,0,1,1,1,1,0,1,0,0,1,0,1,1,0,0,1,0,1,0,0,0,0,0,0,0,0,0,0,0,0,0,0,0,0,0,0,0,0,0,0,0,0,0,0,0,0,0,0,0,0,0],"split_type":[0,0,0,0,0,0,0,0,0,0,0,0,0,0,0,0,0,0,0,0,0,0,0,0,0,0,0,0,0,0,0,0,0,0,0,0,0,0,0,0,0,0,0,0,0,0,0,0,0,0,0,0,0,0,0,0,0,0,0],"sum_hessian":[6.133E3,3.179E3,2.954E3,1.863E3,1.316E3,1.377E3,1.577E3,1.745E3,1.18E2,3.46E2,9.7E2,3.32E2,1.045E3,7.65E2,8.12E2,1.356E3,3.89E2,1.1E2,8E0,2.05E2,1.41E2,9.64E2,6E0,2.95E2,3.7E1,6.53E2,3.92E2,6.19E2,1.46E2,3.68E2,4.44E2,1.241E3,1.15E2,3E2,8.9E1,2.8E1,8.2E1,1E0,7E0,1.74E2,3.1E1,6E1,8.1E1,7.51E2,2.13E2,2.9E2,5E0,5.95E2,5.8E1,1.49E2,2.43E2,2.32E2,3.87E2,9E1,5.6E1,1.76E2,1.92E2,3.07E2,1.37E2],"tree_param":{"num_deleted":"0","num_feature":"2","num_nodes":"59","size_leaf_vector":"1"}},{"base_weights":[4.1474868E-4,-8.87698E-1,9.2728245E-1,-1.2314451E0,-3.982218E-1,4.2021397E-1,1.3845989E0,-1.3112957E0,-6.5609E-2,2.8874837E-2,-5.362498E-1,8.6218685E-1,2.7714646E-1,2.115932E0,6.9384134E-1,-1.1623924E0,-1.8168777E0,-1.1266807E-2,-7.2853947E-1,-5.974177E-1,9.7055197E-1,-5.5542016E-1,2.2022961E-1,5.4039776E-1,3.4730875E-1,1.13369375E-1,5.4687876E-1,1.7463493E0,3.6603222E0,-6.9156796E-1,1.8410822E0,-1.0963388E-1,-2.041482E-1,-1.8876578E-1,-6.054033E-2,2.602042E-2,-6.313076E-3,-8.7422125E-2,2.1845723E-2,-5.777651E-2,-2.1657029E-1,2.1674088E-1,-1.3360949E-2,-6.367468E-2,-1.8654194E-2,2.276624E-2,8.417955E-2,3.129433E-2,-1.9654739E-1,2.5028775E-2,7.4398555E-2,1.4701127E-1,2.1926518E-1,3.1689212E-1,4.380624E-1,-3.3937916E-2,-1.0109766E-1,1.5657894E-1,3.2455048E-1],"categories":[],"categories_nodes":[],"categories_segments":[],"categories_sizes":[],"default_left":[0,0,0,0,0,0,0,0,0,0,0,0,0,0,0,0,0,0,0,0,0,0,0,0,0,0,0,0,0,0,0,0,0,0,0,0,0,0,0,0,0,0,0,0,0,0,0,0,0,0,0,0,0,0,0,0,0,0,0],"id":2,"left_children":[1,3,5,7,9,11,13,15,17,19,21,23,25,27,29,31,33,35,37,39,41,43,-1,45,-1,47,49,51,53,55,57,-1,-1,-1,-1,-1,-1,-1,-1,-1,-1,-1,-1,-1,-1,-1,-1,-1,-1,-1,-1,-1,-1,-1,-1,-1,-1,-1,-1],"loss_changes":[5.0501055E3,5.2665576E2,6.955542E2,1.7120483E2,7.629848E1,8.986661E1,7.9569604E2,1.2752515E2,4.278778E0,1.8753545E2,5.2567078E1,2.9049863E2,4.7559685E1,4.3082544E2,1.2934541E3,7.5165405E1,3.229895E1,1.5792581E0,1.432621E0,4.635521E0,1.6812302E2,2.9040863E1,0E0,2.9122513E1,0E0,2.7941638E2,2.3607063E1,7.321326E1,3.8149902E1,4.116649E1,1.6696729E2,0E0,0E0,0E0,0E0,0E0,0E0,0E0,0E0,0E0,0E0,0E0,0E0,0E0,0E0,0E0,0E0,0E0,0E0,0E0,0E0,0E0,0E0,0E0,0E0,0E0,0E0,0E0,0E0],"parents":[2147483647,0,0,1,1,2,2,3,3,4,4,5,5,6,6,7,7,8,8,9,9,10,10,11,11,12,12,13,13,14,14,15,15,16,16,17,17,18,18,19,19,20,20,21,21,23,23,25,25,26,26,27,27,28,28,29,29,30,30],"right_children":[2,4,6,8,10,12,14,16,18,20,22,24,26,28,30,32,34,36,38,40,42,44,-1,46,-1,48,50,52,54,56,58,-1,-1,-1,-1,-1,-1,-1,-1,-1,-1,-1,-1,-1,-1,-1,-1,-1,-1,-1,-1,-1,-1,-1,-1,-1,-1,-1,-1],"split_conditions":[5.005E3,2.26E2,1.9978E4,1.8E1,9E0,6E0,1.3E1,1.4E1,6E0,4E0,2E1,5E0,1.5E1,9.9114E4,1.4E1,1.83E2,1.3E2,1.9E1,1.85E2,4.994E3,6E0,1.4E1,2.2022961E-1,1.0129E4,3.4730875E-1,1.4E1,7.804E3,3.9999E4,2.24869E5,1.23214E5,1.23214E5,-1.0963388E-1,-2.041482E-1,-1.8876578E-1,-6.054033E-2,2.602042E-2,-6.313076E-3,-8.7422125E-2,2.1845723E-2,-5.777651E-2,-2.1657029E-1,2.1674088E-1,-1.3360949E-2,-6.367468E-2,-1.8654194E-2,2.276624E-2,8.417955E-2,3.129433E-2,-1.9654739E-1,2.5028775E-2,7.4398555E-2,1.4701127E-1,2.1926518E-1,3.1689212E-1,4.380624E-1,-3.3937916E-2,-1.0109766E-1,1.5657894E-1,3.2455048E-1],"split_indices":[0,0,0,1,1,1,1,1,0,1,1,1,1,0,1,0,0,1,0,0,1,1,0,0,0,1,0,0,0,0,0,0,0,0,0,0,0,0,0,0,0,0,0,0,0,0,0,0,0,0,0,0,0,0,0,0,0,0,0],"split_type":[0,0,0,0,0,0,0,0,0,0,0,0,0,0,0,0,0,0,0,0,0,0,0,0,0,0,0,0,0,0,0,0,0,0,0,0,0,0,0,0,0,0,0,0,0,0,0,0,0,0,0,0,0,0,0,0,0,0,0],"sum_hessian":[6.133E3,3.132E3,3.001E3,1.839E3,1.293E3,1.424E3,1.577E3,1.721E3,1.18E2,3.16E2,9.77E2,3.47E2,1.077E3,7.65E2,8.12E2,1.332E3,3.89E2,1.1E2,8E0,1.9E2,1.26E2,9.71E2,6E0,3.1E2,3.7E1,6.71E2,4.06E2,6.19E2,1.46E2,3.68E2,4.44E2,1.241E3,9.1E1,3.67E2,2.2E1,1.7E1,9.3E1,7E0,1E0,1.89E2,1E0,6E1,6.6E1,7.95E2,1.76E2,1.53E2,1.57E2,6.13E2,5.8E1,1.63E2,2.43E2,3.85E2,2.34E2,9E1,5.6E1,1.76E2,1.92E2,3.73E2,7.1E1],"tree_param":{"num_deleted":"0","num_feature":"2","num_nodes":"59","size_leaf_vector":"1"}},{"base_weights":[5.8741815E-4,-7.8706056E-1,8.4820837E-1,-1.1086318E0,-3.4524235E-1,4.020272E-1,1.2584686E0,-1.1804936E0,-5.9433293E-2,3.0721659E-2,-4.7601047E-1,8.48262E-1,2.570734E-1,1.9150183E0,6.3031656E-1,-1.046389E0,-1.6358294E0,-3.424563E-1,5.3150617E-2,-5.1978135E-1,8.2912236E-1,-4.9314976E-1,2.0135283E-1,5.6522584E-1,3.1349182E-1,8.2158074E-2,5.34458E-1,1.5760366E0,3.2994258E0,-6.0320807E-1,1.6907085E0,-9.867936E-2,-1.8395528E-1,-1.7842796E-1,-1.1211701E-1,2.3562973E-2,-9.3440294E-2,2.6297735E-3,7.873144E-2,-4.3049708E-2,-9.918115E-2,1.9542214E-1,-1.7952779E-3,-5.826632E-2,-1.662546E-2,2.5669996E-2,8.112717E-2,2.6437202E-2,-1.7722577E-1,5.099984E-2,2.914066E-1,1.15291856E-1,1.8282007E-1,2.8555116E-1,3.9502466E-1,-2.5701333E-2,-9.104023E-2,1.1221152E-1,2.2813492E-1],"categories":[],"categories_nodes":[],"categories_segments":[],"categories_sizes":[],"default_left":[0,0,0,0,0,0,0,0,0,0,0,0,0,0,0,0,0,0,0,0,0,0,0,0,0,0,0,0,0,0,0,0,0,0,0,0,0,0,0,0,0,0,0,0,0,0,0,0,0,0,0,0,0,0,0,0,0,0,0],"id":3,"left_children":[1,3,5,7,9,11,13,15,17,19,21,23,25,27,29,31,33,35,37,39,41,43,-1,45,-1,47,49,51,53,55,57,-1,-1,-1,-1,-1,-1,-1,-1,-1,-1,-1,-1,-1,-1,-1,-1,-1,-1,-1,-1,-1,-1,-1,-1,-1,-1,-1,-1],"loss_changes":[4.0958909E3,4.5141907E2,5.4040796E2,1.3866089E2,6.594368E1,9.1438354E1,6.334966E2,1.0343823E2,3.8099983E0,1.529451E2,4.3448563E1,2.2280862E2,5.1919746E1,3.4770532E2,1.0317393E3,6.119409E1,2.7795898E1,1.1854839E1,1.6747351E0,8.254868E0,1.3536722E2,2.8842758E1,0E0,2.3324303E1,0E0,2.22807E2,2.2610382E1,6.254956E1,3.1189697E1,3.8583405E1,1.3983386E2,0E0,0E0,0E0,0E0,0E0,0E0,0E0,0E0,0E0,0E0,0E0,0E0,0E0,0E0,0E0,0E0,0E0,0E0,0E0,0E0,0E0,0E0,0E0,0E0,0E0,0E0,0E0,0E0],"parents":[2147483647,0,0,1,1,2,2,3,3,4,4,5,5,6,6,7,7,8,8,9,9,10,10,11,11,12,12,13,13,14,14,15,15,16,16,17,17,18,18,19,19,20,20,21,21,23,23,25,25,26,26,27,27,28,28,29,29,30,30],"right_children":[2,4,6,8,10,12,14,16,18,20,22,24,26,28,30,32,34,36,38,40,42,44,-1,46,-1,48,50,52,54,56,58,-1,-1,-1,-1,-1,-1,-1,-1,-1,-1,-1,-1,-1,-1,-1,-1,-1,-1,-1,-1,-1,-1,-1,-1,-1,-1,-1,-1],"split_conditions":[5.188E3,2.26E2,2.0688E4,1.8E1,9E0,6E0,1.3E1,1.4E1,2E1,4E0,2E1,5E0,1.5E1,9.9114E4,1.4E1,1.83E2,6.4E1,1.9E1,1.7E1,3E0,6E0,3.251E3,2.0135283E-1,1.0129E4,3.1349182E-1,1.4E1,2E1,2.9536E4,2.24869E5,1.23214E5,4.1904E4,-9.867936E-2,-1.8395528E-1,-1.7842796E-1,-1.1211701E-1,2.3562973E-2,-9.3440294E-2,2.6297735E-3,7.873144E-2,-4.3049708E-2,-9.918115E-2,1.9542214E-1,-1.7952779E-3,-5.826632E-2,-1.662546E-2,2.5669996E-2,8.112717E-2,2.6437202E-2,-1.7722577E-1,5.099984E-2,2.914066E-1,1.15291856E-1,1.8282007E-1,2.8555116E-1,3.9502466E-1,-2.5701333E-2,-9.104023E-2,1.1221152E-1,2.2813492E-1],"split_indices":[0,0,0,1,1,1,1,1,1,1,1,1,1,0,1,0,0,1,0,1,1,0,0,0,0,1,1,0,0,0,0,0,0,0,0,0,0,0,0,0,0,0,0,0,0,0,0,0,0,0,0,0,0,0,0,0,0,0,0],"split_type":[0,0,0,0,0,0,0,0,0,0,0,0,0,0,0,0,0,0,0,0,0,0,0,0,0,0,0,0,0,0,0,0,0,0,0,0,0,0,0,0,0,0,0,0,0,0,0,0,0,0,0,0,0,0,0,0,0,0,0],"sum_hessian":[6.133E3,3.179E3,2.954E3,1.839E3,1.34E3,1.416E3,1.538E3,1.721E3,1.18E2,3.46E2,9.94E2,3.46E2,1.07E3,7.51E2,7.87E2,1.332E3,3.89E2,3.3E1,8.5E1,2.05E2,1.41E2,9.88E2,6E0,3.09E2,3.7E1,6.57E2,4.13E2,6.05E2,1.46E2,3.64E2,4.23E2,1.241E3,9.1E1,3E2,8.9E1,1.7E1,1.6E1,8.3E1,2E0,1.74E2,3.1E1,6E1,8.1E1,7.75E2,2.13E2,1.38E2,1.71E2,5.99E2,5.8E1,4.1E2,3E0,2.28E2,3.77E2,9E1,5.6E1,1.72E2,1.92E2,2.17E2,2.06E2],"tree_param":{"num_deleted":"0","num_feature":"2","num_nodes":"59","size_leaf_vector":"1"}},{"base_weights":[7.619823E-4,-7.1971357E-1,7.526771E-1,-1.0012069E0,-3.261918E-1,3.413686E-1,1.1236289E0,-1.0658358E0,-5.669668E-2,1.9732393E-2,-4.364053E-1,1.18417084E-1,5.287368E-1,1.717596E0,5.6261724E-1,-9.447324E-1,-1.4729917E0,-6.254355E-3,-7.494968E-1,-4.8835313E-1,7.8370565E-1,-4.5293093E-1,1.6528646E0,1.0235115E-1,2.6955113E-1,6.8376344E-1,3.2567927E-1,1.3238311E0,2.682655E0,-5.637129E-1,1.495321E0,-8.881935E-2,-1.8216516E-1,-1.5335353E-1,-4.4025313E-2,-1.9501092E-2,5.9772087E-3,-1.4851914E-1,-4.322274E-2,-4.6949297E-2,-2.035893E-1,1.7620029E-1,-1.1867991E-2,-5.2388806E-2,-1.2605377E-2,1.6816854E-2,1.84094E-1,5.1948495E-2,1.8526653E-4,5.5905886E-2,1.0996746E-1,-1.3930676E-2,6.5683335E-2,1.0452803E-1,1.5734042E-1,2.3625703E-1,3.5621527E-1,-1.1187506E-1,-4.0372398E-2,1.3051453E-1,3.0410433E-1],"categories":[],"categories_nodes":[],"categories_segments":[],"categories_sizes":[],"default_left":[0,0,0,0,0,0,0,0,0,0,0,0,0,0,0,0,0,0,0,0,0,0,0,0,0,0,0,0,0,0,0,0,0,0,0,0,0,0,0,0,0,0,0,0,0,0,0,0,0,0,0,0,0,0,0,0,0,0,0,0,0],"id":4,"left_children":[1,3,5,7,9,11,13,15,17,19,21,23,25,27,29,31,33,35,37,39,41,43,45,47,-1,49,51,53,55,57,59,-1,-1,-1,-1,-1,-1,-1,-1,-1,-1,-1,-1,-1,-1,-1,-1,-1,-1,-1,-1,-1,-1,-1,-1,-1,-1,-1,-1,-1,-1],"loss_changes":[3.323553E3,3.4672754E2,4.5764832E2,1.11403564E2,4.9876785E1,5.9465393E1,5.2485864E2,8.2875854E1,4.1189933E0,1.2343063E2,3.4998947E1,2.6719147E1,2.4142319E1,2.875337E2,8.549258E2,6.3827637E1,2.37099E1,1.3950408E0,1.2253671E0,4.6188545E0,1.1232487E2,2.278032E1,1.9242897E0,2.7205967E1,0E0,2.210254E1,5.1983437E1,3.6312622E1,5.3798706E1,3.2315483E1,1.26842834E2,0E0,0E0,0E0,0E0,0E0,0E0,0E0,0E0,0E0,0E0,0E0,0E0,0E0,0E0,0E0,0E0,0E0,0E0,0E0,0E0,0E0,0E0,0E0,0E0,0E0,0E0,0E0,0E0,0E0,0E0],"parents":[2147483647,0,0,1,1,2,2,3,3,4,4,5,5,6,6,7,7,8,8,9,9,10,10,11,11,12,12,13,13,14,14,15,15,16,16,17,17,18,18,19,19,20,20,21,21,22,22,23,23,25,25,26,26,27,27,28,28,29,29,30,30],"right_children":[2,4,6,8,10,12,14,16,18,20,22,24,26,28,30,32,34,36,38,40,42,44,46,48,-1,50,52,54,56,58,60,-1,-1,-1,-1,-1,-1,-1,-1,-1,-1,-1,-1,-1,-1,-1,-1,-1,-1,-1,-1,-1,-1,-1,-1,-1,-1,-1,-1,-1,-1],"split_conditions":[5.005E3,2.18E2,1.9978E4,1.8E1,9E0,9.042E3,1.3E1,1.4E1,6E0,4E0,2E1,2E1,1.2E1,6.2484E4,1.4E1,1.83E2,1.3E2,2E1,1.7E1,4.994E3,6E0,1.4E1,2.26E2,6E0,2.6955113E-1,1.5317E4,1.5E1,4E0,2.24869E5,4.7252E4,1.73084E5,-8.881935E-2,-1.8216516E-1,-1.5335353E-1,-4.4025313E-2,-1.9501092E-2,5.9772087E-3,-1.4851914E-1,-4.322274E-2,-4.6949297E-2,-2.035893E-1,1.7620029E-1,-1.1867991E-2,-5.2388806E-2,-1.2605377E-2,1.6816854E-2,1.84094E-1,5.1948495E-2,1.8526653E-4,5.5905886E-2,1.0996746E-1,-1.3930676E-2,6.5683335E-2,1.0452803E-1,1.5734042E-1,2.3625703E-1,3.5621527E-1,-1.1187506E-1,-4.0372398E-2,1.3051453E-1,3.0410433E-1],"split_indices":[0,0,0,1,1,0,1,1,0,1,1,1,1,0,1,0,0,1,0,0,1,1,0,1,0,0,1,1,0,0,0,0,0,0,0,0,0,0,0,0,0,0,0,0,0,0,0,0,0,0,0,0,0,0,0,0,0,0,0,0,0],"split_type":[0,0,0,0,0,0,0,0,0,0,0,0,0,0,0,0,0,0,0,0,0,0,0,0,0,0,0,0,0,0,0,0,0,0,0,0,0,0,0,0,0,0,0,0,0,0,0,0,0,0,0,0,0,0,0,0,0,0,0,0,0],"sum_hessian":[6.133E3,3.132E3,3.001E3,1.825E3,1.307E3,1.424E3,1.577E3,1.708E3,1.17E2,3.16E2,9.91E2,6.51E2,7.73E2,7.65E2,8.12E2,1.319E3,3.89E2,1.1E2,7E0,1.9E2,1.26E2,9.84E2,7E0,6.48E2,3E0,4.37E2,3.36E2,5.45E2,2.2E2,3.68E2,4.44E2,1.241E3,7.8E1,3.67E2,2.2E1,2.8E1,8.2E1,1E0,6E0,1.89E2,1E0,6E1,6.6E1,8.08E2,1.76E2,1E0,6E0,1.25E2,5.23E2,3.38E2,9.9E1,1.4E2,1.96E2,2.6E2,2.85E2,1.64E2,5.6E1,8.1E1,2.87E2,3.97E2,4.7E1],"tree_param":{"num_deleted":"0","num_feature":"2","num_nodes":"61","size_leaf_vector":"1"}},{"base_weights":[8.5744954E-4,-6.479412E-1,6.779678E-1,-9.01455E-1,-2.9353437E-1,3.8279894E-1,1.1052412E0,-9.595262E-1,-5.276694E-2,1.7487237E-2,-3.9262742E-1,1.0706895E-1,5.421179E-1,1.7744572E0,5.36154E-1,-8.504643E-1,-1.3261985E0,-5.7511586E-3,-6.9851506E-1,-4.4082946E-1,7.06629E-1,-4.077035E-1,1.5126916E0,9.2196554E-2,2.4933477E-1,7.10844E-1,3.184645E-1,1.4461293E0,2.6937654E0,-5.0475854E-1,1.5785868E0,-7.994455E-2,-1.6417924E-1,-1.4536005E-1,-8.8537395E-2,2.3179276E-2,-5.117711E-3,-1.4109316E-1,-3.951796E-2,-4.227907E-2,-1.9340983E-1,1.5886913E-1,-1.0698951E-2,-4.7983833E-2,-1.1672854E-2,1.5976E-2,1.6831447E-1,4.6794865E-2,1.6680056E-4,5.033174E-2,9.406811E-2,-2.637442E-2,6.709659E-2,1.2453126E-1,1.716714E-1,2.188065E-1,3.078804E-1,-1.3782416E-1,-3.634913E-2,1.3904421E-1,2.8445753E-1],"categories":[],"categories_nodes":[],"categories_segments":[],"categories_sizes":[],"default_left":[0,0,0,0,0,0,0,0,0,0,0,0,0,0,0,0,0,0,0,0,0,0,0,0,0,0,0,0,0,0,0,0,0,0,0,0,0,0,0,0,0,0,0,0,0,0,0,0,0,0,0,0,0,0,0,0,0,0,0,0,0],"id":5,"left_children":[1,3,5,7,9,11,13,15,17,19,21,23,25,27,29,31,33,35,37,39,41,43,45,47,-1,49,51,53,55,57,59,-1,-1,-1,-1,-1,-1,-1,-1,-1,-1,-1,-1,-1,-1,-1,-1,-1,-1,-1,-1,-1,-1,-1,-1,-1,-1,-1,-1,-1,-1],"loss_changes":[2.6951562E3,2.8122607E2,3.781825E2,8.994275E1,4.0319527E1,7.8003815E1,4.659613E2,6.721484E1,3.5785046E0,1.0043442E2,2.9111664E1,2.290939E1,4.2264526E1,1.6603711E2,7.212909E2,5.197943E1,2.061615E1,1.2096256E0,1.1712377E0,4.327198E0,9.131308E1,2.0618576E1,1.5759907E0,2.2075794E1,0E0,3.0100494E1,9.991846E1,2.0521118E1,2.1886475E1,4.058941E1,7.51236E1,0E0,0E0,0E0,0E0,0E0,0E0,0E0,0E0,0E0,0E0,0E0,0E0,0E0,0E0,0E0,0E0,0E0,0E0,0E0,0E0,0E0,0E0,0E0,0E0,0E0,0E0,0E0,0E0,0E0,0E0],"parents":[2147483647,0,0,1,1,2,2,3,3,4,4,5,5,6,6,7,7,8,8,9,9,10,10,11,11,12,12,13,13,14,14,15,15,16,16,17,17,18,18,19,19,20,20,21,21,22,22,23,23,25,25,26,26,27,27,28,28,29,29,30,30],"right_children":[2,4,6,8,10,12,14,16,18,20,22,24,26,28,30,32,34,36,38,40,42,44,46,48,-1,50,52,54,56,58,60,-1,-1,-1,-1,-1,-1,-1,-1,-1,-1,-1,-1,-1,-1,-1,-1,-1,-1,-1,-1,-1,-1,-1,-1,-1,-1,-1,-1,-1,-1],"split_conditions":[5.005E3,2.18E2,2.6759E4,1.8E1,9E0,9.042E3,1.3E1,1.4E1,6E0,4E0,2E1,2E1,1.2E1,9.9114E4,1.4E1,1.83E2,6.4E1,1.9E1,1.7E1,4.994E3,6E0,3.251E3,2.26E2,6E0,2.4933477E-1,1.5317E4,1.5E1,4.5E4,4E0,4.7252E4,1.95537E5,-7.994455E-2,-1.6417924E-1,-1.4536005E-1,-8.8537395E-2,2.3179276E-2,-5.117711E-3,-1.4109316E-1,-3.951796E-2,-4.227907E-2,-1.9340983E-1,1.5886913E-1,-1.0698951E-2,-4.7983833E-2,-1.1672854E-2,1.5976E-2,1.6831447E-1,4.6794865E-2,1.6680056E-4,5.033174E-2,9.406811E-2,-2.637442E-2,6.709659E-2,1.2453126E-1,1.716714E-1,2.188065E-1,3.078804E-1,-1.3782416E-1,-3.634913E-2,1.3904421E-1,2.8445753E-1],"split_indices":[0,0,0,1,1,0,1,1,0,1,1,1,1,0,1,0,0,1,0,0,1,0,0,1,0,0,1,0,1,0,0,0,0,0,0,0,0,0,0,0,0,0,0,0,0,0,0,0,0,0,0,0,0,0,0,0,0,0,0,0,0],"split_type":[0,0,0,0,0,0,0,0,0,0,0,0,0,0,0,0,0,0,0,0,0,0,0,0,0,0,0,0,0,0,0,0,0,0,0,0,0,0,0,0,0,0,0,0,0,0,0,0,0,0,0,0,0,0,0,0,0,0,0,0,0],"sum_hessian":[6.133E3,3.132E3,3.001E3,1.825E3,1.307E3,1.776E3,1.225E3,1.708E3,1.17E2,3.16E2,9.91E2,6.51E2,1.125E3,5.62E2,6.63E2,1.319E3,3.89E2,1.1E2,7E0,1.9E2,1.26E2,9.84E2,7E0,6.48E2,3E0,6.4E2,4.85E2,4.16E2,1.46E2,3.32E2,3.31E2,1.241E3,7.8E1,3E2,8.9E1,1.7E1,9.3E1,1E0,6E0,1.89E2,1E0,6E1,6.6E1,7.88E2,1.96E2,1E0,6E0,1.25E2,5.23E2,3.38E2,3.02E2,1.83E2,3.02E2,2.42E2,1.74E2,6.6E1,8E1,4.5E1,2.87E2,2.9E2,4.1E1],"tree_param":{"num_deleted":"0","num_feature":"2","num_nodes":"61","size_leaf_vector":"1"}},{"base_weights":[9.2665676E-4,-5.74586E-1,6.2025976E-1,-8.116603E-1,-2.546803E-1,3.539145E-1,9.9559176E-1,-8.638533E-1,-4.8867967E-2,1.9613301E-2,-3.487588E-1,1.0364445E-1,4.8807034E-1,1.5984732E0,4.8291433E-1,-7.6560277E-1,-1.1941785E0,-5.013539E-3,-6.5123963E-1,-3.2374883E-1,7.5256115E-1,-4.3006617E-1,-1.3554983E-2,5.2096885E-1,9.853224E-3,6.399845E-1,2.8670192E-1,1.3022268E0,2.4279718E0,-4.548056E-1,1.4220042E0,-7.195652E-2,-1.4796917E-1,-1.224333E-1,3.987397E-2,-1.8782925E-2,5.8922237E-3,-1.340385E-1,-3.6130674E-2,-3.9189134E-2,1.2503574E-2,2.7792302E-1,1.9192928E-4,-5.420084E-2,-2.6323065E-2,8.57357E-2,-2.6795423E-2,7.686432E-3,2.6673245E-1,1.2645695E-1,-4.2886646E-3,4.5313384E-2,8.469231E-2,-2.3751274E-2,6.040907E-2,1.0594731E-1,1.4857234E-1,2.7238068E-1,1.7995761E-1,-5.640483E-3,-7.435088E-2,1.23833396E-1,2.4829207E-1],"categories":[],"categories_nodes":[],"categories_segments":[],"categories_sizes":[],"default_left":[0,0,0,0,0,0,0,0,0,0,0,0,0,0,0,0,0,0,0,0,0,0,0,0,0,0,0,0,0,0,0,0,0,0,0,0,0,0,0,0,0,0,0,0,0,0,0,0,0,0,0,0,0,0,0,0,0,0,0,0,0,0,0],"id":6,"left_children":[1,3,5,7,9,11,13,15,17,19,21,23,25,27,29,31,33,35,37,39,41,43,45,47,49,51,53,55,57,59,61,-1,-1,-1,-1,-1,-1,-1,-1,-1,-1,-1,-1,-1,-1,-1,-1,-1,-1,-1,-1,-1,-1,-1,-1,-1,-1,-1,-1,-1,-1,-1,-1],"loss_changes":[2.1867227E3,2.40969E2,2.9505273E2,7.265515E1,3.4972794E1,5.8034515E1,3.781648E2,5.455078E1,3.1139014E0,8.757193E1,2.7493996E1,2.3675396E1,3.4261658E1,1.3518762E2,5.853673E2,4.233014E1,1.9221375E1,1.3084867E0,1.114157E0,7.296768E0,1.6885925E2,1.5022202E1,4.409848E1,1.0560088E2,3.281015E1,2.440149E1,8.1004074E1,1.7000977E1,2.2425781E1,3.8259575E1,6.161841E1,0E0,0E0,0E0,0E0,0E0,0E0,0E0,0E0,0E0,0E0,0E0,0E0,0E0,0E0,0E0,0E0,0E0,0E0,0E0,0E0,0E0,0E0,0E0,0E0,0E0,0E0,0E0,0E0,0E0,0E0,0E0,0E0],"parents":[2147483647,0,0,1,1,2,2,3,3,4,4,5,5,6,6,7,7,8,8,9,9,10,10,11,11,12,12,13,13,14,14,15,15,16,16,17,17,18,18,19,19,20,20,21,21,22,22,23,23,24,24,25,25,26,26,27,27,28,28,29,29,30,30],"right_children":[2,4,6,8,10,12,14,16,18,20,22,24,26,28,30,32,34,36,38,40,42,44,46,48,50,52,54,56,58,60,62,-1,-1,-1,-1,-1,-1,-1,-1,-1,-1,-1,-1,-1,-1,-1,-1,-1,-1,-1,-1,-1,-1,-1,-1,-1,-1,-1,-1,-1,-1,-1,-1],"split_conditions":[5.188E3,2.18E2,2.6759E4,1.8E1,9E0,9.042E3,1.3E1,1.4E1,6E0,5E0,1.4E1,6E0,1.2E1,9.9114E4,1.4E1,1.83E2,1.64E2,2E1,1.7E1,4E0,6E0,1.905E3,6.76E2,5E0,5.296E3,1.5317E4,1.5E1,4E0,8E0,1.23214E5,1.73084E5,-7.195652E-2,-1.4796917E-1,-1.224333E-1,3.987397E-2,-1.8782925E-2,5.8922237E-3,-1.340385E-1,-3.6130674E-2,-3.9189134E-2,1.2503574E-2,2.7792302E-1,1.9192928E-4,-5.420084E-2,-2.6323065E-2,8.57357E-2,-2.6795423E-2,7.686432E-3,2.6673245E-1,1.2645695E-1,-4.2886646E-3,4.5313384E-2,8.469231E-2,-2.3751274E-2,6.040907E-2,1.0594731E-1,1.4857234E-1,2.7238068E-1,1.7995761E-1,-5.640483E-3,-7.435088E-2,1.23833396E-1,2.4829207E-1],"split_indices":[0,0,0,1,1,0,1,1,0,1,1,1,1,0,1,0,0,1,0,1,1,0,0,1,0,0,1,1,1,0,0,0,0,0,0,0,0,0,0,0,0,0,0,0,0,0,0,0,0,0,0,0,0,0,0,0,0,0,0,0,0,0,0],"split_type":[0,0,0,0,0,0,0,0,0,0,0,0,0,0,0,0,0,0,0,0,0,0,0,0,0,0,0,0,0,0,0,0,0,0,0,0,0,0,0,0,0,0,0,0,0,0,0,0,0,0,0,0,0,0,0,0,0,0,0,0,0,0,0],"sum_hessian":[6.133E3,3.179E3,2.954E3,1.825E3,1.354E3,1.729E3,1.225E3,1.708E3,1.17E2,3.46E2,1.008E3,6.04E2,1.125E3,5.62E2,6.63E2,1.319E3,3.89E2,1.1E2,7E0,2.36E2,1.1E2,8.11E2,1.97E2,1.1E2,4.94E2,6.4E2,4.85E2,4.16E2,1.46E2,3.32E2,3.31E2,1.241E3,7.8E1,3.82E2,7E0,2.8E1,8.2E1,1E0,6E0,2.05E2,3.1E1,2.9E1,8.1E1,4.84E2,3.27E2,4.4E1,1.53E2,9.2E1,1.8E1,1.9E1,4.75E2,3.38E2,3.02E2,1.83E2,3.02E2,1.82E2,2.34E2,9.7E1,4.9E1,1.4E2,1.92E2,2.84E2,4.7E1],"tree_param":{"num_deleted":"0","num_feature":"2","num_nodes":"63","size_leaf_vector":"1"}},{"base_weights":[1.047099E-3,-5.254321E-1,5.505002E-1,-7.3076E-1,-2.3838758E-1,3.1123617E-1,8.968474E-1,-7.776448E-1,-4.5532286E-2,1.2263785E-2,-3.1824455E-1,8.9401014E-2,4.3941137E-1,1.4398814E0,4.350628E-1,-6.89209E-1,-1.0749719E0,-9.49941E-3,-7.165628E-2,-2.925889E-1,7.1710783E-1,-3.311412E-1,1.30944E0,7.557967E-2,2.3095635E-1,5.7618874E-1,2.581074E-1,1.1882133E0,2.236728E0,-4.095652E-1,1.2809244E0,-6.476665E-2,-1.3335955E-1,-1.1515512E-1,-5.053538E-2,-2.732543E-3,9.935074E-2,-3.5899617E-2,1.1292285E-2,2.5105718E-1,-9.663875E-3,-4.4252165E-2,-1.8272864E-2,1.0890436E-2,1.4653873E-1,2.6652683E-2,-7.279347E-3,5.0353367E-2,1.0585745E-1,-2.1389058E-2,5.4388136E-2,9.885944E-2,1.4399113E-1,1.6967772E-1,2.6026312E-1,-1.2378962E-1,-2.7584022E-2,1.22183524E-1,4.2877942E-1],"categories":[],"categories_nodes":[],"categories_segments":[],"categories_sizes":[],"default_left":[0,0,0,0,0,0,0,0,0,0,0,0,0,0,0,0,0,0,0,0,0,0,0,0,0,0,0,0,0,0,0,0,0,0,0,0,0,0,0,0,0,0,0,0,0,0,0,0,0,0,0,0,0,0,0,0,0,0,0],"id":7,"left_children":[1,3,5,7,9,11,13,15,17,19,21,23,25,27,29,31,33,35,-1,37,39,41,43,45,-1,47,49,51,53,55,57,-1,-1,-1,-1,-1,-1,-1,-1,-1,-1,-1,-1,-1,-1,-1,-1,-1,-1,-1,-1,-1,-1,-1,-1,-1,-1,-1,-1],"loss_changes":[1.7747059E3,1.8447937E2,2.48492E2,5.862805E1,2.6185158E1,5.048752E1,3.0681116E2,4.4196167E1,2.8463337E0,6.8324745E1,2.1257408E1,1.9832468E1,2.777414E1,1.10246826E2,4.749117E2,3.4471863E1,1.6430237E1,2.047545E0,0E0,6.0187626E0,1.4034743E2,1.6201439E1,1.3381758E0,1.84065E1,0E0,2.1932617E1,6.567032E1,2.0181274E1,2.2058289E1,3.654447E1,5.3748596E1,0E0,0E0,0E0,0E0,0E0,0E0,0E0,0E0,0E0,0E0,0E0,0E0,0E0,0E0,0E0,0E0,0E0,0E0,0E0,0E0,0E0,0E0,0E0,0E0,0E0,0E0,0E0,0E0],"parents":[2147483647,0,0,1,1,2,2,3,3,4,4,5,5,6,6,7,7,8,8,9,9,10,10,11,11,12,12,13,13,14,14,15,15,16,16,17,17,19,19,20,20,21,21,22,22,23,23,25,25,26,26,27,27,28,28,29,29,30,30],"right_children":[2,4,6,8,10,12,14,16,18,20,22,24,26,28,30,32,34,36,-1,38,40,42,44,46,-1,48,50,52,54,56,58,-1,-1,-1,-1,-1,-1,-1,-1,-1,-1,-1,-1,-1,-1,-1,-1,-1,-1,-1,-1,-1,-1,-1,-1,-1,-1,-1,-1],"split_conditions":[5.005E3,2.18E2,2.6759E4,1.8E1,9E0,9.042E3,1.3E1,1.4E1,1.06E2,5E0,2E1,2E1,1.2E1,1.06466E5,1.4E1,1.83E2,9.3E1,1.7E1,-7.165628E-2,4E0,6E0,1.905E3,2.26E2,6.405E3,2.3095635E-1,1E1,1.5E1,4.5E4,4E0,4.7252E4,2E1,-6.476665E-2,-1.3335955E-1,-1.1515512E-1,-5.053538E-2,-2.732543E-3,9.935074E-2,-3.5899617E-2,1.1292285E-2,2.5105718E-1,-9.663875E-3,-4.4252165E-2,-1.8272864E-2,1.0890436E-2,1.4653873E-1,2.6652683E-2,-7.279347E-3,5.0353367E-2,1.0585745E-1,-2.1389058E-2,5.4388136E-2,9.885944E-2,1.4399113E-1,1.6967772E-1,2.6026312E-1,-1.2378962E-1,-2.7584022E-2,1.22183524E-1,4.2877942E-1],"split_indices":[0,0,0,1,1,0,1,1,0,1,1,1,1,0,1,0,0,0,0,1,1,0,0,0,0,1,1,0,1,0,1,0,0,0,0,0,0,0,0,0,0,0,0,0,0,0,0,0,0,0,0,0,0,0,0,0,0,0,0],"split_type":[0,0,0,0,0,0,0,0,0,0,0,0,0,0,0,0,0,0,0,0,0,0,0,0,0,0,0,0,0,0,0,0,0,0,0,0,0,0,0,0,0,0,0,0,0,0,0,0,0,0,0,0,0,0,0,0,0,0,0],"sum_hessian":[6.133E3,3.132E3,3.001E3,1.825E3,1.307E3,1.776E3,1.225E3,1.708E3,1.17E2,3.16E2,9.91E2,6.51E2,1.125E3,5.62E2,6.63E2,1.319E3,3.89E2,1.12E2,5E0,2.21E2,9.5E1,9.84E2,7E0,6.48E2,3E0,6.4E2,4.85E2,4.29E2,1.33E2,3.32E2,3.31E2,1.241E3,7.8E1,3.42E2,4.7E1,1.11E2,1E0,1.9E2,3.1E1,2.9E1,6.6E1,5.61E2,4.23E2,1E0,6E0,2.83E2,3.65E2,5.58E2,8.2E1,1.83E2,3.02E2,2.42E2,1.87E2,5.6E1,7.7E1,4.5E1,2.87E2,3.26E2,5E0],"tree_param":{"num_deleted":"0","num_feature":"2","num_nodes":"59","size_leaf_vector":"1"}},{"base_weights":[1.184467E-3,-4.658434E-1,5.0377244E-1,-6.578694E-1,-2.0672512E-1,2.878578E-1,8.080372E-1,-7.00093E-1,-4.076777E-2,1.5576555E-2,-2.8297088E-1,2.7819306E-1,3.0184928E-1,1.297088E0,3.9215818E-1,-6.20438E-1,-9.6789956E-1,-1.9204208E-3,-5.746788E-1,-2.6587036E-1,6.1636347E-1,-3.535889E-1,8.0636395E-3,5.4451936E-1,1.8348528E-1,1.0551599E0,1.9745501E0,-2.968163E-1,1.2445166E0,-5.829518E-2,-1.20192364E-1,-9.941132E-2,4.080682E-2,2.3022106E-2,-4.6352614E-3,-1.2719993E-1,-2.9334737E-2,-3.2172207E-2,1.0198328E-2,2.2678827E-1,4.6325196E-4,-3.38635E-2,-1.3222966E-1,7.901317E-2,-2.2051511E-2,3.2541364E-2,2.5688317E-1,-1.5238873E-3,3.0811979E-2,8.3235584E-2,1.2241726E-1,2.2602253E-1,1.375136E-1,-9.9200614E-2,-1.5545283E-2,1.18506365E-1,3.9304778E-1],"categories":[],"categories_nodes":[],"categories_segments":[],"categories_sizes":[],"default_left":[0,0,0,0,0,0,0,0,0,0,0,0,0,0,0,0,0,0,0,0,0,0,0,0,0,0,0,0,0,0,0,0,0,0,0,0,0,0,0,0,0,0,0,0,0,0,0,0,0,0,0,0,0,0,0,0,0],"id":8,"left_children":[1,3,5,7,9,11,13,15,17,19,21,23,-1,25,27,29,31,33,35,37,39,41,43,45,47,49,51,53,55,-1,-1,-1,-1,-1,-1,-1,-1,-1,-1,-1,-1,-1,-1,-1,-1,-1,-1,-1,-1,-1,-1,-1,-1,-1,-1,-1,-1],"loss_changes":[1.4400232E3,1.5809277E2,1.9389673E2,4.755011E1,2.2971062E1,4.4816467E1,2.4884253E2,3.585608E1,2.4463375E0,5.883797E1,2.0740097E1,4.3410065E1,0E0,9.019055E1,3.903055E2,2.8072235E1,1.4472656E1,1.155587E0,1.1962881E0,4.9020348E0,1.1213118E2,1.1314835E1,3.5569534E1,1.9964346E2,3.1558975E1,1.4683899E1,2.2063843E1,3.601078E1,4.2769684E1,0E0,0E0,0E0,0E0,0E0,0E0,0E0,0E0,0E0,0E0,0E0,0E0,0E0,0E0,0E0,0E0,0E0,0E0,0E0,0E0,0E0,0E0,0E0,0E0,0E0,0E0,0E0,0E0],"parents":[2147483647,0,0,1,1,2,2,3,3,4,4,5,5,6,6,7,7,8,8,9,9,10,10,11,11,13,13,14,14,15,15,16,16,17,17,18,18,19,19,20,20,21,21,22,22,23,23,24,24,25,25,26,26,27,27,28,28],"right_children":[2,4,6,8,10,12,14,16,18,20,22,24,-1,26,28,30,32,34,36,38,40,42,44,46,48,50,52,54,56,-1,-1,-1,-1,-1,-1,-1,-1,-1,-1,-1,-1,-1,-1,-1,-1,-1,-1,-1,-1,-1,-1,-1,-1,-1,-1,-1,-1],"split_conditions":[5.188E3,2.18E2,2.6759E4,1.8E1,9E0,2E1,1.3E1,1.4E1,6E0,5E0,1.4E1,7E0,3.0184928E-1,9.9114E4,1.5E1,1.83E2,1.64E2,1.9E1,1.7E1,4E0,6E0,4.859E3,6.76E2,5E0,9.042E3,4E0,8E0,4.7252E4,2E1,-5.829518E-2,-1.20192364E-1,-9.941132E-2,4.080682E-2,2.3022106E-2,-4.6352614E-3,-1.2719993E-1,-2.9334737E-2,-3.2172207E-2,1.0198328E-2,2.2678827E-1,4.6325196E-4,-3.38635E-2,-1.3222966E-1,7.901317E-2,-2.2051511E-2,3.2541364E-2,2.5688317E-1,-1.5238873E-3,3.0811979E-2,8.3235584E-2,1.2241726E-1,2.2602253E-1,1.375136E-1,-9.9200614E-2,-1.5545283E-2,1.18506365E-1,3.9304778E-1],"split_indices":[0,0,0,1,1,1,1,1,0,1,1,1,0,0,1,0,0,1,0,1,1,0,0,1,0,1,1,0,1,0,0,0,0,0,0,0,0,0,0,0,0,0,0,0,0,0,0,0,0,0,0,0,0,0,0,0,0],"split_type":[0,0,0,0,0,0,0,0,0,0,0,0,0,0,0,0,0,0,0,0,0,0,0,0,0,0,0,0,0,0,0,0,0,0,0,0,0,0,0,0,0,0,0,0,0,0,0,0,0,0,0,0,0,0,0,0,0],"sum_hessian":[6.133E3,3.179E3,2.954E3,1.825E3,1.354E3,1.729E3,1.225E3,1.708E3,1.17E2,3.46E2,1.008E3,1.724E3,5E0,5.62E2,6.63E2,1.319E3,3.89E2,1.1E2,7E0,2.36E2,1.1E2,8.11E2,1.97E2,4.51E2,1.273E3,4.16E2,1.46E2,3.67E2,2.96E2,1.241E3,7.8E1,3.82E2,7E0,1.7E1,9.3E1,1E0,6E0,2.05E2,3.1E1,2.9E1,8.1E1,8E2,1.1E1,4.4E1,1.53E2,4.08E2,4.3E1,4.91E2,7.82E2,1.82E2,2.34E2,9.7E1,4.9E1,6.1E1,3.06E2,2.91E2,5E0],"tree_param":{"num_deleted":"0","num_feature":"2","num_nodes":"57","size_leaf_vector":"1"}},{"base_weights":[1.2790463E-3,-4.260805E-1,4.4728708E-1,-5.9228796E-1,-1.9372502E-1,2.1086608E-1,6.788905E-1,-6.3022244E-1,-3.786198E-2,-3.0659163E-1,-6.486596E-2,4.341937E-1,1.362346E-1,1.0472003E0,3.3729565E-1,-1.3859811E-1,-6.696015E-1,-2.641011E-1,5.3079095E-2,-3.2279226E-1,1.1290385E0,6.391606E-1,-1.5697116E-1,2.2350404E-1,2.2801633E0,2.564272E-2,3.1394854E-1,7.9405195E-1,1.6255049E0,-2.9085478E-1,1.0056725E0,-2.770689E-2,2.723153E-1,-6.0311664E-2,-8.712602E-2,2.0847835E-2,-7.489439E-2,3.0889574E-3,9.5849946E-2,-2.032188E-2,-4.8702046E-2,6.3952925E-3,1.2720574E-1,-2.0759894E-2,8.5077874E-2,-1.0522937E-1,-1.0981868E-2,2.5202334E-2,-1.3823074E-1,1.573408E-1,2.445246E-1,1.7346038E-2,-1.5556893E-1,2.9818853E-2,1.9099593E-1,5.9710618E-2,9.621183E-2,1.3945787E-1,2.265458E-1,-7.466398E-2,-1.3995858E-2,9.4289966E-2,3.8224378E-1],"categories":[],"categories_nodes":[],"categories_segments":[],"categories_sizes":[],"default_left":[0,0,0,0,0,0,0,0,0,0,0,0,0,0,0,0,0,0,0,0,0,0,0,0,0,0,0,0,0,0,0,0,0,0,0,0,0,0,0,0,0,0,0,0,0,0,0,0,0,0,0,0,0,0,0,0,0,0,0,0,0,0,0],"id":9,"left_children":[1,3,5,7,9,11,13,15,17,19,21,23,25,27,29,31,33,35,37,39,41,43,45,47,49,51,53,55,57,59,61,-1,-1,-1,-1,-1,-1,-1,-1,-1,-1,-1,-1,-1,-1,-1,-1,-1,-1,-1,-1,-1,-1,-1,-1,-1,-1,-1,-1,-1,-1,-1,-1],"loss_changes":[1.1693665E3,1.2087927E2,1.6423407E2,3.838031E1,1.9003517E1,2.472509E1,1.903789E2,3.299286E1,2.4418006E0,1.657537E1,3.9785164E1,1.4417111E2,2.1925497E1,1.05432556E2,3.3112735E2,5.147692E1,2.0684875E1,7.9464493E0,1.6781139E0,1.345079E1,1.1372671E0,1.2899088E1,2.2765877E1,1.5690235E1,5.8621216E-1,1.6132275E2,1.0195999E1,1.6273407E1,2.9500427E1,2.7887428E1,6.3939636E1,0E0,0E0,0E0,0E0,0E0,0E0,0E0,0E0,0E0,0E0,0E0,0E0,0E0,0E0,0E0,0E0,0E0,0E0,0E0,0E0,0E0,0E0,0E0,0E0,0E0,0E0,0E0,0E0,0E0,0E0,0E0,0E0],"parents":[2147483647,0,0,1,1,2,2,3,3,4,4,5,5,6,6,7,7,8,8,9,9,10,10,11,11,12,12,13,13,14,14,15,15,16,16,17,17,18,18,19,19,20,20,21,21,22,22,23,23,24,24,25,25,26,26,27,27,28,28,29,29,30,30],"right_children":[2,4,6,8,10,12,14,16,18,20,22,24,26,28,30,32,34,36,38,40,42,44,46,48,50,52,54,56,58,60,62,-1,-1,-1,-1,-1,-1,-1,-1,-1,-1,-1,-1,-1,-1,-1,-1,-1,-1,-1,-1,-1,-1,-1,-1,-1,-1,-1,-1,-1,-1,-1,-1],"split_conditions":[5.005E3,2.18E2,2.113E4,1.8E1,2.056E3,6E0,1.3E1,6E0,2E1,2E1,2.4E3,5E0,1.5E1,6.2484E4,1.5E1,5E0,1.4E1,1.9E1,1.7E1,8.5E2,2.26E2,5E0,2.508E3,4E0,5.79E3,1.4E1,2E1,4E0,2.24869E5,4.7252E4,2E1,-2.770689E-2,2.723153E-1,-6.0311664E-2,-8.712602E-2,2.0847835E-2,-7.489439E-2,3.0889574E-3,9.5849946E-2,-2.032188E-2,-4.8702046E-2,6.3952925E-3,1.2720574E-1,-2.0759894E-2,8.5077874E-2,-1.0522937E-1,-1.0981868E-2,2.5202334E-2,-1.3823074E-1,1.573408E-1,2.445246E-1,1.7346038E-2,-1.5556893E-1,2.9818853E-2,1.9099593E-1,5.9710618E-2,9.621183E-2,1.3945787E-1,2.265458E-1,-7.466398E-2,-1.3995858E-2,9.4289966E-2,3.8224378E-1],"split_indices":[0,0,0,1,0,1,1,1,1,1,0,1,1,0,1,1,1,1,0,0,0,1,0,1,0,1,1,1,0,0,1,0,0,0,0,0,0,0,0,0,0,0,0,0,0,0,0,0,0,0,0,0,0,0,0,0,0,0,0,0,0,0,0],"split_type":[0,0,0,0,0,0,0,0,0,0,0,0,0,0,0,0,0,0,0,0,0,0,0,0,0,0,0,0,0,0,0,0,0,0,0,0,0,0,0,0,0,0,0,0,0,0,0,0,0,0,0,0,0,0,0,0,0,0,0,0,0,0,0],"sum_hessian":[6.133E3,3.132E3,3.001E3,1.825E3,1.307E3,1.486E3,1.515E3,1.708E3,1.17E2,6.96E2,6.11E2,3.71E2,1.115E3,7.28E2,7.87E2,1.27E2,1.581E3,3.3E1,8.4E1,6.89E2,7E0,7E1,5.41E2,3.34E2,3.7E1,6.88E2,4.27E2,5.08E2,2.2E2,4.06E2,3.81E2,1.22E2,5E0,1.192E3,3.89E2,1.7E1,1.6E1,8.3E1,1E0,4E2,2.89E2,1E0,6E0,1.4E1,5.6E1,2.6E1,5.15E2,3.29E2,5E0,9E0,2.8E1,6.3E2,5.8E1,4.24E2,3E0,2.36E2,2.72E2,1.64E2,5.6E1,1E2,3.06E2,3.74E2,7E0],"tree_param":{"num_deleted":"0","num_feature":"2","num_nodes":"63","size_leaf_vector":"1"}},{"base_weights":[1.3851594E-3,-3.0922425E-1,5.0131905E-1,-4.8237365E-1,-2.192444E-2,7.2677016E-1,2.6483607E-1,-5.0718343E-1,1.3502356E-1,1.567837E-1,-8.075097E-2,5.0914806E-1,1.3231364E0,-2.2320683E-1,7.1332824E-1,-5.828222E-1,-3.5672924E-1,2.7837396E-2,1.1204251E-1,-1.4308502E-1,2.0651805E0,-1.661042E-1,1.20348185E-1,3.8547763E-1,7.7272135E-1,1.1633292E0,2.042887E0,5.133774E-1,-2.9774296E-1,4.311853E-1,1.1905206E0,-6.8917857E-3,-6.2556736E-2,-2.701377E-2,-7.795378E-2,5.732806E-3,-1.2099438E-1,-7.162172E-2,-1.110809E-2,1.3774298E-1,2.3360541E-1,-1.2298397E-2,-2.0257226E-1,-2.2301154E-1,1.3470736E-2,4.707115E-2,1.7433021E-2,3.031827E-2,8.4047735E-2,9.5339626E-2,1.390827E-1,1.18823186E-1,2.5084293E-1,8.858388E-2,-1.599332E-1,-3.8450852E-2,2.5105748E-2,3.9242845E-2,3.243959E-1,1.02169156E-1,2.0070525E-1],"categories":[],"categories_nodes":[],"categories_segments":[],"categories_sizes":[],"default_left":[0,0,0,0,0,0,0,0,0,0,0,0,0,0,0,0,0,0,0,0,0,0,0,0,0,0,0,0,0,0,0,0,0,0,0,0,0,0,0,0,0,0,0,0,0,0,0,0,0,0,0,0,0,0,0,0,0,0,0,0,0],"id":10,"left_children":[1,3,5,7,9,11,13,15,17,19,21,23,25,27,29,31,33,35,-1,37,39,41,43,45,47,49,51,53,55,57,59,-1,-1,-1,-1,-1,-1,-1,-1,-1,-1,-1,-1,-1,-1,-1,-1,-1,-1,-1,-1,-1,-1,-1,-1,-1,-1,-1,-1,-1,-1],"loss_changes":[9.526683E2,1.8822751E2,1.2515192E2,3.6233093E1,1.4982859E1,1.5545465E2,2.5165628E2,2.5625061E1,9.68598E0,2.0230626E2,1.8420294E1,2.8484589E1,3.4545288E1,3.0403923E1,8.013391E1,3.310498E1,2.7687485E1,3.1356146E0,0E0,5.5332756E0,5.7243347E0,6.013182E1,1.1100649E1,1.0770081E1,8.684937E0,1.13302E1,1.969844E1,4.154878E1,2.395264E1,3.993434E1,2.855304E1,0E0,0E0,0E0,0E0,0E0,0E0,0E0,0E0,0E0,0E0,0E0,0E0,0E0,0E0,0E0,0E0,0E0,0E0,0E0,0E0,0E0,0E0,0E0,0E0,0E0,0E0,0E0,0E0,0E0,0E0],"parents":[2147483647,0,0,1,1,2,2,3,3,4,4,5,5,6,6,7,7,8,8,9,9,10,10,11,11,12,12,13,13,14,14,15,15,16,16,17,17,19,19,20,20,21,21,22,22,23,23,24,24,25,25,26,26,27,27,28,28,29,29,30,30],"right_children":[2,4,6,8,10,12,14,16,18,20,22,24,26,28,30,32,34,36,-1,38,40,42,44,46,48,50,52,54,56,58,60,-1,-1,-1,-1,-1,-1,-1,-1,-1,-1,-1,-1,-1,-1,-1,-1,-1,-1,-1,-1,-1,-1,-1,-1,-1,-1,-1,-1,-1,-1],"split_conditions":[9.042E3,1.55E3,1.3E1,2E1,6E0,4.5E4,1.5E1,1.06E2,1.7E1,5E0,1.5E1,9E0,2.24869E5,1.1948E4,3.5489E4,6E0,8.5E2,6E0,1.1204251E-1,1.69E3,1.755E3,1.4E1,1.69E3,7E0,1.5317E4,4E0,1E0,1.4E1,5.74125E5,2E1,1.95537E5,-6.8917857E-3,-6.2556736E-2,-2.701377E-2,-7.795378E-2,5.732806E-3,-1.2099438E-1,-7.162172E-2,-1.110809E-2,1.3774298E-1,2.3360541E-1,-1.2298397E-2,-2.0257226E-1,-2.2301154E-1,1.3470736E-2,4.707115E-2,1.7433021E-2,3.031827E-2,8.4047735E-2,9.5339626E-2,1.390827E-1,1.18823186E-1,2.5084293E-1,8.858388E-2,-1.599332E-1,-3.8450852E-2,2.5105748E-2,3.9242845E-2,3.243959E-1,1.02169156E-1,2.0070525E-1],"split_indices":[0,0,1,1,1,0,1,0,0,1,1,1,0,0,0,1,0,0,0,0,0,1,0,1,0,1,1,1,0,1,0,0,0,0,0,0,0,0,0,0,0,0,0,0,0,0,0,0,0,0,0,0,0,0,0,0,0,0,0,0,0],"split_type":[0,0,0,0,0,0,0,0,0,0,0,0,0,0,0,0,0,0,0,0,0,0,0,0,0,0,0,0,0,0,0,0,0,0,0,0,0,0,0,0,0,0,0,0,0,0,0,0,0,0,0,0,0,0,0,0,0,0,0,0,0],"sum_hessian":[6.133E3,3.783E3,2.35E3,2.36E3,1.423E3,1.202E3,1.148E3,2.269E3,9.1E1,3.52E2,1.071E3,8.82E2,3.2E2,5.5E2,5.98E2,1.508E3,7.61E2,8.3E1,8E0,3.05E2,4.7E1,7.52E2,3.19E2,6.02E2,2.8E2,2.64E2,5.6E1,5E1,5E2,3.77E2,2.21E2,1.16E2,1.392E3,6.33E2,1.28E2,8.2E1,1E0,1.5E1,2.9E2,1.5E1,3.2E1,7.36E2,1.6E1,1E0,3.18E2,4.28E2,1.74E2,3.6E1,2.44E2,1.4E2,1.24E2,2.1E1,3.5E1,4.3E1,7E0,4.32E2,6.8E1,3.73E2,4E0,1.85E2,3.6E1],"tree_param":{"num_deleted":"0","num_feature":"2","num_nodes":"61","size_leaf_vector":"1"}},{"base_weights":[1.4179973E-3,-3.4125015E-1,3.7017715E-1,-4.7862557E-1,-1.465584E-1,2.4744123E-1,6.794283E-1,-5.095172E-1,-2.135351E-2,3.227019E-2,-2.1031427E-1,2.3444898E-1,2.9614636E-1,1.1558431E0,3.41071E-1,-4.473258E-1,-7.246048E-1,1.1929121E-2,-4.2946666E-1,-2.5046098E-1,4.4220224E-1,1.7784731E-1,-2.5212163E-1,3.7381837E-1,7.365054E-2,1.0173413E0,1.8450836E0,-2.165324E-1,1.163153E0,6.542159E-2,-4.5929585E-2,-8.236584E-2,-3.8527448E-2,2.4786923E-2,-3.3377805E-3,-1.1494465E-1,-1.9578839E-2,-1.673895E-2,-6.969313E-2,9.951947E-2,2.5437076E-3,6.93065E-3,1.7763183E-1,-3.8927402E-2,-1.1564152E-2,1.7821647E-2,5.619666E-2,-3.133065E-2,3.0989742E-2,8.389982E-2,1.20497786E-1,1.07480995E-1,2.264554E-1,1.2316936E-1,-4.4285595E-2,9.8429345E-2,1.9196658E-1],"categories":[],"categories_nodes":[],"categories_segments":[],"categories_sizes":[],"default_left":[0,0,0,0,0,0,0,0,0,0,0,0,0,0,0,0,0,0,0,0,0,0,0,0,0,0,0,0,0,0,0,0,0,0,0,0,0,0,0,0,0,0,0,0,0,0,0,0,0,0,0,0,0,0,0,0,0],"id":11,"left_children":[1,3,5,7,9,11,13,15,17,19,21,23,-1,25,27,29,31,33,35,37,39,41,43,45,47,49,51,53,55,-1,-1,-1,-1,-1,-1,-1,-1,-1,-1,-1,-1,-1,-1,-1,-1,-1,-1,-1,-1,-1,-1,-1,-1,-1,-1,-1,-1],"loss_changes":[7.752309E2,8.498166E1,1.1199249E2,2.6319763E1,1.5022398E1,7.3953766E1,1.3485123E2,2.3031403E1,1.6215096E0,4.032825E1,1.5802235E1,4.7213562E1,0E0,3.1343384E1,2.2578258E2,1.8193268E1,1.2791306E1,1.1948324E0,1.2891445E0,7.5236654E0,3.2701134E1,1.6359325E1,1.637117E1,4.1449493E1,8.9686134E1,8.7604065E0,1.5983139E1,9.690915E1,2.5037079E1,0E0,0E0,0E0,0E0,0E0,0E0,0E0,0E0,0E0,0E0,0E0,0E0,0E0,0E0,0E0,0E0,0E0,0E0,0E0,0E0,0E0,0E0,0E0,0E0,0E0,0E0,0E0,0E0],"parents":[2147483647,0,0,1,1,2,2,3,3,4,4,5,5,6,6,7,7,8,8,9,9,10,10,11,11,13,13,14,14,15,15,16,16,17,17,18,18,19,19,20,20,21,21,22,22,23,23,24,24,25,25,26,26,27,27,28,28],"right_children":[2,4,6,8,10,12,14,16,18,20,22,24,-1,26,28,30,32,34,36,38,40,42,44,46,48,50,52,54,56,-1,-1,-1,-1,-1,-1,-1,-1,-1,-1,-1,-1,-1,-1,-1,-1,-1,-1,-1,-1,-1,-1,-1,-1,-1,-1,-1,-1],"split_conditions":[5.188E3,2.38E2,4.3185E4,1.8E1,9E0,2E1,1.3E1,1.4E1,6E0,4E0,3.01E2,1.2E1,2.9614636E-1,2.24869E5,1.4E1,3E0,6.4E1,1.9E1,1.7E1,3E0,6E0,1.4E1,1.905E3,1.3853E4,1.5E1,4E0,1E0,6.2484E4,2.50486E5,6.542159E-2,-4.5929585E-2,-8.236584E-2,-3.8527448E-2,2.4786923E-2,-3.3377805E-3,-1.1494465E-1,-1.9578839E-2,-1.673895E-2,-6.969313E-2,9.951947E-2,2.5437076E-3,6.93065E-3,1.7763183E-1,-3.8927402E-2,-1.1564152E-2,1.7821647E-2,5.619666E-2,-3.133065E-2,3.0989742E-2,8.389982E-2,1.20497786E-1,1.07480995E-1,2.264554E-1,1.2316936E-1,-4.4285595E-2,9.8429345E-2,1.9196658E-1],"split_indices":[0,0,0,1,1,1,1,1,0,1,0,1,0,0,1,1,0,1,0,1,1,1,0,0,1,1,1,0,0,0,0,0,0,0,0,0,0,0,0,0,0,0,0,0,0,0,0,0,0,0,0,0,0,0,0,0,0],"split_type":[0,0,0,0,0,0,0,0,0,0,0,0,0,0,0,0,0,0,0,0,0,0,0,0,0,0,0,0,0,0,0,0,0,0,0,0,0,0,0,0,0,0,0,0,0,0,0,0,0,0,0,0,0,0,0,0,0],"sum_hessian":[6.133E3,3.179E3,2.954E3,1.863E3,1.316E3,2.116E3,8.38E2,1.745E3,1.18E2,3.46E2,9.7E2,2.107E3,9E0,3.47E2,4.91E2,1.356E3,3.89E2,1.1E2,8E0,2.05E2,1.41E2,9.4E1,8.76E2,1.128E3,9.79E2,2.91E2,5.6E1,2.93E2,1.98E2,1.4E1,1.342E3,3E2,8.9E1,1.7E1,9.3E1,1E0,7E0,1.74E2,3.1E1,6E1,8.1E1,8.9E1,5E0,4.36E2,4.4E2,5.54E2,5.74E2,3.71E2,6.08E2,1.52E2,1.39E2,2.1E1,3.5E1,3.9E1,2.54E2,1.62E2,3.6E1],"tree_param":{"num_deleted":"0","num_feature":"2","num_nodes":"57","size_leaf_vector":"1"}},{"base_weights":[1.4740756E-3,-2.517071E-1,4.0897563E-1,-3.9126587E-1,-2.0141127E-2,5.9077936E-1,2.1827166E-1,-4.119752E-1,1.2396747E-1,1.3635774E-1,-7.165601E-2,4.1304654E-1,1.0778426E0,-1.8052338E-1,5.8474547E-1,6.591635E-2,-4.2035007E-1,2.8308533E-2,1.00301005E-1,-1.24986954E-1,1.7995894E0,-1.4089322E-1,9.149174E-2,3.073105E-1,6.384764E-1,9.471726E-1,1.6664336E0,2.6085344E-1,-2.8995988E-1,4.65501E-1,1.3752692E0,-4.8238322E-2,-2.9663077E-2,5.4962235E-3,-1.0919743E-1,-1.6479844E-2,2.4677195E-2,1.1549959E-1,2.0575865E-1,-1.02303615E-2,-1.8055788E-1,-2.099146E-1,1.0493933E-2,3.7844893E-2,1.31163625E-2,-4.3382644E-4,6.7474164E-2,7.754282E-2,1.13332294E-1,1.9221696E-1,5.4724284E-2,8.059738E-2,-1.0930641E-1,-7.482954E-2,-8.597425E-3,4.2440217E-2,3.0530494E-1,1.212371E-1,1.9307268E-1],"categories":[],"categories_nodes":[],"categories_segments":[],"categories_sizes":[],"default_left":[0,0,0,0,0,0,0,0,0,0,0,0,0,0,0,0,0,0,0,0,0,0,0,0,0,0,0,0,0,0,0,0,0,0,0,0,0,0,0,0,0,0,0,0,0,0,0,0,0,0,0,0,0,0,0,0,0,0,0],"id":12,"left_children":[1,3,5,7,9,11,13,15,17,19,21,23,25,27,29,-1,31,33,-1,35,37,39,41,43,45,47,49,51,53,55,57,-1,-1,-1,-1,-1,-1,-1,-1,-1,-1,-1,-1,-1,-1,-1,-1,-1,-1,-1,-1,-1,-1,-1,-1,-1,-1,-1,-1],"loss_changes":[6.329583E2,1.2227991E2,8.1381836E1,2.5243256E1,1.14900875E1,1.0369507E2,1.6802954E2,2.064038E1,7.7077274E0,1.5366583E2,1.2122089E1,2.0851028E1,2.3110077E1,2.6690443E1,5.582486E1,0E0,1.714801E1,2.5682304E0,0E0,4.569551E0,5.6060486E0,4.818768E1,9.647102E0,7.506439E0,6.553543E0,7.5933228E0,1.5262482E1,8.206625E1,4.1259945E1,5.421646E1,4.716919E0,0E0,0E0,0E0,0E0,0E0,0E0,0E0,0E0,0E0,0E0,0E0,0E0,0E0,0E0,0E0,0E0,0E0,0E0,0E0,0E0,0E0,0E0,0E0,0E0,0E0,0E0,0E0,0E0],"parents":[2147483647,0,0,1,1,2,2,3,3,4,4,5,5,6,6,7,7,8,8,9,9,10,10,11,11,12,12,13,13,14,14,16,16,17,17,19,19,20,20,21,21,22,22,23,23,24,24,25,25,26,26,27,27,28,28,29,29,30,30],"right_children":[2,4,6,8,10,12,14,16,18,20,22,24,26,28,30,-1,32,34,-1,36,38,40,42,44,46,48,50,52,54,56,58,-1,-1,-1,-1,-1,-1,-1,-1,-1,-1,-1,-1,-1,-1,-1,-1,-1,-1,-1,-1,-1,-1,-1,-1,-1,-1,-1,-1],"split_conditions":[9.042E3,1.55E3,1.3E1,2E1,6E0,4.5E4,1.5E1,2E0,1.7E1,5E0,1.5E1,9E0,2.24869E5,1.6974E4,8.4366E4,6.591635E-2,1.06E2,6E0,1.00301005E-1,7.459E3,1.755E3,1.4E1,1.69E3,7E0,1.3853E4,4E0,8E0,1.4E1,4.7252E4,2E1,3.03518E5,-4.8238322E-2,-2.9663077E-2,5.4962235E-3,-1.0919743E-1,-1.6479844E-2,2.4677195E-2,1.1549959E-1,2.0575865E-1,-1.02303615E-2,-1.8055788E-1,-2.099146E-1,1.0493933E-2,3.7844893E-2,1.31163625E-2,-4.3382644E-4,6.7474164E-2,7.754282E-2,1.13332294E-1,1.9221696E-1,5.4724284E-2,8.059738E-2,-1.0930641E-1,-7.482954E-2,-8.597425E-3,4.2440217E-2,3.0530494E-1,1.212371E-1,1.9307268E-1],"split_indices":[0,0,1,1,1,0,1,1,0,1,1,1,0,0,0,0,0,0,0,0,0,1,0,1,0,1,1,1,0,1,0,0,0,0,0,0,0,0,0,0,0,0,0,0,0,0,0,0,0,0,0,0,0,0,0,0,0,0,0],"split_type":[0,0,0,0,0,0,0,0,0,0,0,0,0,0,0,0,0,0,0,0,0,0,0,0,0,0,0,0,0,0,0,0,0,0,0,0,0,0,0,0,0,0,0,0,0,0,0,0,0,0,0,0,0,0,0,0,0,0,0],"sum_hessian":[6.133E3,3.783E3,2.35E3,2.36E3,1.423E3,1.202E3,1.148E3,2.269E3,9.1E1,3.52E2,1.071E3,8.82E2,3.2E2,5.5E2,5.98E2,1.7E1,2.252E3,8.3E1,8E0,3.05E2,4.7E1,7.52E2,3.19E2,6.02E2,2.8E2,2.64E2,5.6E1,1.09E2,4.41E2,5.21E2,7.7E1,1.498E3,7.54E2,8.2E1,1E0,2.76E2,2.9E1,1.5E1,3.2E1,7.36E2,1.6E1,1E0,3.18E2,4.28E2,1.74E2,1.5E1,2.65E2,1.4E2,1.24E2,4.5E1,1.1E1,7.8E1,3.1E1,1.35E2,3.06E2,5.14E2,7E0,6.2E1,1.5E1],"tree_param":{"num_deleted":"0","num_feature":"2","num_nodes":"59","size_leaf_vector":"1"}},{"base_weights":[1.4945174E-3,-2.819254E-1,2.972817E-1,-3.903235E-1,-1.2757117E-1,1.9677138E-1,5.5616975E-1,-3.6617678E-1,-8.068145E-1,2.2489049E-2,-1.7607987E-1,1.8595232E-1,2.508601E-1,9.3942857E-1,2.8395382E-1,-3.919114E-1,1.02046E0,-1.0048083E0,-3.9292043E-1,-1.7234975E-1,4.7281954E-1,-2.2696264E-1,4.6208434E-2,2.9854473E-1,5.487853E-2,8.2598E-1,1.5041225E0,-1.8469083E-1,9.748964E-1,-4.204226E-2,1.4750621E-3,8.4352456E-2,1.2450589E-1,-1.05911195E-1,-4.7193002E-2,-4.6613116E-2,-2.6911145E-2,-1.5723724E-2,-1.7561089E-1,1.6310571E-1,-5.285135E-3,-2.1326927E-2,-1.400676E-1,7.580496E-2,-1.7784314E-2,1.564834E-2,4.7403675E-2,-2.5496203E-2,2.4129158E-2,6.8172425E-2,9.7773105E-2,7.887346E-2,1.899523E-1,1.1299211E-1,-3.901802E-2,8.2626045E-2,1.6033494E-1],"categories":[],"categories_nodes":[],"categories_segments":[],"categories_sizes":[],"default_left":[0,0,0,0,0,0,0,0,0,0,0,0,0,0,0,0,0,0,0,0,0,0,0,0,0,0,0,0,0,0,0,0,0,0,0,0,0,0,0,0,0,0,0,0,0,0,0,0,0,0,0,0,0,0,0,0,0],"id":13,"left_children":[1,3,5,7,9,11,13,15,17,19,21,23,-1,25,27,29,31,33,35,37,39,41,43,45,47,49,51,53,55,-1,-1,-1,-1,-1,-1,-1,-1,-1,-1,-1,-1,-1,-1,-1,-1,-1,-1,-1,-1,-1,-1,-1,-1,-1,-1,-1,-1],"loss_changes":[5.143092E2,5.237062E1,7.80054E1,1.8209229E1,9.423281E0,5.365908E1,8.726544E1,6.252678E1,7.800041E0,2.7895655E1,1.1072294E1,3.1786926E1,0E0,2.1051819E1,1.5949287E2,1.9832672E1,2.2142792E-1,1.4389648E0,1.8273973E-1,5.037355E0,5.853598E1,1.2494671E1,2.9321327E1,2.8820412E1,5.764657E1,5.725601E0,1.4625046E1,7.9861664E1,1.7263931E1,0E0,0E0,0E0,0E0,0E0,0E0,0E0,0E0,0E0,0E0,0E0,0E0,0E0,0E0,0E0,0E0,0E0,0E0,0E0,0E0,0E0,0E0,0E0,0E0,0E0,0E0,0E0,0E0],"parents":[2147483647,0,0,1,1,2,2,3,3,4,4,5,5,6,6,7,7,8,8,9,9,10,10,11,11,13,13,14,14,15,15,16,16,17,17,18,18,19,19,20,20,21,21,22,22,23,23,24,24,25,25,26,26,27,27,28,28],"right_children":[2,4,6,8,10,12,14,16,18,20,22,24,-1,26,28,30,32,34,36,38,40,42,44,46,48,50,52,54,56,-1,-1,-1,-1,-1,-1,-1,-1,-1,-1,-1,-1,-1,-1,-1,-1,-1,-1,-1,-1,-1,-1,-1,-1,-1,-1,-1,-1],"split_conditions":[5.005E3,2.26E2,4.3185E4,1.83E2,9E0,2E1,1.3E1,1.64E2,2.03E2,5E0,1.4E1,1.2E1,2.508601E-1,2.24869E5,1.4E1,1.8E1,1.74E2,1.4E1,2.18E2,4.994E3,6E0,4.859E3,6.76E2,1.5317E4,1.5E1,4E0,1E0,6.2484E4,2.50486E5,-4.204226E-2,1.4750621E-3,8.4352456E-2,1.2450589E-1,-1.05911195E-1,-4.7193002E-2,-4.6613116E-2,-2.6911145E-2,-1.5723724E-2,-1.7561089E-1,1.6310571E-1,-5.285135E-3,-2.1326927E-2,-1.400676E-1,7.580496E-2,-1.7784314E-2,1.564834E-2,4.7403675E-2,-2.5496203E-2,2.4129158E-2,6.8172425E-2,9.7773105E-2,7.887346E-2,1.899523E-1,1.1299211E-1,-3.901802E-2,8.2626045E-2,1.6033494E-1],"split_indices":[0,0,0,0,1,1,1,0,0,1,1,1,0,0,1,1,0,1,0,0,1,0,0,0,1,1,1,0,0,0,0,0,0,0,0,0,0,0,0,0,0,0,0,0,0,0,0,0,0,0,0,0,0,0,0,0,0],"split_type":[0,0,0,0,0,0,0,0,0,0,0,0,0,0,0,0,0,0,0,0,0,0,0,0,0,0,0,0,0,0,0,0,0,0,0,0,0,0,0,0,0,0,0,0,0,0,0,0,0,0,0,0,0,0,0,0,0],"sum_hessian":[6.133E3,3.132E3,3.001E3,1.839E3,1.293E3,2.163E3,8.38E2,1.74E3,9.9E1,3.16E2,9.77E2,2.154E3,9E0,3.47E2,4.91E2,1.709E3,3.1E1,6.6E1,3.3E1,2.21E2,9.5E1,7.95E2,1.82E2,1.158E3,9.96E2,2.91E2,5.6E1,2.93E2,1.98E2,1.597E3,1.12E2,2E1,1.1E1,5.9E1,7E0,1.9E1,1.4E1,2.2E2,1E0,2.9E1,6.6E1,7.87E2,8E0,4.3E1,1.39E2,6.41E2,5.17E2,3.74E2,6.22E2,1.52E2,1.39E2,2.1E1,3.5E1,3.9E1,2.54E2,1.62E2,3.6E1],"tree_param":{"num_deleted":"0","num_feature":"2","num_nodes":"57","size_leaf_vector":"1"}},{"base_weights":[1.4869688E-3,-2.0510751E-1,3.340059E-1,-3.142786E-1,-5.5275178E-3,4.805807E-1,1.8025179E-1,-1.7444486E-2,-3.394129E-1,2.180996E-1,-3.3077944E-2,3.6521658E-1,9.915413E-1,-1.456197E-1,4.7970912E-1,-1.9385496E-1,1.428272E0,-3.5817254E-1,1.05535634E-1,-9.62897E-2,5.5598515E-1,-5.0723344E-1,5.141893E-3,1.8416315E-1,4.5980868E-1,1.193464E0,6.5442425E-1,5.1113665E-3,-4.230223E-1,2.8374118E-1,8.1122345E-1,7.065656E-2,-2.5379801E-2,2.6154765E-1,8.938033E-2,-4.248404E-2,-2.468649E-2,2.2785568E-3,8.661435E-2,7.986408E-3,-5.4030437E-2,-1.7092865E-2,7.375242E-2,-2.8840095E-2,-1.2021007E-1,2.0829425E-3,-4.1305937E-2,1.024387E-1,1.6336208E-2,2.8774763E-2,6.2419634E-2,7.110166E-2,2.5272468E-1,6.9933236E-2,3.2295596E-2,-2.4774065E-2,5.4847658E-2,-8.075663E-2,2.8531918E-2,2.5599254E-2,2.3025933E-1,6.782167E-2,1.2792435E-1],"categories":[],"categories_nodes":[],"categories_segments":[],"categories_sizes":[],"default_left":[0,0,0,0,0,0,0,0,0,0,0,0,0,0,0,0,0,0,0,0,0,0,0,0,0,0,0,0,0,0,0,0,0,0,0,0,0,0,0,0,0,0,0,0,0,0,0,0,0,0,0,0,0,0,0,0,0,0,0,0,0,0,0],"id":14,"left_children":[1,3,5,7,9,11,13,15,17,19,21,23,25,27,29,31,33,35,37,39,41,43,45,47,49,51,53,55,57,59,61,-1,-1,-1,-1,-1,-1,-1,-1,-1,-1,-1,-1,-1,-1,-1,-1,-1,-1,-1,-1,-1,-1,-1,-1,-1,-1,-1,-1,-1,-1,-1,-1],"loss_changes":[4.214533E2,8.244542E1,5.2896637E1,1.8243027E1,8.256824E0,7.055054E1,1.12194565E2,4.924447E1,1.8860474E1,1.5668991E1,2.162233E1,1.6750397E1,1.4262772E1,2.304123E1,3.8684555E1,9.462843E0,1.0987278E1,1.5953369E1,5.7707767E0,6.065695E0,9.495453E0,1.3186609E1,7.2580056E0,5.7575445E0,1.8064026E1,8.635988E1,1.0394211E0,4.932186E1,5.3073772E1,2.058628E1,1.29518585E1,0E0,0E0,0E0,0E0,0E0,0E0,0E0,0E0,0E0,0E0,0E0,0E0,0E0,0E0,0E0,0E0,0E0,0E0,0E0,0E0,0E0,0E0,0E0,0E0,0E0,0E0,0E0,0E0,0E0,0E0,0E0,0E0],"parents":[2147483647,0,0,1,1,2,2,3,3,4,4,5,5,6,6,7,7,8,8,9,9,10,10,11,11,12,12,13,13,14,14,15,15,16,16,17,17,18,18,19,19,20,20,21,21,22,22,23,23,24,24,25,25,26,26,27,27,28,28,29,29,30,30],"right_children":[2,4,6,8,10,12,14,16,18,20,22,24,26,28,30,32,34,36,38,40,42,44,46,48,50,52,54,56,58,60,62,-1,-1,-1,-1,-1,-1,-1,-1,-1,-1,-1,-1,-1,-1,-1,-1,-1,-1,-1,-1,-1,-1,-1,-1,-1,-1,-1,-1,-1,-1,-1,-1],"split_conditions":[9.042E3,1.83E3,1.3E1,6E0,2.4E3,6.2484E4,1.5E1,5E0,2E1,2.056E3,2.723E3,1.5317E4,8E0,1.30825E5,3.5489E4,1E0,6E0,9.3E1,1.7E1,1.981E3,5E0,2.594E3,8.665E3,9.171E3,4E0,4E0,2.24869E5,4.7252E4,5.74125E5,2E1,1.54925E5,7.065656E-2,-2.5379801E-2,2.6154765E-1,8.938033E-2,-4.248404E-2,-2.468649E-2,2.2785568E-3,8.661435E-2,7.986408E-3,-5.4030437E-2,-1.7092865E-2,7.375242E-2,-2.8840095E-2,-1.2021007E-1,2.0829425E-3,-4.1305937E-2,1.024387E-1,1.6336208E-2,2.8774763E-2,6.2419634E-2,7.110166E-2,2.5272468E-1,6.9933236E-2,3.2295596E-2,-2.4774065E-2,5.4847658E-2,-8.075663E-2,2.8531918E-2,2.5599254E-2,2.3025933E-1,6.782167E-2,1.2792435E-1],"split_indices":[0,0,1,1,0,0,1,1,1,0,0,0,1,0,0,1,0,0,0,0,1,0,0,0,1,1,0,0,0,1,0,0,0,0,0,0,0,0,0,0,0,0,0,0,0,0,0,0,0,0,0,0,0,0,0,0,0,0,0,0,0,0,0],"split_type":[0,0,0,0,0,0,0,0,0,0,0,0,0,0,0,0,0,0,0,0,0,0,0,0,0,0,0,0,0,0,0,0,0,0,0,0,0,0,0,0,0,0,0,0,0,0,0,0,0,0,0,0,0,0,0,0,0,0,0,0,0,0,0],"sum_hessian":[6.133E3,3.783E3,2.35E3,2.445E3,1.338E3,1.202E3,1.148E3,1.91E2,2.254E3,1.46E2,1.192E3,9.82E2,2.2E2,5.5E2,5.98E2,1.71E2,2E1,2.163E3,9.1E1,7.6E1,7E1,8.8E1,1.104E3,3.38E2,6.44E2,1.36E2,8.4E1,3.57E2,1.93E2,3.77E2,2.21E2,1E1,1.61E2,5E0,1.5E1,1.351E3,8.12E2,8.3E1,8E0,5.5E1,2.1E1,1.4E1,5.6E1,6.8E1,2E1,1.065E3,3.9E1,7E0,3.31E2,3.16E2,3.28E2,1.01E2,3.5E1,7.3E1,1.1E1,2.44E2,1.13E2,1.25E2,6.8E1,3.73E2,4E0,1.74E2,4.7E1],"tree_param":{"num_deleted":"0","num_feature":"2","num_nodes":"63","size_leaf_vector":"1"}},{"base_weights":[1.5511954E-3,-1.8453306E-1,3.0105832E-1,-2.8267962E-1,-5.1073576E-3,4.330511E-1,1.6260019E-1,-1.3636206E-2,-3.054617E-1,-9.121585E-3,1.3369215E-1,2.9990605E-1,7.979546E-1,-1.3109827E-1,4.3249208E-1,-1.7420593E-1,1.3021556E0,-3.2238606E-1,9.594848E-2,1.219245E-1,-4.9001835E-2,-1.6836857E-2,3.492637E-1,9.6134883E-1,5.1251787E-1,2.843205E-1,-2.3418643E-1,4.0454018E-1,2.4468718E-1,6.423321E-2,-2.2857454E-2,2.3975198E-1,8.100093E-2,-3.8238756E-2,-2.2220844E-2,2.0534364E-3,7.891527E-2,-7.2192173E-3,1.7652804E-1,2.605399E-2,-8.090184E-3,1.9216737E-2,-2.7584512E-2,1.941155E-2,4.5026075E-2,5.9088435E-2,2.3673943E-1,1.5353215E-2,5.6679208E-2,7.760308E-2,-9.384744E-2,-6.318159E-2,-5.7275053E-3,3.0960739E-2,1.0261536E-1],"categories":[],"categories_nodes":[],"categories_segments":[],"categories_sizes":[],"default_left":[0,0,0,0,0,0,0,0,0,0,0,0,0,0,0,0,0,0,0,0,0,0,0,0,0,0,0,0,0,0,0,0,0,0,0,0,0,0,0,0,0,0,0,0,0,0,0,0,0,0,0,0,0,0,0],"id":15,"left_children":[1,3,5,7,9,11,13,15,17,19,-1,21,23,25,27,29,31,33,35,37,39,41,43,45,47,49,51,53,-1,-1,-1,-1,-1,-1,-1,-1,-1,-1,-1,-1,-1,-1,-1,-1,-1,-1,-1,-1,-1,-1,-1,-1,-1,-1,-1],"loss_changes":[3.4192517E2,6.663484E1,4.2895233E1,1.49882965E1,7.225668E0,5.820854E1,9.113429E1,4.07919E1,1.535051E1,6.9881115E0,0E0,1.3810425E1,1.44783325E1,2.3663021E1,3.2737297E1,7.782594E0,9.3786545E0,1.2922409E1,4.793315E0,9.96563E1,1.014232E1,6.549067E0,1.1884102E1,1.043418E2,2.2315369E0,6.6866974E1,3.1056376E1,3.4617096E1,0E0,0E0,0E0,0E0,0E0,0E0,0E0,0E0,0E0,0E0,0E0,0E0,0E0,0E0,0E0,0E0,0E0,0E0,0E0,0E0,0E0,0E0,0E0,0E0,0E0,0E0,0E0],"parents":[2147483647,0,0,1,1,2,2,3,3,4,4,5,5,6,6,7,7,8,8,9,9,11,11,12,12,13,13,14,14,15,15,16,16,17,17,18,18,19,19,20,20,21,21,22,22,23,23,24,24,25,25,26,26,27,27],"right_children":[2,4,6,8,10,12,14,16,18,20,-1,22,24,26,28,30,32,34,36,38,40,42,44,46,48,50,52,54,-1,-1,-1,-1,-1,-1,-1,-1,-1,-1,-1,-1,-1,-1,-1,-1,-1,-1,-1,-1,-1,-1,-1,-1,-1,-1,-1],"split_conditions":[9.042E3,1.83E3,1.3E1,6E0,2E1,4.5E4,1.5E1,5E0,2E1,6E0,1.3369215E-1,2E0,8E0,1.6974E4,2E1,1E0,6E0,9.3E1,1.7E1,5E0,2.357E3,2.0688E4,1.5317E4,4E0,4.8976E4,1.4E1,4.7252E4,8.4366E4,2.4468718E-1,6.423321E-2,-2.2857454E-2,2.3975198E-1,8.100093E-2,-3.8238756E-2,-2.2220844E-2,2.0534364E-3,7.891527E-2,-7.2192173E-3,1.7652804E-1,2.605399E-2,-8.090184E-3,1.9216737E-2,-2.7584512E-2,1.941155E-2,4.5026075E-2,5.9088435E-2,2.3673943E-1,1.5353215E-2,5.6679208E-2,7.760308E-2,-9.384744E-2,-6.318159E-2,-5.7275053E-3,3.0960739E-2,1.0261536E-1],"split_indices":[0,0,1,1,1,0,1,1,1,1,0,1,1,0,1,1,0,0,0,1,0,0,0,1,0,1,0,0,0,0,0,0,0,0,0,0,0,0,0,0,0,0,0,0,0,0,0,0,0,0,0,0,0,0,0],"split_type":[0,0,0,0,0,0,0,0,0,0,0,0,0,0,0,0,0,0,0,0,0,0,0,0,0,0,0,0,0,0,0,0,0,0,0,0,0,0,0,0,0,0,0,0,0,0,0,0,0,0,0,0,0,0,0],"sum_hessian":[6.133E3,3.783E3,2.35E3,2.445E3,1.338E3,1.202E3,1.148E3,1.91E2,2.254E3,1.335E3,3E0,8.82E2,3.2E2,5.5E2,5.98E2,1.71E2,2E1,2.163E3,9.1E1,3.11E2,1.024E3,1.19E2,7.63E2,2.02E2,1.18E2,1.09E2,4.41E2,5.91E2,7E0,1E1,1.61E2,5E0,1.5E1,1.351E3,8.12E2,8.3E1,8E0,2.79E2,3.2E1,9.5E1,9.29E2,6.6E1,5.3E1,3.02E2,4.61E2,1.61E2,4.1E1,1.6E1,1.02E2,7.8E1,3.1E1,1.35E2,3.06E2,5.14E2,7.7E1],"tree_param":{"num_deleted":"0","num_feature":"2","num_nodes":"55","size_leaf_vector":"1"}},{"base_weights":[1.6276096E-3,-2.069954E-1,2.1935388E-1,-2.8455094E-1,-9.655556E-2,1.4457792E-1,4.1195917E-1,-2.614389E-1,-6.840855E-1,1.6107993E-1,-1.22543715E-1,1.3594918E-1,1.9896142E-1,8.374653E-1,2.6492593E-1,-2.8433767E-1,9.703824E-1,-8.604053E-1,-3.165116E-1,8.8418715E-2,1.5147965E-1,-4.1339394E-1,-8.284061E-2,1.6398677E-1,-2.1466948E-1,5.1914245E-1,2.1362917E-1,3.9792165E-2,7.466706E-1,-2.2239348E-2,-4.562478E-2,8.078625E-2,1.173927E-1,-9.088402E-2,-3.8959254E-2,-3.7728697E-2,-2.1437695E-2,-1.913258E-2,4.1399878E-2,-1.8566733E-2,-5.114202E-2,2.2425128E-2,-1.2910216E-2,1.1824264E-2,3.1476643E-2,-1.4384399E-2,-8.897262E-2,5.6900915E-2,-4.737848E-3,4.4319462E-2,-2.9799009E-2,6.567993E-2,1.4771613E-1],"categories":[],"categories_nodes":[],"categories_segments":[],"categories_sizes":[],"default_left":[0,0,0,0,0,0,0,0,0,0,0,0,0,0,0,0,0,0,0,0,0,0,0,0,0,0,0,0,0,0,0,0,0,0,0,0,0,0,0,0,0,0,0,0,0,0,0,0,0,0,0,0,0],"id":16,"left_children":[1,3,5,7,9,11,13,15,17,19,21,23,-1,25,27,29,31,33,35,37,-1,39,41,43,45,47,-1,49,51,-1,-1,-1,-1,-1,-1,-1,-1,-1,-1,-1,-1,-1,-1,-1,-1,-1,-1,-1,-1,-1,-1,-1,-1],"loss_changes":[2.7866833E2,2.6807358E1,4.3175995E1,1.6811783E1,8.68368E0,3.4181137E1,5.2268936E1,4.9384567E1,6.208729E0,1.1571224E1,1.3545801E1,2.1219936E1,0E0,8.7781876E1,6.7755905E1,1.8108047E1,1.1018944E-1,1.1737785E0,1.3016558E-1,1.046224E1,0E0,3.052618E0,1.4746932E1,1.3729763E1,7.521813E0,4.9425507E0,0E0,5.8316025E1,1.20941925E1,0E0,0E0,0E0,0E0,0E0,0E0,0E0,0E0,0E0,0E0,0E0,0E0,0E0,0E0,0E0,0E0,0E0,0E0,0E0,0E0,0E0,0E0,0E0,0E0],"parents":[2147483647,0,0,1,1,2,2,3,3,4,4,5,5,6,6,7,7,8,8,9,9,10,10,11,11,13,13,14,14,15,15,16,16,17,17,18,18,19,19,21,21,22,22,23,23,24,24,25,25,27,27,28,28],"right_children":[2,4,6,8,10,12,14,16,18,20,22,24,-1,26,28,30,32,34,36,38,-1,40,42,44,46,48,-1,50,52,-1,-1,-1,-1,-1,-1,-1,-1,-1,-1,-1,-1,-1,-1,-1,-1,-1,-1,-1,-1,-1,-1,-1,-1],"split_conditions":[5.005E3,2.26E2,4.3185E4,1.83E2,3.01E2,2E1,8E0,1.64E2,2.03E2,1.4E1,3.76E2,1.9E1,1.9896142E-1,4E0,1.4E1,2.3E1,1.74E2,1.4E1,2.18E2,2.65E2,1.5147965E-1,3.23E2,8.5E2,1.5E1,3.3637E4,3E0,2.1362917E-1,1.23214E5,3.03518E5,-2.2239348E-2,-4.562478E-2,8.078625E-2,1.173927E-1,-9.088402E-2,-3.8959254E-2,-3.7728697E-2,-2.1437695E-2,-1.913258E-2,4.1399878E-2,-1.8566733E-2,-5.114202E-2,2.2425128E-2,-1.2910216E-2,1.1824264E-2,3.1476643E-2,-1.4384399E-2,-8.897262E-2,5.6900915E-2,-4.737848E-3,4.4319462E-2,-2.9799009E-2,6.567993E-2,1.4771613E-1],"split_indices":[0,0,0,0,0,1,1,0,0,1,0,1,0,1,1,0,0,1,0,0,0,0,0,1,0,1,0,0,0,0,0,0,0,0,0,0,0,0,0,0,0,0,0,0,0,0,0,0,0,0,0,0,0],"split_type":[0,0,0,0,0,0,0,0,0,0,0,0,0,0,0,0,0,0,0,0,0,0,0,0,0,0,0,0,0,0,0,0,0,0,0,0,0,0,0,0,0,0,0,0,0,0,0,0,0,0,0,0,0],"sum_hessian":[6.133E3,3.132E3,3.001E3,1.839E3,1.293E3,2.163E3,8.38E2,1.74E3,9.9E1,1.18E2,1.175E3,2.154E3,9E0,2.14E2,6.24E2,1.709E3,3.1E1,6.6E1,3.3E1,1.13E2,5E0,1.4E2,1.035E3,1.995E3,1.59E2,1.73E2,4.1E1,4.26E2,1.98E2,1.258E3,4.51E2,2E1,1.1E1,5.9E1,7E0,1.9E1,1.4E1,6.1E1,5.2E1,4.3E1,9.7E1,1.35E2,9E2,1.532E3,4.63E2,1.45E2,1.4E1,1.59E2,1.4E1,1.94E2,2.32E2,1.78E2,2E1],"tree_param":{"num_deleted":"0","num_feature":"2","num_nodes":"53","size_leaf_vector":"1"}},{"base_weights":[1.5768697E-3,-1.5162307E-1,2.4815576E-1,-2.3134552E-1,-5.8779307E-3,3.64513E-1,1.2611404E-1,9.288113E-3,-2.5173146E-1,1.8739831E-1,-2.9688265E-2,2.777207E-1,7.489127E-1,-1.24195084E-1,3.5615447E-1,-1.3635476E-1,1.2017304E0,-2.323667E-1,-5.826505E-1,-9.0293355E-2,4.8591748E-1,-8.6221623E-1,-1.0401254E-2,1.665481E-1,3.763868E-1,5.3422016E-1,9.251604E-1,2.4402343E-1,-2.155522E-1,3.3232063E-1,2.0753399E-1,6.0415655E-2,-1.857947E-2,2.2162597E-1,7.461736E-2,-2.5904883E-2,1.405689E-2,-1.4918917E-1,-4.141766E-2,7.0400136E-3,-4.952271E-2,-1.3618819E-2,6.4110465E-2,-1.04906574E-1,-3.339863E-3,2.7498318E-4,-3.8100183E-2,9.59562E-3,3.0007297E-2,2.0100246E-1,2.6871234E-2,6.265319E-2,-4.295648E-3,1.843684E-1,5.252545E-2,6.8773486E-2,-8.590149E-2,-5.8306184E-2,-5.204451E-3,4.6464104E-2,2.6872598E-3],"categories":[],"categories_nodes":[],"categories_segments":[],"categories_sizes":[],"default_left":[0,0,0,0,0,0,0,0,0,0,0,0,0,0,0,0,0,0,0,0,0,0,0,0,0,0,0,0,0,0,0,0,0,0,0,0,0,0,0,0,0,0,0,0,0,0,0,0,0,0,0,0,0,0,0,0,0,0,0,0,0],"id":17,"left_children":[1,3,5,7,9,11,13,15,17,19,21,23,25,27,29,31,33,35,37,39,41,43,45,47,49,51,53,55,57,59,-1,-1,-1,-1,-1,-1,-1,-1,-1,-1,-1,-1,-1,-1,-1,-1,-1,-1,-1,-1,-1,-1,-1,-1,-1,-1,-1,-1,-1,-1,-1],"loss_changes":[2.3175479E2,4.3965538E1,3.333928E1,1.2001312E1,6.1676044E0,3.9927628E1,6.6205055E1,3.3508636E1,1.4315033E1,1.22296295E1,1.9147005E1,1.07198105E1,7.868202E0,1.8587894E1,2.3854225E1,6.409313E0,8.051979E0,2.1251328E1,1.8376839E1,5.045271E0,6.9418488E0,4.1462975E0,5.6887717E0,4.3447657E0,9.092843E1,5.4614906E0,4.3110367E1,5.442815E1,2.652972E1,2.3914383E1,0E0,0E0,0E0,0E0,0E0,0E0,0E0,0E0,0E0,0E0,0E0,0E0,0E0,0E0,0E0,0E0,0E0,0E0,0E0,0E0,0E0,0E0,0E0,0E0,0E0,0E0,0E0,0E0,0E0,0E0,0E0],"parents":[2147483647,0,0,1,1,2,2,3,3,4,4,5,5,6,6,7,7,8,8,9,9,10,10,11,11,12,12,13,13,14,14,15,15,16,16,17,17,18,18,19,19,20,20,21,21,22,22,23,23,24,24,25,25,26,26,27,27,28,28,29,29],"right_children":[2,4,6,8,10,12,14,16,18,20,22,24,26,28,30,32,34,36,38,40,42,44,46,48,50,52,54,56,58,60,-1,-1,-1,-1,-1,-1,-1,-1,-1,-1,-1,-1,-1,-1,-1,-1,-1,-1,-1,-1,-1,-1,-1,-1,-1,-1,-1,-1,-1,-1,-1],"split_conditions":[9.042E3,1.83E3,1.3E1,6E0,2.4E3,6.2484E4,1.5E1,5E0,1.023E3,2.056E3,2.508E3,4E0,4E0,1.6974E4,2E1,1E0,6E0,4.41E2,1.098E3,1.981E3,5E0,1.4E1,8.665E3,2.5941E4,7E0,3E0,8E0,1.4E1,4.7252E4,1.9E1,2.0753399E-1,6.0415655E-2,-1.857947E-2,2.2162597E-1,7.461736E-2,-2.5904883E-2,1.405689E-2,-1.4918917E-1,-4.141766E-2,7.0400136E-3,-4.952271E-2,-1.3618819E-2,6.4110465E-2,-1.04906574E-1,-3.339863E-3,2.7498318E-4,-3.8100183E-2,9.59562E-3,3.0007297E-2,2.0100246E-1,2.6871234E-2,6.265319E-2,-4.295648E-3,1.843684E-1,5.252545E-2,6.8773486E-2,-8.590149E-2,-5.8306184E-2,-5.204451E-3,4.6464104E-2,2.6872598E-3],"split_indices":[0,0,1,1,0,0,1,1,0,0,0,1,1,0,1,1,0,0,0,0,1,1,0,0,1,1,1,1,0,1,0,0,0,0,0,0,0,0,0,0,0,0,0,0,0,0,0,0,0,0,0,0,0,0,0,0,0,0,0,0,0],"split_type":[0,0,0,0,0,0,0,0,0,0,0,0,0,0,0,0,0,0,0,0,0,0,0,0,0,0,0,0,0,0,0,0,0,0,0,0,0,0,0,0,0,0,0,0,0,0,0,0,0,0,0,0,0,0,0,0,0,0,0,0,0],"sum_hessian":[6.133E3,3.783E3,2.35E3,2.445E3,1.338E3,1.202E3,1.148E3,1.91E2,2.254E3,1.46E2,1.192E3,9.82E2,2.2E2,5.5E2,5.98E2,1.71E2,2E1,2.131E3,1.23E2,7.6E1,7E1,2.6E1,1.166E3,4.63E2,5.19E2,1.01E2,1.19E2,1.09E2,4.41E2,5.91E2,7E0,1E1,1.61E2,5E0,1.5E1,1.989E3,1.42E2,1.8E1,1.05E2,5.5E1,2.1E1,1.4E1,5.6E1,2.1E1,5E0,1.127E3,3.9E1,3.04E2,1.59E2,3.1E1,4.88E2,8.7E1,1.4E1,3.5E1,8.4E1,7.8E1,3.1E1,1.35E2,3.06E2,4.12E2,1.79E2],"tree_param":{"num_deleted":"0","num_feature":"2","num_nodes":"61","size_leaf_vector":"1"}},{"base_weights":[1.539139E-3,-1.296517E-1,2.3669069E-1,-2.0815569E-1,-9.5078425E-4,3.422741E-1,1.255679E-1,-2.2118561E-1,1.2764445E-1,1.3258952E-1,-4.4436444E-2,2.6064757E-1,6.753573E-1,-1.0980352E-1,3.4999242E-1,1.0120153E-2,-2.4160591E-1,6.607674E-2,6.8809375E-2,-6.410712E-2,1.6561732E-1,-3.1289626E-2,-1.5098071E0,7.038304E-2,3.1583783E-1,4.8136994E-1,8.346185E-1,1.8475327E-1,-1.5537512E-1,2.7687055E-1,8.463995E-1,-1.2247602E-2,1.09566405E-1,-2.2421403E-2,-5.259223E-2,9.1359755E-3,-1.01620674E-1,7.108363E-2,-7.594131E-3,2.2561345E-2,-5.536725E-3,3.533554E-3,-2.1770592E-1,1.1153194E-2,-8.3814114E-2,1.8397024E-2,4.4495072E-2,5.645903E-2,-3.8947486E-3,1.664437E-1,4.733469E-2,-2.2322794E-2,2.8447831E-2,2.4893846E-2,1.8937477E-1,7.246024E-2,1.2121772E-1],"categories":[],"categories_nodes":[],"categories_segments":[],"categories_sizes":[],"default_left":[0,0,0,0,0,0,0,0,0,0,0,0,0,0,0,0,0,0,0,0,0,0,0,0,0,0,0,0,0,0,0,0,0,0,0,0,0,0,0,0,0,0,0,0,0,0,0,0,0,0,0,0,0,0,0,0,0],"id":18,"left_children":[1,3,5,7,9,11,13,15,17,19,21,23,25,27,29,31,33,35,-1,37,-1,39,41,43,45,47,49,-1,51,53,55,-1,-1,-1,-1,-1,-1,-1,-1,-1,-1,-1,-1,-1,-1,-1,-1,-1,-1,-1,-1,-1,-1,-1,-1,-1,-1],"loss_changes":[1.8926291E2,3.978753E1,2.573381E1,1.0730568E1,8.675874E0,3.043814E1,5.6664818E1,1.1125893E1,3.1290464E0,1.1009011E2,2.1664375E1,9.491455E0,6.4259644E0,4.7027306E1,1.9693375E1,2.7770472E1,1.0582626E1,2.391365E0,0E0,3.0436718E0,0E0,6.928009E0,1.0386921E1,7.757358E0,1.18702545E1,4.43869E0,3.5186935E1,0E0,1.53741455E1,2.120671E1,2.2402E0,0E0,0E0,0E0,0E0,0E0,0E0,0E0,0E0,0E0,0E0,0E0,0E0,0E0,0E0,0E0,0E0,0E0,0E0,0E0,0E0,0E0,0E0,0E0,0E0,0E0,0E0],"parents":[2147483647,0,0,1,1,2,2,3,3,4,4,5,5,6,6,7,7,8,8,9,9,10,10,11,11,12,12,13,13,14,14,15,15,16,16,17,17,19,19,21,21,22,22,23,23,24,24,25,25,26,26,28,28,29,29,30,30],"right_children":[2,4,6,8,10,12,14,16,18,20,22,24,26,28,30,32,34,36,-1,38,-1,40,42,44,46,48,50,-1,52,54,56,-1,-1,-1,-1,-1,-1,-1,-1,-1,-1,-1,-1,-1,-1,-1,-1,-1,-1,-1,-1,-1,-1,-1,-1,-1,-1],"split_conditions":[1.0129E4,1.83E3,1.3E1,2E1,6E0,6.2484E4,1.5E1,6E0,1.7E1,5E0,9.967E3,1.3853E4,4E0,1.1001E4,8.9125E4,5E0,1.023E3,6E0,6.8809375E-2,1.905E3,1.6561732E-1,2.357E3,1E1,1.3218E4,4E0,3E0,8E0,1.8475327E-1,5.74125E5,2E1,3.03518E5,-1.2247602E-2,1.09566405E-1,-2.2421403E-2,-5.259223E-2,9.1359755E-3,-1.01620674E-1,7.108363E-2,-7.594131E-3,2.2561345E-2,-5.536725E-3,3.533554E-3,-2.1770592E-1,1.1153194E-2,-8.3814114E-2,1.8397024E-2,4.4495072E-2,5.645903E-2,-3.8947486E-3,1.664437E-1,4.733469E-2,-2.2322794E-2,2.8447831E-2,2.4893846E-2,1.8937477E-1,7.246024E-2,1.2121772E-1],"split_indices":[0,0,1,1,1,0,1,1,0,1,0,0,1,0,0,1,0,0,0,0,0,0,1,0,1,1,1,0,0,1,0,0,0,0,0,0,0,0,0,0,0,0,0,0,0,0,0,0,0,0,0,0,0,0,0,0,0],"split_type":[0,0,0,0,0,0,0,0,0,0,0,0,0,0,0,0,0,0,0,0,0,0,0,0,0,0,0,0,0,0,0,0,0,0,0,0,0,0,0,0,0,0,0,0,0,0,0,0,0,0,0,0,0,0,0,0,0],"sum_hessian":[6.133E3,3.937E3,2.196E3,2.445E3,1.492E3,1.125E3,1.071E3,2.354E3,9.1E1,3.66E2,1.126E3,9.05E2,2.2E2,5.23E2,5.48E2,1.91E2,2.163E3,8.3E1,8E0,3.25E2,4.1E1,1.117E3,9E0,2.04E2,7.01E2,1.01E2,1.19E2,1.1E1,5.12E2,4.79E2,6.9E1,1.71E2,2E1,2.04E3,1.23E2,8.2E1,1E0,4E0,3.21E2,9.5E1,1.022E3,3E0,6E0,1.96E2,8E0,3.48E2,3.53E2,8.7E1,1.4E1,3.5E1,8.4E1,4.44E2,6.8E1,4.72E2,7E0,5.4E1,1.5E1],"tree_param":{"num_deleted":"0","num_feature":"2","num_nodes":"57","size_leaf_vector":"1"}},{"base_weights":[1.5298717E-3,-1.6948396E-1,1.4815708E-1,6.344757E-2,-2.0107752E-1,9.30825E-2,3.2007155E-1,-8.006029E-2,8.945242E-1,-1.9256914E-1,-1.2439346E-1,8.710733E-2,1.5739825E-1,3.669125E-1,-5.3514767E-1,-1.20702356E-1,2.0110582E-1,1.2932305E0,-3.355366E-2,-2.4974105E-1,-1.135737E-1,1.05936214E-1,-1.6455328E-1,3.1552234E-1,1.2840476E0,-1.1270567E-1,-4.4255215E-3,1.2617619E-3,-2.1627355E-2,-2.945369E-2,4.5079578E-2,9.913148E-2,1.6296974E-1,2.5138093E-2,-3.4991086E-2,-1.840277E-2,-5.108146E-2,1.094259E-2,-1.6000798E-2,2.524253E-3,1.7223217E-2,-1.0091166E-2,-8.3242714E-2,4.4645812E-2,1.1361059E-3,9.928714E-2,1.4771523E-1],"categories":[],"categories_nodes":[],"categories_segments":[],"categories_sizes":[],"default_left":[0,0,0,0,0,0,0,0,0,0,0,0,0,0,0,0,0,0,0,0,0,0,0,0,0,0,0,0,0,0,0,0,0,0,0,0,0,0,0,0,0,0,0,0,0,0,0],"id":19,"left_children":[1,3,5,7,9,11,13,15,17,19,-1,21,-1,23,25,27,29,31,33,35,37,39,41,43,45,-1,-1,-1,-1,-1,-1,-1,-1,-1,-1,-1,-1,-1,-1,-1,-1,-1,-1,-1,-1,-1,-1],"loss_changes":[1.538369E2,2.085382E1,3.1243393E1,4.05028E1,2.1889763E1,2.2011028E1,3.228385E1,3.3381536E0,1.8544922E1,1.11495285E1,0E0,1.1835222E1,0E0,3.541497E1,1.2153797E1,3.2390826E0,4.7117853E0,1.9399185E0,1.5302185E0,2.4524872E1,1.0796886E1,1.2412226E1,7.311796E0,2.870919E1,7.8247833E-1,0E0,0E0,0E0,0E0,0E0,0E0,0E0,0E0,0E0,0E0,0E0,0E0,0E0,0E0,0E0,0E0,0E0,0E0,0E0,0E0,0E0,0E0],"parents":[2147483647,0,0,1,1,2,2,3,3,4,4,5,5,6,6,7,7,8,8,9,9,11,11,13,13,14,14,15,15,16,16,17,17,18,18,19,19,20,20,21,21,22,22,23,23,24,24],"right_children":[2,4,6,8,10,12,14,16,18,20,-1,22,-1,24,26,28,30,32,34,36,38,40,42,44,46,-1,-1,-1,-1,-1,-1,-1,-1,-1,-1,-1,-1,-1,-1,-1,-1,-1,-1,-1,-1,-1,-1],"split_conditions":[3.251E3,9E0,4.5E4,5E0,3.046E3,2E1,1.030127E6,2.939E3,6E0,9.3E1,-1.2439346E-1,1.9E1,1.5739825E-1,5.74125E5,1.70384E6,6E0,2E0,1.755E3,2.939E3,2.3E1,1.83E2,1.0129E4,3.3637E4,1.54925E5,7.10493E5,-1.1270567E-1,-4.4255215E-3,1.2617619E-3,-2.1627355E-2,-2.945369E-2,4.5079578E-2,9.913148E-2,1.6296974E-1,2.5138093E-2,-3.4991086E-2,-1.840277E-2,-5.108146E-2,1.094259E-2,-1.6000798E-2,2.524253E-3,1.7223217E-2,-1.0091166E-2,-8.3242714E-2,4.4645812E-2,1.1361059E-3,9.928714E-2,1.4771523E-1],"split_indices":[0,1,0,1,0,1,0,0,1,0,0,1,0,0,0,0,1,0,0,0,0,0,0,0,0,0,0,0,0,0,0,0,0,0,0,0,0,0,0,0,0,0,0,0,0,0,0],"split_type":[0,0,0,0,0,0,0,0,0,0,0,0,0,0,0,0,0,0,0,0,0,0,0,0,0,0,0,0,0,0,0,0,0,0,0,0,0,0,0,0,0,0,0,0,0,0,0],"sum_hessian":[6.133E3,2.831E3,3.302E3,3.38E2,2.493E3,2.502E3,8E2,2.89E2,4.9E1,2.474E3,1.9E1,2.493E3,9E0,7.59E2,4.1E1,2.53E2,3.6E1,3.4E1,1.5E1,1.434E3,1.04E3,2.32E3,1.73E2,7.2E2,3.9E1,1.8E1,2.3E1,1.06E2,1.47E2,1.2E1,2.4E1,2E1,1.4E1,8E0,7E0,1.147E3,2.87E2,1.79E2,8.61E2,1.047E3,1.273E3,1.59E2,1.4E1,5.03E2,2.17E2,1.8E1,2.1E1],"tree_param":{"num_deleted":"0","num_feature":"2","num_nodes":"47","size_leaf_vector":"1"}},{"base_weights":[1.4270704E-3,-1.11043185E-1,1.8245047E-1,-1.9282874E-1,-3.3615682E-2,2.7390248E-1,8.654168E-2,-1.7192726E-1,-5.547953E-1,-3.8110245E-2,8.398932E-2,1.4510417E-1,4.349904E-1,-1.1900331E-1,2.7547115E-1,-1.9218096E-1,9.1575277E-1,-7.129354E-1,-2.2684887E-1,1.9073763E-1,-5.2800953E-2,-7.692598E-2,1.8237214E-1,3.5244942E-1,6.498946E-1,7.338958E-3,-3.5153696E-1,4.7331326E-2,4.1654328E-1,-1.4121781E-2,-3.337085E-2,7.665267E-2,1.1005858E-1,-7.562157E-2,-2.9921664E-2,-2.803342E-2,-1.4041183E-2,-8.059966E-3,4.9807422E-2,-3.7025984E-2,-3.3933239E-3,4.8818532E-3,-8.9318424E-2,2.8668473E-2,1.0157055E-2,2.3353843E-2,4.5212854E-2,7.989697E-2,3.4470957E-2,-1.9465199E-2,4.4137795E-2,-1.1712753E-1,-7.4011534E-3,1.03045525E-2,-8.9059375E-2,3.892168E-2,1.6044152E-1],"categories":[],"categories_nodes":[],"categories_segments":[],"categories_sizes":[],"default_left":[0,0,0,0,0,0,0,0,0,0,0,0,0,0,0,0,0,0,0,0,0,0,0,0,0,0,0,0,0,0,0,0,0,0,0,0,0,0,0,0,0,0,0,0,0,0,0,0,0,0,0,0,0,0,0,0,0],"id":20,"left_children":[1,3,5,7,9,11,13,15,17,19,-1,21,23,25,27,29,31,33,35,37,39,41,43,45,47,49,51,53,55,-1,-1,-1,-1,-1,-1,-1,-1,-1,-1,-1,-1,-1,-1,-1,-1,-1,-1,-1,-1,-1,-1,-1,-1,-1,-1,-1,-1],"loss_changes":[1.24906944E2,2.3955517E1,2.0597038E1,1.3825386E1,7.668158E0,2.4896545E1,4.465248E1,3.8529434E1,5.02442E0,6.5187826E0,0E0,5.5580196E0,9.243256E0,1.6190315E1,1.9258598E1,1.2286575E1,3.8993835E-2,9.734154E-1,1.1782384E-1,9.796995E0,1.0888735E1,9.999683E0,4.8089123E0,4.493355E0,6.4124184E0,3.1472471E1,4.4047962E1,1.2110592E1,1.1385872E1,0E0,0E0,0E0,0E0,0E0,0E0,0E0,0E0,0E0,0E0,0E0,0E0,0E0,0E0,0E0,0E0,0E0,0E0,0E0,0E0,0E0,0E0,0E0,0E0,0E0,0E0,0E0,0E0],"parents":[2147483647,0,0,1,1,2,2,3,3,4,4,5,5,6,6,7,7,8,8,9,9,11,11,12,12,13,13,14,14,15,15,16,16,17,17,18,18,19,19,20,20,21,21,22,22,23,23,24,24,25,25,26,26,27,27,28,28],"right_children":[2,4,6,8,10,12,14,16,18,20,-1,22,24,26,28,30,32,34,36,38,40,42,44,46,48,50,52,54,56,-1,-1,-1,-1,-1,-1,-1,-1,-1,-1,-1,-1,-1,-1,-1,-1,-1,-1,-1,-1,-1,-1,-1,-1,-1,-1,-1,-1],"split_conditions":[9.042E3,2.26E2,1.3E1,1.83E2,2E1,2.8255E4,1.5E1,1.64E2,2.03E2,3.01E2,8.398932E-2,2E0,9.9114E4,1.30825E5,2.2873E4,2.3E1,1.74E2,1.4E1,2.18E2,2.65E2,3.55E2,2.2873E4,7E0,4E0,8E0,4.7252E4,2.24869E5,2.0688E4,2E1,-1.4121781E-2,-3.337085E-2,7.665267E-2,1.1005858E-1,-7.562157E-2,-2.9921664E-2,-2.803342E-2,-1.4041183E-2,-8.059966E-3,4.9807422E-2,-3.7025984E-2,-3.3933239E-3,4.8818532E-3,-8.9318424E-2,2.8668473E-2,1.0157055E-2,2.3353843E-2,4.5212854E-2,7.989697E-2,3.4470957E-2,-1.9465199E-2,4.4137795E-2,-1.1712753E-1,-7.4011534E-3,1.03045525E-2,-8.9059375E-2,3.892168E-2,1.6044152E-1],"split_indices":[0,0,1,0,1,0,1,0,0,0,0,1,0,0,0,0,0,1,0,0,0,0,1,1,1,0,0,0,1,0,0,0,0,0,0,0,0,0,0,0,0,0,0,0,0,0,0,0,0,0,0,0,0,0,0,0,0],"split_type":[0,0,0,0,0,0,0,0,0,0,0,0,0,0,0,0,0,0,0,0,0,0,0,0,0,0,0,0,0,0,0,0,0,0,0,0,0,0,0,0,0,0,0,0,0,0,0,0,0,0,0,0,0,0,0,0,0],"sum_hessian":[6.133E3,3.783E3,2.35E3,1.839E3,1.944E3,1.202E3,1.148E3,1.74E3,9.9E1,1.935E3,9E0,6.69E2,5.33E2,5.5E2,5.98E2,1.709E3,3.1E1,6.6E1,3.3E1,1.16E2,1.819E3,9.6E1,5.73E2,3.87E2,1.46E2,3.57E2,1.93E2,2.29E2,3.69E2,1.258E3,4.51E2,2E1,1.1E1,5.9E1,7E0,1.9E1,1.4E1,6.2E1,5.4E1,1.01E2,1.718E3,8.4E1,1.2E1,2.49E2,3.24E2,1.78E2,2.09E2,9.7E1,4.9E1,2.44E2,1.13E2,4.8E1,1.45E2,2.17E2,1.2E1,3.62E2,7E0],"tree_param":{"num_deleted":"0","num_feature":"2","num_nodes":"57","size_leaf_vector":"1"}},{"base_weights":[1.3227648E-3,-1.3870205E-1,1.21379964E-1,6.614403E-2,-1.6649038E-1,7.593617E-2,2.632332E-1,-6.311354E-2,8.14515E-1,-1.5869749E-1,-1.12253726E-1,7.095413E-2,1.3108626E-1,3.0380535E-1,-4.7719696E-1,4.831565E-2,-1.6047649E-1,1.1762251E0,-2.7632833E-2,-1.7596444E-1,6.924526E-2,8.829773E-2,-1.6080132E-1,2.56608E-1,1.1469423E0,-1.0132714E-1,-3.2921475E-3,4.9697906E-2,-5.2263825E-3,-8.073078E-2,-1.7728426E-3,1.8694244E-1,9.983777E-2,2.3205226E-2,-3.163245E-2,-2.4226015E-2,-1.0692918E-2,-9.1841223E-4,1.4010201E-2,4.2891886E-2,7.7202297E-3,-1.0070949E-2,-7.9106085E-2,5.5171438E-2,1.4692615E-2,6.662553E-2,1.24629356E-1],"categories":[],"categories_nodes":[],"categories_segments":[],"categories_sizes":[],"default_left":[0,0,0,0,0,0,0,0,0,0,0,0,0,0,0,0,0,0,0,0,0,0,0,0,0,0,0,0,0,0,0,0,0,0,0,0,0,0,0,0,0,0,0,0,0,0,0],"id":21,"left_children":[1,3,5,7,9,11,13,15,17,19,-1,21,-1,23,25,27,29,31,33,35,37,39,41,43,45,-1,-1,-1,-1,-1,-1,-1,-1,-1,-1,-1,-1,-1,-1,-1,-1,-1,-1,-1,-1,-1,-1],"loss_changes":[1.0313543E2,1.6131699E1,2.1272305E1,3.2843765E1,1.8403107E1,1.5306566E1,2.4207691E1,3.1539853E0,1.5263168E1,9.753483E0,0E0,1.0038764E1,0E0,2.9948982E1,9.969563E0,6.1631546E0,1.4297443E1,2.448536E0,1.2729064E0,1.050518E1,9.7380567E-1,8.738735E0,6.510313E0,2.3256134E1,1.0799255E0,0E0,0E0,0E0,0E0,0E0,0E0,0E0,0E0,0E0,0E0,0E0,0E0,0E0,0E0,0E0,0E0,0E0,0E0,0E0,0E0,0E0,0E0],"parents":[2147483647,0,0,1,1,2,2,3,3,4,4,5,5,6,6,7,7,8,8,9,9,11,11,13,13,14,14,15,15,16,16,17,17,18,18,19,19,20,20,21,21,22,22,23,23,24,24],"right_children":[2,4,6,8,10,12,14,16,18,20,-1,22,-1,24,26,28,30,32,34,36,38,40,42,44,46,-1,-1,-1,-1,-1,-1,-1,-1,-1,-1,-1,-1,-1,-1,-1,-1,-1,-1,-1,-1,-1,-1],"split_conditions":[3.251E3,9E0,4.5E4,5E0,3.046E3,2E1,1.030127E6,3E0,6E0,1.8E1,-1.12253726E-1,1.9E1,1.3108626E-1,5.74125E5,1.70384E6,1.399E3,4E0,6E0,2.939E3,4.8E1,2E1,3.627E3,3.3637E4,8E0,1E0,-1.0132714E-1,-3.2921475E-3,4.9697906E-2,-5.2263825E-3,-8.073078E-2,-1.7728426E-3,1.8694244E-1,9.983777E-2,2.3205226E-2,-3.163245E-2,-2.4226015E-2,-1.0692918E-2,-9.1841223E-4,1.4010201E-2,4.2891886E-2,7.7202297E-3,-1.0070949E-2,-7.9106085E-2,5.5171438E-2,1.4692615E-2,6.662553E-2,1.24629356E-1],"split_indices":[0,1,0,1,0,1,0,1,1,1,0,1,0,0,0,0,1,0,0,0,1,0,0,1,1,0,0,0,0,0,0,0,0,0,0,0,0,0,0,0,0,0,0,0,0,0,0],"split_type":[0,0,0,0,0,0,0,0,0,0,0,0,0,0,0,0,0,0,0,0,0,0,0,0,0,0,0,0,0,0,0,0,0,0,0,0,0,0,0,0,0,0,0,0,0,0,0],"sum_hessian":[6.133E3,2.831E3,3.302E3,3.38E2,2.493E3,2.502E3,8E2,2.89E2,4.9E1,2.474E3,1.9E1,2.493E3,9E0,7.59E2,4.1E1,1.35E2,1.54E2,3.4E1,1.5E1,2.3E3,1.74E2,2.32E3,1.73E2,7.2E2,3.9E1,1.8E1,2.3E1,2.4E1,1.11E2,2.7E1,1.27E2,5E0,2.9E1,8E0,7E0,1.172E3,1.128E3,8.3E1,9.1E1,7.2E1,2.248E3,1.59E2,1.4E1,1.94E2,5.26E2,8E0,3.1E1],"tree_param":{"num_deleted":"0","num_feature":"2","num_nodes":"47","size_leaf_vector":"1"}},{"base_weights":[1.2484997E-3,-8.7492324E-2,1.6031091E-1,4.4582516E-2,-1.2197378E-1,1.7177446E-1,-4.3196833E-1,-6.868213E-2,2.2035734E-1,-1.5608552E-1,5.7716165E-2,1.5534462E-1,1.0370296E0,-9.1727756E-2,-2.976656E-3,-5.231999E-2,-3.6307633E-1,1.2127075E0,-1.8044446E-2,-1.510312E-1,-1.7905991E0,3.131437E-2,1.8414207E-1,2.370974E-1,6.3789666E-2,1.0917735E0,4.3546755E-2,-8.272662E-3,2.2439366E-2,-7.5765993E-3,-4.1187067E-2,1.00299515E-1,1.6345304E-1,-2.1455972E-2,2.4281477E-3,-1.1463246E-2,-3.1627927E-2,1.7384768E-3,-2.8788665E-1,-2.7840043E-4,1.4742355E-2,4.392209E-2,2.4850545E-3,1.2801523E-2,3.5962332E-2,-1.7283803E-2,2.6165837E-2,7.7176265E-2,1.3374801E-1],"categories":[],"categories_nodes":[],"categories_segments":[],"categories_sizes":[],"default_left":[0,0,0,0,0,0,0,0,0,0,0,0,0,0,0,0,0,0,0,0,0,0,0,0,0,0,0,0,0,0,0,0,0,0,0,0,0,0,0,0,0,0,0,0,0,0,0,0,0],"id":22,"left_children":[1,3,5,7,9,11,13,15,17,19,21,23,25,-1,-1,27,29,31,33,35,37,39,41,43,45,47,-1,-1,-1,-1,-1,-1,-1,-1,-1,-1,-1,-1,-1,-1,-1,-1,-1,-1,-1,-1,-1,-1,-1],"loss_changes":[8.6597466E1,1.7939615E1,1.4990997E1,1.626094E1,1.9151546E1,3.048862E1,8.170767E0,2.3750129E0,7.572686E1,2.14156E1,1.6598313E0,1.5830353E1,8.4184265E-1,0E0,0E0,3.989937E0,3.332913E-1,3.8451843E0,2.1594915E0,1.5710545E1,1.5790607E1,1.639492E0,3.4834275E0,1.4896469E1,4.686644E1,1.79842E0,0E0,0E0,0E0,0E0,0E0,0E0,0E0,0E0,0E0,0E0,0E0,0E0,0E0,0E0,0E0,0E0,0E0,0E0,0E0,0E0,0E0,0E0,0E0],"parents":[2147483647,0,0,1,1,2,2,3,3,4,4,5,5,6,6,7,7,8,8,9,9,10,10,11,11,12,12,15,15,16,16,17,17,18,18,19,19,20,20,21,21,22,22,23,23,24,24,25,25],"right_children":[2,4,6,8,10,12,14,16,18,20,22,24,26,-1,-1,28,30,32,34,36,38,40,42,44,46,48,-1,-1,-1,-1,-1,-1,-1,-1,-1,-1,-1,-1,-1,-1,-1,-1,-1,-1,-1,-1,-1,-1,-1],"split_conditions":[1.0129E4,9E0,1.030127E6,5E0,1.7E1,5.74125E5,1.70384E6,9.792E3,6E0,9.526E3,7.804E3,1.3E1,1.5E1,-9.1727756E-2,-2.976656E-3,7.535E3,1E0,5.79E3,4.004E3,1.4E1,1E1,2E1,8.665E3,2.8255E4,1.5E1,7.10493E5,4.3546755E-2,-8.272662E-3,2.2439366E-2,-7.5765993E-3,-4.1187067E-2,1.00299515E-1,1.6345304E-1,-2.1455972E-2,2.4281477E-3,-1.1463246E-2,-3.1627927E-2,1.7384768E-3,-2.8788665E-1,-2.7840043E-4,1.4742355E-2,4.392209E-2,2.4850545E-3,1.2801523E-2,3.5962332E-2,-1.7283803E-2,2.6165837E-2,7.7176265E-2,1.3374801E-1],"split_indices":[0,1,0,1,1,0,0,0,1,0,0,1,1,0,0,0,1,0,0,1,1,1,0,0,1,0,0,0,0,0,0,0,0,0,0,0,0,0,0,0,0,0,0,0,0,0,0,0,0],"split_type":[0,0,0,0,0,0,0,0,0,0,0,0,0,0,0,0,0,0,0,0,0,0,0,0,0,0,0,0,0,0,0,0,0,0,0,0,0,0,0,0,0,0,0,0,0,0,0,0,0],"sum_hessian":[6.133E3,3.937E3,2.196E3,8.15E2,3.122E3,2.155E3,4.1E1,4.96E2,3.19E2,2.624E3,4.98E2,2.116E3,3.9E1,1.8E1,2.3E1,4.71E2,2.5E1,6.1E1,2.58E2,2.617E3,7E0,4.13E2,8.5E1,1.117E3,9.99E2,3.5E1,4E0,4.25E2,4.6E1,4E0,2.1E1,4.3E1,1.8E1,4.5E1,2.13E2,2.146E3,4.71E2,3E0,4E0,3.2E2,9.3E1,3.2E1,5.3E1,5.92E2,5.25E2,4.55E2,5.44E2,1.7E1,1.8E1],"tree_param":{"num_deleted":"0","num_feature":"2","num_nodes":"49","size_leaf_vector":"1"}},{"base_weights":[1.1496047E-3,-7.87579E-2,1.4437881E-1,-1.2723094E-1,7.088518E-4,1.5474182E-1,-3.910263E-1,-1.0768808E-1,-3.3055803E-1,1.2144792E-2,-2.8760964E-1,1.3983743E-1,9.396885E-1,-8.303771E-2,-2.6914158E-3,-1.31154E-1,3.1782508E-1,-7.0238566E-1,-1.975209E-1,1.7163818E-1,-6.025365E-3,-4.6629906E-2,-8.5187787E-1,1.5348673E-1,-3.3066437E-1,4.881453E-2,1.0373198E0,4.944579E-2,-1.3555392E-2,1.718593E-2,9.769134E-2,-8.8504426E-2,7.026588E-2,-1.0471667E-2,-1.7326228E-1,-5.734483E-3,4.175544E-2,-7.4395895E-2,9.729759E-4,-3.28644E-2,4.1455735E-2,-2.648557E-1,-9.531829E-3,1.3598639E-2,4.984079E-2,-6.765794E-2,1.10937715E-1,7.1397E-2,1.4020574E-1],"categories":[],"categories_nodes":[],"categories_segments":[],"categories_sizes":[],"default_left":[0,0,0,0,0,0,0,0,0,0,0,0,0,0,0,0,0,0,0,0,0,0,0,0,0,0,0,0,0,0,0,0,0,0,0,0,0,0,0,0,0,0,0,0,0,0,0,0,0],"id":23,"left_children":[1,3,5,7,9,11,13,15,17,19,21,23,25,-1,-1,27,29,31,33,35,37,39,41,43,45,-1,47,-1,-1,-1,-1,-1,-1,-1,-1,-1,-1,-1,-1,-1,-1,-1,-1,-1,-1,-1,-1,-1,-1],"loss_changes":[7.021554E1,1.51692505E1,1.2250347E1,9.683815E0,4.9262023E0,2.5091984E1,6.696514E0,2.2338314E1,1.0447178E1,4.1654887E0,7.710978E0,1.3646172E1,1.2570267E0,0E0,0E0,5.8943634E0,1.1088015E1,1.499391E1,2.2470331E1,8.301609E0,1.5016707E1,5.4687552E0,2.2855556E1,1.2354805E1,3.0638498E1,0E0,2.7729836E0,0E0,0E0,0E0,0E0,0E0,0E0,0E0,0E0,0E0,0E0,0E0,0E0,0E0,0E0,0E0,0E0,0E0,0E0,0E0,0E0,0E0,0E0],"parents":[2147483647,0,0,1,1,2,2,3,3,4,4,5,5,6,6,7,7,8,8,9,9,10,10,11,11,12,12,15,15,16,16,17,17,18,18,19,19,20,20,21,21,22,22,23,23,24,24,26,26],"right_children":[2,4,6,8,10,12,14,16,18,20,22,24,26,-1,-1,28,30,32,34,36,38,40,42,44,46,-1,48,-1,-1,-1,-1,-1,-1,-1,-1,-1,-1,-1,-1,-1,-1,-1,-1,-1,-1,-1,-1,-1,-1],"split_conditions":[1.0129E4,1.83E3,1.030127E6,8.5E2,9.792E3,5.74125E5,1.70384E6,4.41E2,1.098E3,2.4E3,1E1,3.86941E5,1E0,-8.303771E-2,-2.6914158E-3,3E0,1.4E1,1.7E1,1.4E1,2.056E3,2.508E3,4E0,1.4E1,2.24869E5,1.4E1,4.881453E-2,7.10493E5,4.944579E-2,-1.3555392E-2,1.718593E-2,9.769134E-2,-8.8504426E-2,7.026588E-2,-1.0471667E-2,-1.7326228E-1,-5.734483E-3,4.175544E-2,-7.4395895E-2,9.729759E-4,-3.28644E-2,4.1455735E-2,-2.648557E-1,-9.531829E-3,1.3598639E-2,4.984079E-2,-6.765794E-2,1.10937715E-1,7.1397E-2,1.4020574E-1],"split_indices":[0,0,0,0,0,0,0,0,0,0,1,0,1,0,0,1,1,1,1,0,0,1,1,0,1,0,0,0,0,0,0,0,0,0,0,0,0,0,0,0,0,0,0,0,0,0,0,0,0],"split_type":[0,0,0,0,0,0,0,0,0,0,0,0,0,0,0,0,0,0,0,0,0,0,0,0,0,0,0,0,0,0,0,0,0,0,0,0,0,0,0,0,0,0,0,0,0,0,0,0,0],"sum_hessian":[6.133E3,3.937E3,2.196E3,2.445E3,1.492E3,2.155E3,4.1E1,2.232E3,2.13E2,1.436E3,5.6E1,2.116E3,3.9E1,1.8E1,2.3E1,2.116E3,1.16E2,5.5E1,1.58E2,1.46E2,1.29E3,4E1,1.6E1,2.057E3,5.9E1,8E0,3.1E1,1.4E1,2.102E3,9.6E1,2E1,4.9E1,6E0,1.5E2,8E0,7.6E1,7E1,2.6E1,1.264E3,2.5E1,1.5E1,4E0,1.2E1,1.959E3,9.8E1,4.8E1,1.1E1,1.8E1,1.3E1],"tree_param":{"num_deleted":"0","num_feature":"2","num_nodes":"49","size_leaf_vector":"1"}},{"base_weights":[1.0228832E-3,-7.527892E-2,1.2383233E-1,3.8271904E-2,-1.0294223E-1,1.9261654E-1,5.1707666E-2,-5.5659752E-2,1.8322021E-1,-1.3144018E-1,5.9440512E-2,1.4135626E-1,4.1974884E-1,-1.11649685E-1,2.018883E-1,4.7436915E-2,-1.0516647E-1,1.0153935E0,-1.314811E-3,-1.1684367E-1,-1.1350467E0,3.0315913E-2,3.4511057E-1,-6.0754567E-2,1.7668355E-1,2.1019505E-1,5.943716E-1,2.4842593E-1,-2.0100866E-1,9.49116E-3,3.2094085E-1,5.2716035E-2,-1.9351225E-3,-1.9352699E-2,1.7498688E-4,7.0205085E-2,1.18402384E-1,-4.8656836E-3,4.947119E-2,-1.887362E-2,-5.588706E-3,-4.3998072E-1,-6.0599077E-2,-2.2512418E-4,1.41206775E-2,3.828166E-2,-2.7267298E-2,9.701355E-3,-1.9050408E-2,3.729878E-3,2.3666246E-2,2.816321E-2,-2.229152E-2,1.3047278E-1,2.8652234E-2,6.508409E-2,-7.527994E-2,-5.063234E-2,-6.5100463E-3,6.018098E-3,-8.412682E-2,4.4067696E-2,6.7818314E-3],"categories":[],"categories_nodes":[],"categories_segments":[],"categories_sizes":[],"default_left":[0,0,0,0,0,0,0,0,0,0,0,0,0,0,0,0,0,0,0,0,0,0,0,0,0,0,0,0,0,0,0,0,0,0,0,0,0,0,0,0,0,0,0,0,0,0,0,0,0,0,0,0,0,0,0,0,0,0,0,0,0,0,0],"id":24,"left_children":[1,3,5,7,9,11,13,15,17,19,21,23,25,27,29,31,33,35,37,39,41,43,45,47,49,51,53,55,57,59,61,-1,-1,-1,-1,-1,-1,-1,-1,-1,-1,-1,-1,-1,-1,-1,-1,-1,-1,-1,-1,-1,-1,-1,-1,-1,-1,-1,-1,-1,-1,-1,-1],"loss_changes":[5.7488472E1,1.1890211E1,1.1653439E1,1.0112702E1,1.4089523E1,1.3947029E1,2.8211082E1,2.306883E0,4.4842346E1,3.779403E1,3.7751493E0,7.029381E0,7.9620934E0,1.7778904E1,1.371727E1,4.7200575E0,2.8817296E0,1.9692307E0,5.659969E0,1.1177525E1,6.1241676E1,1.4954375E0,1.0827379E0,3.0276208E0,6.988615E0,3.2186723E0,2.5868088E1,4.4809845E1,1.8307728E1,9.969342E0,1.1184036E1,0E0,0E0,0E0,0E0,0E0,0E0,0E0,0E0,0E0,0E0,0E0,0E0,0E0,0E0,0E0,0E0,0E0,0E0,0E0,0E0,0E0,0E0,0E0,0E0,0E0,0E0,0E0,0E0,0E0,0E0,0E0,0E0],"parents":[2147483647,0,0,1,1,2,2,3,3,4,4,5,5,6,6,7,7,8,8,9,9,10,10,11,11,12,12,13,13,14,14,15,15,16,16,17,17,18,18,19,19,20,20,21,21,22,22,23,23,24,24,25,25,26,26,27,27,28,28,29,29,30,30],"right_children":[2,4,6,8,10,12,14,16,18,20,22,24,26,28,30,32,34,36,38,40,42,44,46,48,50,52,54,56,58,60,62,-1,-1,-1,-1,-1,-1,-1,-1,-1,-1,-1,-1,-1,-1,-1,-1,-1,-1,-1,-1,-1,-1,-1,-1,-1,-1,-1,-1,-1,-1,-1,-1],"split_conditions":[9.042E3,9E0,1.3E1,5E0,1.7E1,6.2484E4,1.5E1,2E0,6E0,7.653E3,7.804E3,2E0,4E0,1.6974E4,2.2873E4,1.399E3,4E0,1.755E3,8E3,4.8E1,8E3,2E1,1.9E1,2.0688E4,1.3853E4,3E0,8E0,1.4E1,4.7252E4,2.0688E4,1.9E1,5.2716035E-2,-1.9351225E-3,-1.9352699E-2,1.7498688E-4,7.0205085E-2,1.18402384E-1,-4.8656836E-3,4.947119E-2,-1.887362E-2,-5.588706E-3,-4.3998072E-1,-6.0599077E-2,-2.2512418E-4,1.41206775E-2,3.828166E-2,-2.7267298E-2,9.701355E-3,-1.9050408E-2,3.729878E-3,2.3666246E-2,2.816321E-2,-2.229152E-2,1.3047278E-1,2.8652234E-2,6.508409E-2,-7.527994E-2,-5.063234E-2,-6.5100463E-3,6.018098E-3,-8.412682E-2,4.4067696E-2,6.7818314E-3],"split_indices":[0,1,1,1,1,0,1,1,1,0,0,1,1,0,0,0,1,0,0,0,0,1,1,0,0,1,1,1,0,0,1,0,0,0,0,0,0,0,0,0,0,0,0,0,0,0,0,0,0,0,0,0,0,0,0,0,0,0,0,0,0,0,0],"split_type":[0,0,0,0,0,0,0,0,0,0,0,0,0,0,0,0,0,0,0,0,0,0,0,0,0,0,0,0,0,0,0,0,0,0,0,0,0,0,0,0,0,0,0,0,0,0,0,0,0,0,0,0,0,0,0,0,0,0,0,0,0,0,0],"sum_hessian":[6.133E3,3.783E3,2.35E3,7.41E2,3.042E3,1.202E3,1.148E3,4.5E2,2.91E2,2.588E3,4.54E2,9.82E2,2.2E2,5.5E2,5.98E2,1.46E2,3.04E2,5.2E1,2.39E2,2.552E3,3.6E1,4.13E2,4.1E1,1.46E2,8.36E2,1.01E2,1.19E2,1.09E2,4.41E2,2.29E2,3.69E2,1.7E1,1.29E2,1.66E2,1.38E2,2E1,3.2E1,2.19E2,2E1,1.17E3,1.382E3,4E0,3.2E1,3.2E2,9.3E1,3.9E1,2E0,6.6E1,8E1,2.52E2,5.84E2,8.7E1,1.4E1,3.5E1,8.4E1,7.8E1,3.1E1,1.35E2,3.06E2,2.17E2,1.2E1,2.5E2,1.19E2],"tree_param":{"num_deleted":"0","num_feature":"2","num_nodes":"63","size_leaf_vector":"1"}},{"base_weights":[8.9655287E-4,-9.690736E-2,7.967478E-2,3.789732E-2,-1.1302224E-1,7.584974E-2,1.2505448E-1,-7.9245254E-2,7.8080523E-1,-1.0397039E-1,-6.412334E-1,4.1968968E-2,1.8540157E-1,3.4930177E-2,-1.6125557E-1,1.5828484E-1,6.210034E-1,-1.43541E-1,-4.5383595E-2,-1.1690052E-1,-2.5669917E-1,5.7430793E-2,-1.7296056E-1,1.0654681E-1,4.3975985E-1,-2.8358797E-2,1.1141237E-2,-3.2775204E-3,-2.5875518E-2,2.4011767E-2,8.946618E-2,-8.891399E-3,-3.6079194E-2,1.56459E-2,-9.119961E-3,-4.156486E-2,7.206069E-3,3.1429492E-3,1.4878971E-2,2.1205662E-2,-2.6457492E-2,3.2688558E-2,-1.360398E-2,2.4885967E-2,6.9122106E-2],"categories":[],"categories_nodes":[],"categories_segments":[],"categories_sizes":[],"default_left":[0,0,0,0,0,0,0,0,0,0,0,0,0,0,0,0,0,0,0,0,0,0,0,0,0,0,0,0,0,0,0,0,0,0,0,0,0,0,0,0,0,0,0,0,0],"id":25,"left_children":[1,3,5,7,9,11,-1,13,15,17,19,21,23,25,27,-1,29,31,33,-1,35,37,39,41,43,-1,-1,-1,-1,-1,-1,-1,-1,-1,-1,-1,-1,-1,-1,-1,-1,-1,-1,-1,-1],"loss_changes":[4.726908E1,5.950033E0,1.5123522E1,2.5560535E1,1.1623571E1,1.2567463E1,0E0,2.3839774E0,4.1437645E0,5.5690327E0,8.020716E0,8.613705E0,1.5999033E1,2.6382184E0,1.845484E0,0E0,3.4333172E0,1.6998169E1,8.993712E0,0E0,1.3363562E0,5.7344117E0,6.193624E0,3.2756622E1,8.900734E0,0E0,0E0,0E0,0E0,0E0,0E0,0E0,0E0,0E0,0E0,0E0,0E0,0E0,0E0,0E0,0E0,0E0,0E0,0E0,0E0],"parents":[2147483647,0,0,1,1,2,2,3,3,4,4,5,5,7,7,8,8,9,9,10,10,11,11,12,12,13,13,14,14,16,16,17,17,18,18,20,20,21,21,22,22,23,23,24,24],"right_children":[2,4,6,8,10,12,-1,14,16,18,20,22,24,26,28,-1,30,32,34,-1,36,38,40,42,44,-1,-1,-1,-1,-1,-1,-1,-1,-1,-1,-1,-1,-1,-1,-1,-1,-1,-1,-1,-1],"split_conditions":[2.939E3,9E0,2E1,5E0,2.594E3,4.5E4,1.2505448E-1,6E0,6E0,9.3E1,2.723E3,1.9E1,1.4E1,4E0,2E0,1.5828484E-1,1.755E3,2.3E1,1.83E2,-1.1690052E-1,1.4E1,1.5E1,6.243E3,1.3E1,9.9114E4,-2.8358797E-2,1.1141237E-2,-3.2775204E-3,-2.5875518E-2,2.4011767E-2,8.946618E-2,-8.891399E-3,-3.6079194E-2,1.56459E-2,-9.119961E-3,-4.156486E-2,7.206069E-3,3.1429492E-3,1.4878971E-2,2.1205662E-2,-2.6457492E-2,3.2688558E-2,-1.360398E-2,2.4885967E-2,6.9122106E-2],"split_indices":[0,1,1,1,0,0,0,0,0,0,0,1,1,1,1,0,0,0,0,0,1,1,0,1,0,0,0,0,0,0,0,0,0,0,0,0,0,0,0,0,0,0,0,0,0],"split_type":[0,0,0,0,0,0,0,0,0,0,0,0,0,0,0,0,0,0,0,0,0,0,0,0,0,0,0,0,0,0,0,0,0,0,0,0,0,0,0,0,0,0,0,0,0],"sum_hessian":[6.133E3,2.736E3,3.397E3,2.92E2,2.444E3,3.387E3,1E1,2.53E2,3.9E1,2.404E3,4E1,2.588E3,7.99E2,1.06E2,1.47E2,5E0,3.4E1,1.434E3,9.7E2,1.6E1,2.4E1,2.415E3,1.73E2,6.11E2,1.88E2,2E1,8.6E1,6.4E1,8.3E1,1.5E1,1.9E1,1.147E3,2.87E2,1.79E2,7.91E2,1.6E1,8E0,1.881E3,5.34E2,3.3E1,1.4E2,3.2E2,2.91E2,1.08E2,8E1],"tree_param":{"num_deleted":"0","num_feature":"2","num_nodes":"45","size_leaf_vector":"1"}},{"base_weights":[8.534771E-4,-5.9374735E-2,1.088088E-1,6.1827805E-2,-7.936043E-2,1.0472288E-1,1.2137274E-1,-5.1738802E-2,9.7119516E-1,-7.598159E-2,-1.2107698E0,1.6930133E-1,3.6347248E-2,-3.770199E-2,-3.0457097E-1,7.6081526E-1,1.4072752E-1,-9.627732E-2,4.1617017E-2,-2.0165443E-3,-1.718148E0,1.3409315E-1,3.9749524E-1,1.4397879E0,1.8986303E-2,-6.406785E-3,2.0207582E-2,-5.3688814E-3,-3.4774553E-2,1.4509441E-1,6.351335E-2,-6.769029E-3,-2.4173396E-2,1.8177171E-3,1.4061324E-2,-2.4912551E-1,1.4307976E-2,-9.906336E-4,1.7210841E-2,1.4554115E-2,5.7335444E-2,1.6139898E-1,-3.253169E-2,-1.3885691E-2,1.686251E-2],"categories":[],"categories_nodes":[],"categories_segments":[],"categories_sizes":[],"default_left":[0,0,0,0,0,0,0,0,0,0,0,0,0,0,0,0,0,0,0,0,0,0,0,0,0,0,0,0,0,0,0,0,0,0,0,0,0,0,0,0,0,0,0,0,0],"id":26,"left_children":[1,3,5,7,9,11,-1,13,15,17,19,21,23,25,27,29,-1,31,33,-1,35,37,39,41,43,-1,-1,-1,-1,-1,-1,-1,-1,-1,-1,-1,-1,-1,-1,-1,-1,-1,-1,-1,-1],"loss_changes":[3.9889458E1,9.543994E0,9.791483E0,5.7677013E1,1.2833071E1,9.66399E0,0E0,1.752349E0,4.6173553E0,8.052128E0,6.006221E0,8.993309E0,2.5921446E1,2.9969058E0,2.6295447E-1,2.894867E0,0E0,1.1942539E1,1.150711E0,0E0,1.0428946E1,5.3499794E0,6.5628223E0,4.522358E0,2.489471E1,0E0,0E0,0E0,0E0,0E0,0E0,0E0,0E0,0E0,0E0,0E0,0E0,0E0,0E0,0E0,0E0,0E0,0E0,0E0,0E0],"parents":[2147483647,0,0,1,1,2,2,3,3,4,4,5,5,7,7,8,8,9,9,10,10,11,11,12,12,13,13,14,14,15,15,17,17,18,18,20,20,21,21,22,22,23,23,24,24],"right_children":[2,4,6,8,10,12,-1,14,16,18,20,22,24,26,28,30,-1,32,34,-1,36,38,40,42,44,-1,-1,-1,-1,-1,-1,-1,-1,-1,-1,-1,-1,-1,-1,-1,-1,-1,-1,-1,-1],"split_conditions":[1.0129E4,6E0,2E1,5E0,9.967E3,1.3E1,1.2137274E-1,9.792E3,5.79E3,1.7E1,1E1,9.5766E4,1.1001E4,7.535E3,1E0,6E0,1.4072752E-1,1.4E1,2E1,-2.0165443E-3,1.4E1,1.3853E4,3E0,1.4E1,1.5E1,-6.406785E-3,2.0207582E-2,-5.3688814E-3,-3.4774553E-2,1.4509441E-1,6.351335E-2,-6.769029E-3,-2.4173396E-2,1.8177171E-3,1.4061324E-2,-2.4912551E-1,1.4307976E-2,-9.906336E-4,1.7210841E-2,1.4554115E-2,5.7335444E-2,1.6139898E-1,-3.253169E-2,-1.3885691E-2,1.686251E-2],"split_indices":[0,1,1,1,0,1,0,0,0,1,1,0,0,0,1,0,0,1,1,0,1,0,1,1,1,0,0,0,0,0,0,0,0,0,0,0,0,0,0,0,0,0,0,0,0],"split_type":[0,0,0,0,0,0,0,0,0,0,0,0,0,0,0,0,0,0,0,0,0,0,0,0,0,0,0,0,0,0,0,0,0,0,0,0,0,0,0,0,0,0,0,0,0],"sum_hessian":[6.133E3,3.937E3,2.196E3,5.57E2,3.38E3,2.189E3,7E0,4.96E2,6.1E1,3.371E3,9E0,1.125E3,1.064E3,4.71E2,2.5E1,4.3E1,1.8E1,2.875E3,4.96E2,3E0,6E0,9.76E2,1.49E2,1.2E1,1.052E3,4.25E2,4.6E1,4E0,2.1E1,5E0,3.8E1,2.404E3,4.71E2,4.02E2,9.4E1,4E0,2E0,2.04E2,7.72E2,6.2E1,8.7E1,1.1E1,1E0,5.12E2,5.4E2],"tree_param":{"num_deleted":"0","num_feature":"2","num_nodes":"45","size_leaf_vector":"1"}},{"base_weights":[8.3539943E-4,-5.648564E-2,9.3094856E-2,3.0938715E-2,-7.7784486E-2,8.959292E-2,1.10752605E-1,-4.211901E-2,1.4367191E-1,-7.331377E-2,-6.616216E-1,1.4606531E-1,3.0025601E-2,-5.7676103E-2,2.143979E-1,7.927471E-1,-2.641479E-4,-9.328127E-2,4.2178575E-2,-1.1542494E0,9.421959E-2,4.6199054E-2,2.3413786E-1,-8.519532E-2,1.3721597E-1,-3.721881E-3,-4.504373E-2,9.041965E-2,-8.732771E-3,5.0043773E-2,9.547395E-2,-4.334293E-3,4.5104995E-2,-7.928468E-3,-5.5265196E-2,1.8027278E-3,3.4388945E-2,-1.388379E-1,-6.106803E-2,-1.1205635E-2,2.5041295E-2,8.147695E-3,-2.3619747E-2,1.3199511E-1,1.0676679E-2,2.8486082E-3,-3.2160856E-2,2.50212E-2,-4.1717784E-3],"categories":[],"categories_nodes":[],"categories_segments":[],"categories_sizes":[],"default_left":[0,0,0,0,0,0,0,0,0,0,0,0,0,0,0,0,0,0,0,0,0,0,0,0,0,0,0,0,0,0,0,0,0,0,0,0,0,0,0,0,0,0,0,0,0,0,0,0,0],"id":27,"left_children":[1,3,5,7,9,11,-1,13,15,17,19,21,23,25,27,29,31,33,35,37,39,41,43,45,47,-1,-1,-1,-1,-1,-1,-1,-1,-1,-1,-1,-1,-1,-1,-1,-1,-1,-1,-1,-1,-1,-1,-1,-1],"loss_changes":[3.2444355E1,7.048358E0,8.252644E0,6.1171865E0,7.8942432E0,7.880615E0,0E0,1.8121518E0,2.7280405E1,6.9706383E0,8.672767E0,1.0570141E1,1.4116045E1,3.406073E0,5.490339E0,2.0318642E0,4.6856446E0,1.6518887E1,3.2436724E0,9.338646E-1,3.5024968E-1,5.647975E0,8.8233536E1,1.4817719E1,1.1979967E1,0E0,0E0,0E0,0E0,0E0,0E0,0E0,0E0,0E0,0E0,0E0,0E0,0E0,0E0,0E0,0E0,0E0,0E0,0E0,0E0,0E0,0E0,0E0,0E0],"parents":[2147483647,0,0,1,1,2,2,3,3,4,4,5,5,7,7,8,8,9,9,10,10,11,11,12,12,13,13,14,14,15,15,16,16,17,17,18,18,19,19,20,20,21,21,22,22,23,23,24,24],"right_children":[2,4,6,8,10,12,-1,14,16,18,20,22,24,26,28,30,32,34,36,38,40,42,44,46,48,-1,-1,-1,-1,-1,-1,-1,-1,-1,-1,-1,-1,-1,-1,-1,-1,-1,-1,-1,-1,-1,-1,-1,-1],"split_conditions":[9.042E3,9E0,2E1,5E0,8.665E3,1.3E1,1.10752605E-1,7.535E3,6E0,1.7E1,1.5E1,4E0,1.5E1,7E3,7.804E3,1.755E3,8E3,6.829E3,7.804E3,1.4E1,8.775E3,3E0,8E0,1.54925E5,1.8E1,-3.721881E-3,-4.504373E-2,9.041965E-2,-8.732771E-3,5.0043773E-2,9.547395E-2,-4.334293E-3,4.5104995E-2,-7.928468E-3,-5.5265196E-2,1.8027278E-3,3.4388945E-2,-1.388379E-1,-6.106803E-2,-1.1205635E-2,2.5041295E-2,8.147695E-3,-2.3619747E-2,1.3199511E-1,1.0676679E-2,2.8486082E-3,-3.2160856E-2,2.50212E-2,-4.1717784E-3],"split_indices":[0,1,1,1,0,1,0,0,1,1,1,1,1,0,0,0,0,0,0,1,0,1,1,0,1,0,0,0,0,0,0,0,0,0,0,0,0,0,0,0,0,0,0,0,0,0,0,0,0],"split_type":[0,0,0,0,0,0,0,0,0,0,0,0,0,0,0,0,0,0,0,0,0,0,0,0,0,0,0,0,0,0,0,0,0,0,0,0,0,0,0,0,0,0,0,0,0,0,0,0,0],"sum_hessian":[6.133E3,3.783E3,2.35E3,7.41E2,3.042E3,2.343E3,7E0,4.5E2,2.91E2,3.02E3,2.2E1,1.202E3,1.141E3,4.25E2,2.5E1,5.2E1,2.39E2,2.575E3,4.45E2,1.3E1,9E0,5.64E2,6.38E2,5.5E2,5.91E2,4.05E2,2E1,7E0,1.8E1,2E1,3.2E1,2.19E2,2E1,2.5E3,7.5E1,4.13E2,3.2E1,8E0,5E0,4E0,5E0,5.02E2,6.2E1,6.6E1,5.72E2,3.72E2,1.78E2,3.62E2,2.29E2],"tree_param":{"num_deleted":"0","num_feature":"2","num_nodes":"49","size_leaf_vector":"1"}},{"base_weights":[7.9050165E-4,-7.359953E-2,6.0709495E-2,2.8813846E-2,-8.584228E-2,5.7700846E-2,9.818539E-2,-6.1414156E-2,6.010413E-1,-7.755218E-2,-5.7003397E-1,2.850484E-2,1.521143E-1,4.131083E-2,-1.3526659E-1,1.2883283E-1,4.660481E-1,-8.2385875E-2,3.8591126E-1,-1.0451478E-1,-2.2415523E-1,4.242342E-2,-1.6491929E-1,4.1472936E-1,8.785548E-2,4.542464E-2,-2.5735886E-3,-7.244389E-2,-1.1386986E-2,1.1114634E-2,7.2666705E-2,-7.318909E-3,-7.552004E-2,7.8446195E-2,-4.2324876E-3,-3.626952E-2,6.243748E-3,3.619997E-2,3.4548116E-3,-1.0924135E-2,-7.478227E-2,2.216605E-2,1.5299281E-1,-1.2710583E-3,4.3096926E-2],"categories":[],"categories_nodes":[],"categories_segments":[],"categories_sizes":[],"default_left":[0,0,0,0,0,0,0,0,0,0,0,0,0,0,0,0,0,0,0,0,0,0,0,0,0,0,0,0,0,0,0,0,0,0,0,0,0,0,0,0,0,0,0,0,0],"id":28,"left_children":[1,3,5,7,9,11,-1,13,15,17,19,21,23,25,27,-1,29,31,33,-1,35,37,39,41,43,-1,-1,-1,-1,-1,-1,-1,-1,-1,-1,-1,-1,-1,-1,-1,-1,-1,-1,-1,-1],"loss_changes":[2.7346012E1,3.4341822E0,9.360559E0,1.5164778E1,9.770021E0,9.334674E0,0E0,1.9325562E0,3.1107426E0,5.4195757E0,6.5033283E0,6.9770756E0,1.3463829E1,2.9740894E0,1.7832489E0,0E0,3.1565285E0,1.4677715E1,4.300047E0,0E0,1.0152593E0,6.067986E0,5.565451E0,3.346457E1,2.2227085E1,0E0,0E0,0E0,0E0,0E0,0E0,0E0,0E0,0E0,0E0,0E0,0E0,0E0,0E0,0E0,0E0,0E0,0E0,0E0,0E0],"parents":[2147483647,0,0,1,1,2,2,3,3,4,4,5,5,7,7,8,8,9,9,10,10,11,11,12,12,13,13,14,14,16,16,17,17,18,18,20,20,21,21,22,22,23,23,24,24],"right_children":[2,4,6,8,10,12,-1,14,16,18,20,22,24,26,28,-1,30,32,34,-1,36,38,40,42,44,-1,-1,-1,-1,-1,-1,-1,-1,-1,-1,-1,-1,-1,-1,-1,-1,-1,-1,-1,-1],"split_conditions":[2.939E3,9E0,2E1,5E0,2.594E3,4.5E4,9.818539E-2,6E0,6E0,2.508E3,2.723E3,1.9E1,5.7264E4,3E0,1E0,1.2883283E-1,1.755E3,2.357E3,2.548E3,-1.0451478E-1,1.4E1,3.132E3,3.3637E4,5.545E4,1.4E1,4.542464E-2,-2.5735886E-3,-7.244389E-2,-1.1386986E-2,1.1114634E-2,7.2666705E-2,-7.318909E-3,-7.552004E-2,7.8446195E-2,-4.2324876E-3,-3.626952E-2,6.243748E-3,3.619997E-2,3.4548116E-3,-1.0924135E-2,-7.478227E-2,2.216605E-2,1.5299281E-1,-1.2710583E-3,4.3096926E-2],"split_indices":[0,1,1,1,0,0,0,0,0,0,0,1,0,1,1,0,0,0,0,0,1,0,0,0,1,0,0,0,0,0,0,0,0,0,0,0,0,0,0,0,0,0,0,0,0],"split_type":[0,0,0,0,0,0,0,0,0,0,0,0,0,0,0,0,0,0,0,0,0,0,0,0,0,0,0,0,0,0,0,0,0,0,0,0,0,0,0,0,0,0,0,0,0],"sum_hessian":[6.133E3,2.736E3,3.397E3,2.92E2,2.444E3,3.387E3,1E1,2.53E2,3.9E1,2.404E3,4E1,2.588E3,7.99E2,1.06E2,1.47E2,5E0,3.4E1,2.38E3,2.4E1,1.6E1,2.4E1,2.415E3,1.73E2,1.56E2,6.43E2,1.4E1,9.2E1,4E0,1.43E2,1.5E1,1.9E1,2.349E3,3.1E1,1.2E1,1.2E1,1.6E1,8E0,5.7E1,2.358E3,1.59E2,1.4E1,1.34E2,2.2E1,4.98E2,1.45E2],"tree_param":{"num_deleted":"0","num_feature":"2","num_nodes":"45","size_leaf_vector":"1"}},{"base_weights":[7.5969583E-4,-4.441793E-2,8.383934E-2,4.987061E-2,-6.035072E-2,1.3760507E-1,2.8889798E-2,-3.678699E-2,7.674857E-1,-1.132134E-1,-2.8260013E-2,4.5018826E-2,2.1601573E-1,1.5166627E-1,1.3423391E-2,2.4462289E-3,-9.890211E-2,5.7928175E-1,1.1629324E0,-6.01905E-2,-6.2234926E-1,5.2781296E-1,-4.5572773E-2,7.6262236E-2,-2.0023696E-1,1.1766E0,1.1127807E-1,-1.2103104E-1,1.3926591E-1,4.1202616E-2,-3.2628924E-3,-3.5516422E-2,1.426976E-3,1.1809677E-1,4.718613E-2,1.6737416E-1,9.6254684E-2,-8.900972E-3,2.8470779E-2,-1.03417374E-1,-2.0032227E-2,1.2943277E-1,-3.2990687E-2,-1.016443E-1,-3.6971283E-3,5.2579027E-3,3.089237E-2,1.4574337E-2,-4.750886E-2,1.4366904E-1,7.758131E-2,-7.931347E-3,1.845601E-2,-1.7920796E-2,2.5592199E-2,2.4416959E-2,-1.2414341E-3],"categories":[],"categories_nodes":[],"categories_segments":[],"categories_sizes":[],"default_left":[0,0,0,0,0,0,0,0,0,0,0,0,0,0,0,0,0,0,0,0,0,0,0,0,0,0,0,0,0,0,0,0,0,0,0,0,0,0,0,0,0,0,0,0,0,0,0,0,0,0,0,0,0,0,0,0,0],"id":29,"left_children":[1,3,5,7,9,11,13,15,17,19,21,23,25,-1,27,29,31,33,35,37,39,41,43,45,47,49,51,53,55,-1,-1,-1,-1,-1,-1,-1,-1,-1,-1,-1,-1,-1,-1,-1,-1,-1,-1,-1,-1,-1,-1,-1,-1,-1,-1,-1,-1],"loss_changes":[2.302672E1,5.9730697E0,6.3804874E0,3.578564E1,5.7645645E0,7.917919E0,2.4600874E1,1.2528476E0,3.9406624E0,3.462522E1,2.0404747E1,3.861909E0,5.932919E1,0E0,1.7952145E1,4.553125E0,5.7763987E0,2.2866163E0,3.3376312E-1,1.159515E1,2.0822758E1,4.2504116E1,1.711523E1,2.4412928E0,5.4895563E0,4.9313583E0,7.472982E0,1.1295937E1,8.722706E0,0E0,0E0,0E0,0E0,0E0,0E0,0E0,0E0,0E0,0E0,0E0,0E0,0E0,0E0,0E0,0E0,0E0,0E0,0E0,0E0,0E0,0E0,0E0,0E0,0E0,0E0,0E0,0E0],"parents":[2147483647,0,0,1,1,2,2,3,3,4,4,5,5,6,6,7,7,8,8,9,9,10,10,11,11,12,12,14,14,15,15,16,16,17,17,18,18,19,19,20,20,21,21,22,22,23,23,24,24,25,25,26,26,27,27,28,28],"right_children":[2,4,6,8,10,12,14,16,18,20,22,24,26,-1,28,30,32,34,36,38,40,42,44,46,48,50,52,54,56,-1,-1,-1,-1,-1,-1,-1,-1,-1,-1,-1,-1,-1,-1,-1,-1,-1,-1,-1,-1,-1,-1,-1,-1,-1,-1,-1,-1],"split_conditions":[1.0592E4,6E0,1.3E1,5E0,4.8E1,4E0,1.1001E4,3E0,5.79E3,2.5E1,6.4E1,3E0,8E0,1.5166627E-1,1.5E1,1.399E3,4E0,6E0,6.33E3,6E0,3.7E1,1.4E1,7E1,1.30825E5,2.2873E4,1.20297E5,9E0,5.74125E5,1.8E1,4.1202616E-2,-3.2628924E-3,-3.5516422E-2,1.426976E-3,1.1809677E-1,4.718613E-2,1.6737416E-1,9.6254684E-2,-8.900972E-3,2.8470779E-2,-1.03417374E-1,-2.0032227E-2,1.2943277E-1,-3.2990687E-2,-1.016443E-1,-3.6971283E-3,5.2579027E-3,3.089237E-2,1.4574337E-2,-4.750886E-2,1.4366904E-1,7.758131E-2,-7.931347E-3,1.845601E-2,-1.7920796E-2,2.5592199E-2,2.4416959E-2,-1.2414341E-3],"split_indices":[0,1,1,1,0,1,0,1,0,0,0,1,1,0,1,0,1,0,0,0,0,1,0,0,0,0,1,0,1,0,0,0,0,0,0,0,0,0,0,0,0,0,0,0,0,0,0,0,0,0,0,0,0,0,0,0,0],"split_type":[0,0,0,0,0,0,0,0,0,0,0,0,0,0,0,0,0,0,0,0,0,0,0,0,0,0,0,0,0,0,0,0,0,0,0,0,0,0,0,0,0,0,0,0,0,0,0,0,0,0,0,0,0,0,0,0,0],"sum_hessian":[6.133E3,3.973E3,2.16E3,5.74E2,3.399E3,1.091E3,1.069E3,5.13E2,6.1E1,1.283E3,2.116E3,5.01E2,5.9E2,1E1,1.059E3,3.15E2,1.98E2,4.3E1,1.8E1,1.163E3,1.2E2,6.3E1,2.053E3,4.45E2,5.6E1,5.7E1,5.33E2,5.12E2,5.47E2,2.4E1,2.91E2,6E1,1.38E2,5E0,3.8E1,3E0,1.5E1,1.074E3,8.9E1,6E1,6E1,3.3E1,3E1,1.7E1,2.036E3,4.05E2,4E1,2.5E1,3.1E1,3.3E1,2.4E1,1.48E2,3.85E2,4.44E2,6.8E1,3.23E2,2.24E2],"tree_param":{"num_deleted":"0","num_feature":"2","num_nodes":"57","size_leaf_vector":"1"}},{"base_weights":[8.039697E-4,-6.648556E-2,4.777419E-2,-4.770035E-2,-2.1090247E-1,8.303749E-1,4.2967677E-2,-6.834919E-2,3.263279E-1,-5.9212863E-1,-1.19159624E-1,1.0140319E0,1.7161751E-2,4.034103E-2,8.9439325E-2,-5.699609E-2,-2.6193222E-1,1.9524336E-1,9.162742E-1,-7.5513333E-1,6.567802E-2,-7.450897E-2,-5.274826E-1,1.933101E-2,1.3398902E-1,1.2076076E-1,1.278615E-2,-7.4905804E-3,2.9154578E-2,-3.562734E-2,4.575972E-2,3.527446E-2,1.0464354E-2,2.3963915E-1,-1.7890498E-2,-2.7088005E-2,-2.1125558E-1,-2.9032158E-3,-5.9712213E-2,-1.5363401E-1,1.1299738E-2,1.5784433E-3,9.848004E-2,-1.8268583E-2,2.7417792E-3],"categories":[],"categories_nodes":[],"categories_segments":[],"categories_sizes":[],"default_left":[0,0,0,0,0,0,0,0,0,0,0,0,0,0,0,0,0,0,0,0,0,0,0,0,0,0,0,0,0,0,0,0,0,0,0,0,0,0,0,0,0,0,0,0,0],"id":30,"left_children":[1,3,5,7,9,11,13,15,17,19,21,23,-1,25,-1,27,29,31,33,35,-1,37,39,-1,-1,41,43,-1,-1,-1,-1,-1,-1,-1,-1,-1,-1,-1,-1,-1,-1,-1,-1,-1,-1],"loss_changes":[1.9390322E1,6.8318806E0,1.3554907E1,1.7268324E1,1.0072128E1,2.4876537E0,7.997047E0,4.637747E0,8.869046E0,